<?xml version="1.0" ?>

<BIF VERSION="0.3">
<NETWORK>
<NAME>Common model</NAME>
<PROPERTY>software aGrUM</PROPERTY>

<!-- Variables -->
<VARIABLE TYPE="nature">
	<NAME>Time</NAME>
	<PROPERTY>description = Time</PROPERTY>
	<PROPERTY>fast = Time{bin-011|bin-012|bin-013|bin-014|bin-015|bin-016|bin-017|bin-018|bin-019|bin-020}</PROPERTY>
<!--OUTCOME are not used in pyAgrum BIFXML (see fast property) but are kept for compatibility-->
	<OUTCOME>bin-011</OUTCOME>
	<OUTCOME>bin-012</OUTCOME>
	<OUTCOME>bin-013</OUTCOME>
	<OUTCOME>bin-014</OUTCOME>
	<OUTCOME>bin-015</OUTCOME>
	<OUTCOME>bin-016</OUTCOME>
	<OUTCOME>bin-017</OUTCOME>
	<OUTCOME>bin-018</OUTCOME>
	<OUTCOME>bin-019</OUTCOME>
	<OUTCOME>bin-020</OUTCOME>
</VARIABLE>

<VARIABLE TYPE="nature">
	<NAME>Applicative Proto</NAME>
	<PROPERTY>description = Applicative Proto</PROPERTY>
	<PROPERTY>fast = Applicative Proto{dce_rpc|dns|ftp|ftp-data|gssapi|http|krb|krb_tcp|ldap_tcp|ldap_udp|ntp|ssh|ssl}</PROPERTY>
<!--OUTCOME are not used in pyAgrum BIFXML (see fast property) but are kept for compatibility-->
	<OUTCOME>dce_rpc</OUTCOME>
	<OUTCOME>dns</OUTCOME>
	<OUTCOME>ftp</OUTCOME>
	<OUTCOME>ftp-data</OUTCOME>
	<OUTCOME>gssapi</OUTCOME>
	<OUTCOME>http</OUTCOME>
	<OUTCOME>krb</OUTCOME>
	<OUTCOME>krb_tcp</OUTCOME>
	<OUTCOME>ldap_tcp</OUTCOME>
	<OUTCOME>ldap_udp</OUTCOME>
	<OUTCOME>ntp</OUTCOME>
	<OUTCOME>ssh</OUTCOME>
	<OUTCOME>ssl</OUTCOME>
</VARIABLE>

<VARIABLE TYPE="nature">
	<NAME>Proto</NAME>
	<PROPERTY>description = Proto</PROPERTY>
	<PROPERTY>fast = Proto{TCP|UDP}</PROPERTY>
<!--OUTCOME are not used in pyAgrum BIFXML (see fast property) but are kept for compatibility-->
	<OUTCOME>TCP</OUTCOME>
	<OUTCOME>UDP</OUTCOME>
</VARIABLE>

<VARIABLE TYPE="nature">
	<NAME>Src IP Addr</NAME>
	<PROPERTY>description = Src IP Addr</PROPERTY>
	<PROPERTY>fast = Src IP Addr{192.168.10.12|192.168.10.14|192.168.10.15|192.168.10.16|192.168.10.17|192.168.10.19|192.168.10.25|192.168.10.3|192.168.10.5|192.168.10.50|192.168.10.51|192.168.10.8|192.168.10.9|Internet}</PROPERTY>
<!--OUTCOME are not used in pyAgrum BIFXML (see fast property) but are kept for compatibility-->
	<OUTCOME>192.168.10.12</OUTCOME>
	<OUTCOME>192.168.10.14</OUTCOME>
	<OUTCOME>192.168.10.15</OUTCOME>
	<OUTCOME>192.168.10.16</OUTCOME>
	<OUTCOME>192.168.10.17</OUTCOME>
	<OUTCOME>192.168.10.19</OUTCOME>
	<OUTCOME>192.168.10.25</OUTCOME>
	<OUTCOME>192.168.10.3</OUTCOME>
	<OUTCOME>192.168.10.5</OUTCOME>
	<OUTCOME>192.168.10.50</OUTCOME>
	<OUTCOME>192.168.10.51</OUTCOME>
	<OUTCOME>192.168.10.8</OUTCOME>
	<OUTCOME>192.168.10.9</OUTCOME>
	<OUTCOME>Internet</OUTCOME>
</VARIABLE>

<VARIABLE TYPE="nature">
	<NAME>Dst IP Addr</NAME>
	<PROPERTY>description = Dst IP Addr</PROPERTY>
	<PROPERTY>fast = Dst IP Addr{192.168.10.1|192.168.10.12|192.168.10.16|192.168.10.17|192.168.10.19|192.168.10.255|192.168.10.3|192.168.10.50|192.168.10.51|198.199.94.97|Internet}</PROPERTY>
<!--OUTCOME are not used in pyAgrum BIFXML (see fast property) but are kept for compatibility-->
	<OUTCOME>192.168.10.1</OUTCOME>
	<OUTCOME>192.168.10.12</OUTCOME>
	<OUTCOME>192.168.10.16</OUTCOME>
	<OUTCOME>192.168.10.17</OUTCOME>
	<OUTCOME>192.168.10.19</OUTCOME>
	<OUTCOME>192.168.10.255</OUTCOME>
	<OUTCOME>192.168.10.3</OUTCOME>
	<OUTCOME>192.168.10.50</OUTCOME>
	<OUTCOME>192.168.10.51</OUTCOME>
	<OUTCOME>198.199.94.97</OUTCOME>
	<OUTCOME>Internet</OUTCOME>
</VARIABLE>

<VARIABLE TYPE="nature">
	<NAME>Dst Pt</NAME>
	<PROPERTY>description = Dst Pt</PROPERTY>
	<PROPERTY>fast = Dst Pt{port-00021|port-00022|port-00053|port-00080|port-00088|port-00123|port-00135|port-00137|port-00139|port-00389|port-00443|port-00445|port-00465|port-05353|port-05355|port-08080|port-08081|port-08817|port-18560|port-37633|port-49666|port-49671|port-55201|unique}</PROPERTY>
<!--OUTCOME are not used in pyAgrum BIFXML (see fast property) but are kept for compatibility-->
	<OUTCOME>port-00021</OUTCOME>
	<OUTCOME>port-00022</OUTCOME>
	<OUTCOME>port-00053</OUTCOME>
	<OUTCOME>port-00080</OUTCOME>
	<OUTCOME>port-00088</OUTCOME>
	<OUTCOME>port-00123</OUTCOME>
	<OUTCOME>port-00135</OUTCOME>
	<OUTCOME>port-00137</OUTCOME>
	<OUTCOME>port-00139</OUTCOME>
	<OUTCOME>port-00389</OUTCOME>
	<OUTCOME>port-00443</OUTCOME>
	<OUTCOME>port-00445</OUTCOME>
	<OUTCOME>port-00465</OUTCOME>
	<OUTCOME>port-05353</OUTCOME>
	<OUTCOME>port-05355</OUTCOME>
	<OUTCOME>port-08080</OUTCOME>
	<OUTCOME>port-08081</OUTCOME>
	<OUTCOME>port-08817</OUTCOME>
	<OUTCOME>port-18560</OUTCOME>
	<OUTCOME>port-37633</OUTCOME>
	<OUTCOME>port-49666</OUTCOME>
	<OUTCOME>port-49671</OUTCOME>
	<OUTCOME>port-55201</OUTCOME>
	<OUTCOME>unique</OUTCOME>
</VARIABLE>

<VARIABLE TYPE="nature">
	<NAME>Connection State</NAME>
	<PROPERTY>description = Connection State</PROPERTY>
	<PROPERTY>fast = Connection State{REJ|RST|S0|SF|SH|none}</PROPERTY>
<!--OUTCOME are not used in pyAgrum BIFXML (see fast property) but are kept for compatibility-->
	<OUTCOME>REJ</OUTCOME>
	<OUTCOME>RST</OUTCOME>
	<OUTCOME>S0</OUTCOME>
	<OUTCOME>SF</OUTCOME>
	<OUTCOME>SH</OUTCOME>
	<OUTCOME>none</OUTCOME>
</VARIABLE>

<!-- Probability distributions -->
<DEFINITION>
	<FOR>Time</FOR>
	<TABLE>
		0.00187315 0.155404 0.156358 0.153385 0.0920673 0.114373 0.0983093 0.096102 0.128425 0.00370317
	</TABLE>
</DEFINITION>
<DEFINITION>
	<FOR>Applicative Proto</FOR>
	<GIVEN>Time</GIVEN>
	<TABLE>
		0.0057554 0.703597 0 0 0.00863309 0.0129496 0.0618705 0.0431655 0.0345324 0.0158273 0.110791 0 0.0028777
		0.000364204 0.655151 0.000867152 0.000849809 0.000728408 0.0884842 0.00360735 0.00267083 0.00169962 0.000711065 0.0537981 0.00117933 0.189889
		0.000275795 0.573637 0.000465405 0.000448168 0.0007412 0.097373 0.00108594 0.000361982 0.00115489 0.000551591 0.024994 0.00241321 0.296497
		5.27139e-05 0.524609 0.0014057 0.0014057 0.000720423 0.0925832 0.000843422 0.000281141 0.000983993 0.000316283 0.0130203 0.00245998 0.361319
		0.000848946 0.449678 0.000995316 0.000995316 0.00128806 0.0751171 0.00222482 0.00108314 0.002137 0.00114169 0.0137588 0.00503513 0.445697
		7.06947e-05 0.662621 0.00146102 0.00146102 0.000730512 0.0933406 0.00106042 0.000400603 0.000895466 0.000518428 0.00723442 0.0026157 0.22759
		0.00046606 0.687767 0.00183682 0.00183682 0.000630552 0.112046 0.00142559 0.000438645 0.00109661 0.000795043 0.00575721 0.00523632 0.180667
		0.00028045 0.665479 0.00232773 0.00232773 0.0005609 0.112741 0.00129007 0.00039263 0.000813305 0.00067308 0.00591749 0.00387021 0.203326
		0.000188877 0.653221 0.00117524 0.00117524 0.000755509 0.0887933 0.00109129 0.000482686 0.0010703 0.000587618 0.00488982 0.00193075 0.244638
		0.0014556 0.825328 0 0 0.000727802 0.0574964 0 0.0014556 0 0.0014556 0.00509461 0.00291121 0.104076
	</TABLE>
</DEFINITION>
<DEFINITION>
	<FOR>Proto</FOR>
	<GIVEN>Connection State</GIVEN>
	<TABLE>
		1 0
		1 0
		1 0
		1 0
		1 0
		0 1
	</TABLE>
</DEFINITION>
<DEFINITION>
	<FOR>Src IP Addr</FOR>
	<GIVEN>Time</GIVEN>
	<TABLE>
		0.326619 0 0 0 0.17554 0 0.0633094 0.0906475 0 0.194245 0 0 0.107914 0.0417266
		0.0845127 0.123847 0.0568852 0.0854492 0.0335588 0.0310094 0.0257024 0.205845 0.0931668 0.0257544 0.0366285 0.0191641 0.176413 0.00206382
		0.118385 0.071793 0.0345261 0.046575 0.01984 0.0595546 0.134054 0.204985 0.100269 0.00780846 0.0763609 0.0469542 0.07855 0.000344744
		0.0404667 0.0293089 0.0232117 0.054102 0.0172726 0.0387447 0.25134 0.192318 0.138427 0.00655409 0.0452109 0.107694 0.0551387 0.000210856
		0.0388466 0.0319672 0.0295667 0.0178571 0.0348653 0.0585773 0.411417 0.173683 0.150059 0.0118852 0.0154274 0.00611827 0.0191745 0.000556206
		0.170351 0.0480017 0.0224809 0.0215619 0.0961919 0.0322132 0.0935291 0.204261 0.0418041 0.00782355 0.0647092 0.102814 0.0940475 0.000212084
		0.0415342 0.150373 0.0514859 0.0346803 0.115473 0.0365172 0 0.215374 0.064892 0.00877289 0.0441112 0.0976533 0.138886 0.000246738
		0.0709258 0.0536501 0.0472278 0.101663 0.118182 0.0426003 0 0.227024 0.143254 0.00897439 0.0537903 0.104916 0.0275121 0.00028045
		0.0546275 0.063001 0.143568 0.0794124 0.0780483 0.0555719 0.101091 0.206128 0.127828 0.00663169 0.0331165 0.0310598 0.0197272 0.000188877
		0.0167394 0 0 0.462154 0.00655022 0.283843 0.000727802 0.20524 0.00291121 0.0014556 0.0160116 0.00363901 0 0.000727802
	</TABLE>
</DEFINITION>
<DEFINITION>
	<FOR>Dst IP Addr</FOR>
	<GIVEN>Src IP Addr</GIVEN>
	<TABLE>
		0 0 0 0 0 0.000101705 0.60735 0.00600061 0 0 0.386548
		3.77316e-05 0 0 0 3.77316e-05 0.000301853 0.601743 0.00720673 0 0 0.390673
		0 0 0 0 0 0.000421696 0.636182 0.0111222 0 0 0.352275
		0 0.00464209 0 0 0 0.00454925 0.560904 0.00919135 0 0 0.420713
		0 0.00444074 0 0 0 0.004487 0.525719 0.00818762 0 0 0.457165
		0 0.00574678 0 0 0 0.00574678 0.536247 0.0116133 0 0 0.440647
		0 0.00581295 0 0 0 0.00361695 0.195681 0.000861178 0 0 0.794028
		0.996911 1.32582e-05 1.32582e-05 1.32582e-05 1.32582e-05 0.00173682 0 1.32582e-05 1.32582e-05 0 0.00127279
		0 2.52928e-05 2.52928e-05 2.52928e-05 2.52928e-05 0.000328806 0.47864 0.00538736 2.52928e-05 0 0.515517
		0 0.0277644 0 0 0 0.0258329 0.768469 0 0 0 0.177933
		0 0 0 0 0 0 0.448644 0.0111904 0 0 0.540166
		0 0 0 0 0 8.57706e-05 0.616691 0.00861995 0 0 0.374603
		0 0 0 0 0 6.76247e-05 0.664886 0.00605241 0 3.38123e-05 0.32896
		0 0 0 0 0 0 0 0 0 0 1
	</TABLE>
</DEFINITION>
<DEFINITION>
	<FOR>Dst Pt</FOR>
	<GIVEN>Applicative Proto</GIVEN>
	<GIVEN>Dst IP Addr</GIVEN>
	<TABLE>
		0 0 0 0 0 0 0 0 0 0 0 0 0 0 0 0 0 0 0 0 0 0 0 0
		0 0 0 0 0 0 0 0 0 0 0 0 0 0 0 0 0 0 0 0 0 0 0 0
		0 0 0 0 0 0 0 0 0 0 0 0 0 0 0 0 0 0 0 0 0 0 0 0
		0 0 0 0 0 0 0 0 0 0 0 0 0 0 0 0 0 0 0 0 0 0 0 0
		0 0 0 0 0 0 0 0 0 0 0 0 0 0 0 0 0 0 0 0 0 0 0 0
		0 0 0 0 0 0 0 0 0 0 0 0 0 0 0 0 0 0 0 0 0 0 0 0
		0 0 0 0 0 0 0.614035 0 0 0 0 0 0 0 0 0 0 0 0 0 0.166667 0.219298 0 0
		0 0 0 0 0 0 0 0 0 0 0 0 0 0 0 0 0 0 0 0 0 0 0 0
		0 0 0 0 0 0 0 0 0 0 0 0 0 0 0 0 0 0 0 0 0 0 0 0
		0 0 0 0 0 0 0 0 0 0 0 0 0 0 0 0 0 0 0 0 0 0 0 0
		0 0 0 0 0 0 0 0 0 0 0 0 0 0 0 0 0 0 0 0 0 0 0 0
		0 0 0.999973 0 0 0 0 2.65982e-05 0 0 0 0 0 0 0 0 0 0 0 0 0 0 0 0
		0 0 0 0 0 0 0 1 0 0 0 0 0 0 0 0 0 0 0 0 0 0 0 0
		0 0 0 0 0 0 0 1 0 0 0 0 0 0 0 0 0 0 0 0 0 0 0 0
		0 0 0 0 0 0 0 1 0 0 0 0 0 0 0 0 0 0 0 0 0 0 0 0
		0 0 0 0 0 0 0 1 0 0 0 0 0 0 0 0 0 0 0 0 0 0 0 0
		0 0 0 0 0 0 0 1 0 0 0 0 0 0 0 0 0 0 0 0 0 0 0 0
		0 0 0.999112 0 0 0 0 0.000887753 0 0 0 0 0 0 0 0 0 0 0 0 0 0 0 0
		0 0 0 0 0 0 0 1 0 0 0 0 0 0 0 0 0 0 0 0 0 0 0 0
		0 0 0 0 0 0 0 1 0 0 0 0 0 0 0 0 0 0 0 0 0 0 0 0
		0 0 0 0 0 0 0 0 0 0 0 0 0 0 0 0 0 0 0 0 0 0 0 0
		0 0 0.011984 0 0 0 0 0.292943 0 0 0 0 0 0.543276 0.151798 0 0 0 0 0 0 0 0 0
		0 0 0 0 0 0 0 0 0 0 0 0 0 0 0 0 0 0 0 0 0 0 0 0
		0 0 0 0 0 0 0 0 0 0 0 0 0 0 0 0 0 0 0 0 0 0 0 0
		0 0 0 0 0 0 0 0 0 0 0 0 0 0 0 0 0 0 0 0 0 0 0 0
		0 0 0 0 0 0 0 0 0 0 0 0 0 0 0 0 0 0 0 0 0 0 0 0
		0 0 0 0 0 0 0 0 0 0 0 0 0 0 0 0 0 0 0 0 0 0 0 0
		0 0 0 0 0 0 0 0 0 0 0 0 0 0 0 0 0 0 0 0 0 0 0 0
		0 0 0 0 0 0 0 0 0 0 0 0 0 0 0 0 0 0 0 0 0 0 0 0
		1 0 0 0 0 0 0 0 0 0 0 0 0 0 0 0 0 0 0 0 0 0 0 0
		0 0 0 0 0 0 0 0 0 0 0 0 0 0 0 0 0 0 0 0 0 0 0 0
		0 0 0 0 0 0 0 0 0 0 0 0 0 0 0 0 0 0 0 0 0 0 0 0
		0 0 0 0 0 0 0 0 0 0 0 0 0 0 0 0 0 0 0 0 0 0 0 0
		0 0 0 0 0 0 0 0 0 0 0 0 0 0 0 0 0 0 0 0 0 0 0 0
		0 0 0 0 0 0 0 0 0 0 0 0 0 0 0 0 0 0 0 0 0 0 0 0
		0 0 0 0 0 0 0 0 0 0 0 0 0 0 0 0 0 0 0 0 0 0 0 0
		0 0 0 0 0 0 0 0 0 0 0 0 0 0 0 0 0 0 0 0 0 0 0 0
		0 0 0 0 0 0 0 0 0 0 0 0 0 0 0 0 0 0 0 0 0 0 0 0
		0 0 0 0 0 0 0 0 0 0 0 0 0 0 0 0 0 0 0 0 0 0 0 0
		0 0 0 0 0 0 0 0 0 0 0 0 0 0 0 0 0 0 0 0 0 0 0 0
		0 0 0 0 0 0 0 0 0 0 0 0 0 0 0 0 0 0.00437637 0 0.00437637 0 0 0.00437637 0.986871
		0 0 0 0 0 0 0 0 0 0 0 0 0 0 0 0 0 0 0 0 0 0 0 0
		0 0 0 0 0 0 0 0 0 0 0 0 0 0 0 0 0 0 0 0 0 0 0 0
		0 0 0 0 0 0 0 0 0 0 0 0 0 0 0 0 0 0 0 0 0 0 0 0
		0 0 0 0 0 0 0 0 0 0 0 0 0 0 0 0 0 0 0 0 0 0 0 0
		0 0 0 0 0 0 0 0 1 0 0 0 0 0 0 0 0 0 0 0 0 0 0 0
		0 0 0 0 0 0 0 0 0 0 0 0 0 0 0 0 0 0 0 0 0 0 0 0
		0 0 0 0 0 0 0 0 0 0 0 0 0 0 0 0 0 0 0 0 0 0 0 0
		0 0 0 0 0 0 0 0 0 0 0 0 0 0 0 0 0 0 0 0 0 0 0 0
		0 0 0 0 0 0 0 0 0 0 0 0 0 0 0 0 0 0 0 0 0 0 0 0
		0 0 0 0 0 0 0 0 0.00549451 0 0 0.994505 0 0 0 0 0 0 0 0 0 0 0 0
		0 0 0 0 0 0 0 0 0 0 0 0 0 0 0 0 0 0 0 0 0 0 0 0
		0 0 0 0 0 0 0 0 0 0 0 0 0 0 0 0 0 0 0 0 0 0 0 0
		0 0 0 0 0 0 0 0 0 0 0 0 0 0 0 0 0 0 0 0 0 0 0 0
		0 0 0 0 0 0 0 0 0 0 0 0 0 0 0 0 0 0 0 0 0 0 0 0
		0 0 0 0 0 0 0 0 0 0 0 0 0 0 0 0 0 0 0 0 0 0 0 0
		0 0 0 0 0 0 0 0 0 0 0 0 0 0 0 0 0 0 0 0 0 0 0 0
		0 0 0 0 0 0 0 0 0 0 0 0 0 0 0 0 0 0 0 0 0 0 0 0
		0 0 0 0 0 0 0 0 0 0 0 0 0 0 0 0 0 0 0 0 0 0 0 0
		0 0 0 0 0 0 0 0 0 0 0 0 0 0 0 0 0 0 0 0 0 0 0 0
		0 0 0 0 0 0 0 0 0 0 0 0 0 0 0 0 0 0 0 0 0 0 0 0
		0 0 0 0 0 0 0 0 0 0 0 0 0 0 0 0 0 0 0 0 0 0 0 0
		0 0 0 0 0 0 0 0 0 0 0 0 0 0 0 0 0 0 0 0 0 0 0 0
		0 0 0 0 0 0 0 0 0 0 0 0 0 0 0 0 0 0 0 0 0 0 0 0
		0 0 0 1 0 0 0 0 0 0 0 0 0 0 0 0 0 0 0 0 0 0 0 0
		0 0 0 0.998084 0 0 0 0 0 0 0 0 0 0 0 0.00191582 0 0 0 0 0 0 0 0
		0 0 0 0 0 0 0 0 0 0 0 0 0 0 0 0 0 0 0 0 0 0 0 0
		0 0 0 0 0 0 0 0 0 0 0 0 0 0 0 0 0 0 0 0 0 0 0 0
		0 0 0 0 0 0 0 0 0 0 0 0 0 0 0 0 0 0 0 0 0 0 0 0
		0 0 0 0 0 0 0 0 0 0 0 0 0 0 0 0 0 0 0 0 0 0 0 0
		0 0 0 0 0 0 0 0 0 0 0 0 0 0 0 0 0 0 0 0 0 0 0 0
		0 0 0 0 0 0 0 0 0 0 0 0 0 0 0 0 0 0 0 0 0 0 0 0
		0 0 0 0 0.919431 0 0 0 0 0 0 0 0 0 0 0 0 0 0 0 0.0805687 0 0 0
		0 0 0 0 0 0 0 0 0 0 0 0 0 0 0 0 0 0 0 0 0 0 0 0
		0 0 0 0 0 0 0 0 0 0 0 0 0 0 0 0 0 0 0 0 0 0 0 0
		0 0 0 0 0 0 0 0 0 0 0 0 0 0 0 0 0 0 0 0 0 0 0 0
		0 0 0 0 0 0 0 0 0 0 0 0 0 0 0 0 0 0 0 0 0 0 0 0
		0 0 0 0 0 0 0 0 0 0 0 0 0 0 0 0 0 0 0 0 0 0 0 0
		0 0 0 0 0 0 0 0 0 0 0 0 0 0 0 0 0 0 0 0 0 0 0 0
		0 0 0 0 0 0 0 0 0 0 0 0 0 0 0 0 0 0 0 0 0 0 0 0
		0 0 0 0 0 0 0 0 0 0 0 0 0 0 0 0 0 0 0 0 0 0 0 0
		0 0 0 0 0 0 0 0 0 0 0 0 0 0 0 0 0 0 0 0 0 0 0 0
		0 0 0 0 0 0 0 0 0 0 0 0 0 0 0 0 0 0 0 0 0 0 0 0
		0 0 0 0 1 0 0 0 0 0 0 0 0 0 0 0 0 0 0 0 0 0 0 0
		0 0 0 0 0 0 0 0 0 0 0 0 0 0 0 0 0 0 0 0 0 0 0 0
		0 0 0 0 0 0 0 0 0 0 0 0 0 0 0 0 0 0 0 0 0 0 0 0
		0 0 0 0 0 0 0 0 0 0 0 0 0 0 0 0 0 0 0 0 0 0 0 0
		0 0 0 0 0 0 0 0 0 0 0 0 0 0 0 0 0 0 0 0 0 0 0 0
		0 0 0 0 0 0 0 0 0 0 0 0 0 0 0 0 0 0 0 0 0 0 0 0
		0 0 0 0 0 0 0 0 0 0 0 0 0 0 0 0 0 0 0 0 0 0 0 0
		0 0 0 0 0 0 0 0 0 0 0 0 0 0 0 0 0 0 0 0 0 0 0 0
		0 0 0 0 0 0 0 0 0 0 0 0 0 0 0 0 0 0 0 0 0 0 0 0
		0 0 0 0 0 0 0 0 0 0 0 0 0 0 0 0 0 0 0 0 0 0 0 0
		0 0 0 0 0 0 0 0 0 0 0 0 0 0 0 0 0 0 0 0 0 0 0 0
		0 0 0 0 0 0 0 0 0 1 0 0 0 0 0 0 0 0 0 0 0 0 0 0
		0 0 0 0 0 0 0 0 0 0 0 0 0 0 0 0 0 0 0 0 0 0 0 0
		0 0 0 0 0 0 0 0 0 0 0 0 0 0 0 0 0 0 0 0 0 0 0 0
		0 0 0 0 0 0 0 0 0 0 0 0 0 0 0 0 0 0 0 0 0 0 0 0
		0 0 0 0 0 0 0 0 0 0 0 0 0 0 0 0 0 0 0 0 0 0 0 0
		0 0 0 0 0 0 0 0 0 0 0 0 0 0 0 0 0 0 0 0 0 0 0 0
		0 0 0 0 0 0 0 0 0 0 0 0 0 0 0 0 0 0 0 0 0 0 0 0
		0 0 0 0 0 0 0 0 0 0 0 0 0 0 0 0 0 0 0 0 0 0 0 0
		0 0 0 0 0 0 0 0 0 0 0 0 0 0 0 0 0 0 0 0 0 0 0 0
		0 0 0 0 0 0 0 0 0 0 0 0 0 0 0 0 0 0 0 0 0 0 0 0
		0 0 0 0 0 0 0 0 0 0 0 0 0 0 0 0 0 0 0 0 0 0 0 0
		0 0 0 0 0 0 0 0 0 1 0 0 0 0 0 0 0 0 0 0 0 0 0 0
		0 0 0 0 0 0 0 0 0 0 0 0 0 0 0 0 0 0 0 0 0 0 0 0
		0 0 0 0 0 0 0 0 0 0 0 0 0 0 0 0 0 0 0 0 0 0 0 0
		0 0 0 0 0 0 0 0 0 0 0 0 0 0 0 0 0 0 0 0 0 0 0 0
		0 0 0 0 0 0 0 0 0 0 0 0 0 0 0 0 0 0 0 0 0 0 0 0
		0 0 0 0 0 0 0 0 0 0 0 0 0 0 0 0 0 0 0 0 0 0 0 0
		0 0 0 0 0 0 0 0 0 0 0 0 0 0 0 0 0 0 0 0 0 0 0 0
		0 0 0 0 0 0 0 0 0 0 0 0 0 0 0 0 0 0 0 0 0 0 0 0
		0 0 0 0 0 0 0 0 0 0 0 0 0 0 0 0 0 0 0 0 0 0 0 0
		0 0 0 0 0 0 0 0 0 0 0 0 0 0 0 0 0 0 0 0 0 0 0 0
		0 0 0 0 0 0 0 0 0 0 0 0 0 0 0 0 0 0 0 0 0 0 0 0
		0 0 0 0 0 1 0 0 0 0 0 0 0 0 0 0 0 0 0 0 0 0 0 0
		0 0 0 0 0 0 0 0 0 0 0 0 0 0 0 0 0 0 0 0 0 0 0 0
		0 0 0 0 0 0 0 0 0 0 0 0 0 0 0 0 0 0 0 0 0 0 0 0
		0 0 0 0 0 0 0 0 0 0 0 0 0 0 0 0 0 0 0 0 0 0 0 0
		0 0 0 0 0 1 0 0 0 0 0 0 0 0 0 0 0 0 0 0 0 0 0 0
		0 0 0 0 0 0 0 0 0 0 0 0 0 0 0 0 0 0 0 0 0 0 0 0
		0 0 0 0 0 0 0 0 0 0 0 0 0 0 0 0 0 0 0 0 0 0 0 0
		0 0 0 0 0 0 0 0 0 0 0 0 0 0 0 0 0 0 0 0 0 0 0 0
		0 0 0 0 0 0 0 0 0 0 0 0 0 0 0 0 0 0 0 0 0 0 0 0
		0 0 0 0 0 0 0 0 0 0 0 0 0 0 0 0 0 0 0 0 0 0 0 0
		0 0 0 0 0 0 0 0 0 0 0 0 0 0 0 0 0 0 0 0 0 0 0 0
		0 0 0 0 0 0 0 0 0 0 0 0 0 0 0 0 0 0 0 0 0 0 0 0
		0 1 0 0 0 0 0 0 0 0 0 0 0 0 0 0 0 0 0 0 0 0 0 0
		0 0 0 0 0 0 0 0 0 0 0 0 0 0 0 0 0 0 0 0 0 0 0 0
		0 0 0 0 0 0 0 0 0 0 0 0 0 0 0 0 0 0 0 0 0 0 0 0
		0 0 0 0 0 0 0 0 0 0 0 0 0 0 0 0 0 0 0 0 0 0 0 0
		0 0 0 0 0 0 0 0 0 0 0 0 0 0 0 0 0 0 0 0 0 0 0 0
		0 0 0 0 0 0 0 0 0 0 0 0 0 0 0 0 0 0 0 0 0 0 0 0
		0 0 0 0 0 0 0 0 0 0 0 0 0 0 0 0 0 0 0 0 0 0 0 0
		0 0 0 0 0 0 0 0 0 0 0 0 0 0 0 0 0 0 0 0 0 0 0 0
		0 0 0 0 0 0 0 0 0 0 0 0 0 0 0 0 0 0 0 0 0 0 0 0
		0 0 0 0 0 0 0 0 0 0 0 0 0 0 0 0 0 0 0 0 0 0 0 0
		0 0 0 0 0 0 0 0 0 0 0 0 0 0 0 0 0 0 0 0 0 0 0 0
		0 0 0 0 0 0 0 0 0 0 0 0 0 0 0 0 0 0 0 0 0 0 0 0
		0 0 0 0 0 0 0 0 0 0 0 0 0 0 0 0 0 0 0 0 0 0 0 0
		0 0 0 0 0 0 0 0 0 0 0 0 0 0 0 0 0 0 0 0 0 0 0 0
		0 0 0 0 0 0 0 0 0 0 0.996171 0 0.00369818 0 0 4.03071e-05 4.03071e-05 0 3.02304e-05 0 0 0 0 2.01536e-05
	</TABLE>
</DEFINITION>
<DEFINITION>
	<FOR>Connection State</FOR>
	<GIVEN>Applicative Proto</GIVEN>
	<GIVEN>Src IP Addr</GIVEN>
	<TABLE>
		0 0 0 0 0 0
		0 0 0 1 0 0
		0 0 0 1 0 0
		0 0 0 0 0 0
		0 0 0 0 0 0
		0 0 0 0 0 0
		0 0 0 0 0 0
		0 0 0 0 0 0
		0 0 0 1 0 0
		0 0 0 0 0 0
		0 0 0 0 0 0
		0 0 0 1 0 0
		0 0 0 1 0 0
		0 0 0 0 0 0
		0 0 0 0 0 1
		0 0 0 0 0 1
		0 0 0 0 0 1
		0 0 0 0 0 1
		0 0 0 0 0 1
		0 0 0 0 0 1
		0 0 0 0 0 1
		0 0 0 0 0 1
		0 0 0 0 0 1
		0 0 0 0 0 1
		0 0 0 0 0 1
		0 0 0 0 0 1
		0 0 0 5.13321e-05 0 0.999949
		0 0 0 0 0 1
		0 0 0 1 0 0
		0 0 0 1 0 0
		0 0 0 1 0 0
		0 0 0 1 0 0
		0 0 0 1 0 0
		0 0 0 1 0 0
		0 0 0 1 0 0
		0 0 0 0 0 0
		0 0 0 1 0 0
		0 0 0 0 0 0
		0 0 0 1 0 0
		0 0 0 1 0 0
		0 0 0 1 0 0
		0 0 0 0 0 0
		0 0 0 1 0 0
		0 0 0 1 0 0
		0 0 0 1 0 0
		0 0 0 1 0 0
		0 0 0 1 0 0
		0 0 0 1 0 0
		0 0 0 1 0 0
		0 0 0 0 0 0
		0 0 0 1 0 0
		0 0 0 0 0 0
		0 0 0 1 0 0
		0 0 0 1 0 0
		0 0 0 1 0 0
		0 0 0 0 0 0
		0 1 0 0 0 0
		0 1 0 0 0 0
		0 1 0 0 0 0
		0 0 0 0 0 0
		0 0 0 0 0 0
		0 0 0 0 0 0
		0 0 0 1 0 0
		0 0 0 0 0 0
		0 1 0 0 0 0
		0 0 0 1 0 0
		0 0 0 0 0 0
		0 1 0 0 0 0
		0 0.973684 0 0.0263158 0 0
		0 0 0 0 0 0
		0 0.00453686 0.00340265 0.99206 0 0
		0 0.0358852 0.00669856 0.957177 0.000239234 0
		0 0.0378198 0.00296626 0.959214 0 0
		0.00114068 0.00760456 0.0121673 0.979087 0 0
		0 0.0127173 0.00169563 0.983891 0.00169563 0
		0.00156822 0.0245687 0.0318871 0.937794 0.00418191 0
		0 0.00890688 0.00101215 0.795951 0.19413 0
		0 0 0 1 0 0
		0 0.0423172 0.00328677 0.954396 0 0
		0 0 0 1 0 0
		0 0.0172825 0 0.982718 0 0
		0.000332336 0.0578265 0.0142905 0.927218 0.000332336 0
		0 0.0627868 0.00563204 0.931581 0 0
		0 0 0 0 0 0
		0 0 0 0 0 1
		0 0 0 1 0 0
		0 0 0 1 0 0
		0 0 0 0 0 1
		0 0 0 0 0 1
		0 0 0 0 0 1
		0 0 0 0 0 1
		0 0 0 0 0 0
		0 0 0 1 0 0
		0 0 0 0 0 1
		0 0 0 0 0 1
		0 0 0 1 0 0
		0 0 0 1 0 0
		0 0 0 0 0 0
		0 1 0 0 0 0
		0 1 0 0 0 0
		0 1 0 0 0 0
		0 1 0 0 0 0
		0 1 0 0 0 0
		0 1 0 0 0 0
		0 0 0 0 0 0
		0 0 0 0 0 0
		0 1 0 0 0 0
		0 1 0 0 0 0
		0 0 0 0 0 0
		0 1 0 0 0 0
		0 1 0 0 0 0
		0 0 0 0 0 0
		0 1 0 0 0 0
		0 1 0 0 0 0
		0.0434783 0.956522 0 0 0 0
		0 1 0 0 0 0
		0 1 0 0 0 0
		0 1 0 0 0 0
		0.00694444 0.993056 0 0 0 0
		0 0 0 0 0 0
		0 1 0 0 0 0
		0 1 0 0 0 0
		0 0 0 0 0 0
		0 1 0 0 0 0
		0 1 0 0 0 0
		0 0 0 0 0 0
		0 0 0 0 0 1
		0 0 0 0 0 1
		0 0 0 0 0 1
		0 0 0 0 0 1
		0 0 0 0 0 0
		0 0 0 0 0 0
		0 0 0 0 0 1
		0 0 0 0 0 0
		0 0 0 0 0 1
		0 0 0 0 0 1
		0 0 0 0 0 1
		0 0 0 0 0 1
		0 0 0 0 0 1
		0 0 0 0 0 0
		0 0 0 0 0 1
		0 0 0 0 0 1
		0 0 0 0 0 1
		0 0 0 0 0 1
		0 0 0 0 0 1
		0 0 0 0 0 1
		0 0 0 0 0 1
		0 0 0 0 0 0
		0 0 0 0 0 1
		0 0 0 0 0 1
		0 0 0 0 0 1
		0 0 0 0 0 1
		0 0 0 0 0 1
		0 0 0 0 0 0
		0 0 0 1 0 0
		0 0 0 1 0 0
		0 0 0 1 0 0
		0 0 0.02 0.98 0 0
		0 0 0 1 0 0
		0 0 0.0178571 0.982143 0 0
		0 0 0 0 0 0
		0 0 0 0 0 0
		0 0 0 1 0 0
		0 0 0 0 0 0
		0 0 0 1 0 0
		0 0 0 1 0 0
		0 0 0 1 0 0
		0 0 0 0 0 0
		0.003003 0.0652252 0.0102102 0.920961 0.000600601 0
		0.0296837 0.116788 0.015734 0.837794 0 0
		0.0120603 0.121357 0.0133166 0.853015 0.000251256 0
		0.00686307 0.0631068 0.0205892 0.907767 0.00167392 0
		0.00662123 0.0634859 0.0251217 0.904771 0 0
		0.00282885 0.0707214 0.0562942 0.86761 0.00254597 0
		0.000347936 0.0129053 0.000948917 0.843207 0.142591 0
		0 0 0 1 0 0
		0.0123849 0.0878661 0.00903766 0.890209 0.000502092 0
		0 1 0 0 0 0
		0.00870422 0.0763672 0.0190507 0.8944 0.00147808 0
		0.0398327 0.089669 0.0207348 0.849764 0 0
		0.0182482 0.101582 0.00628548 0.873682 0.000202758 0
		0 0 0 0 0 0
	</TABLE>
</DEFINITION>

</NETWORK>
</BIF>
