<?xml version="1.0" ?>

<BIF VERSION="0.3">
<NETWORK>
<NAME>unnamedBN</NAME>
<PROPERTY>software aGrUM</PROPERTY>

<!-- Variables -->
<VARIABLE TYPE="nature">
	<NAME>Time</NAME>
	<PROPERTY>description = </PROPERTY>
	<PROPERTY>fast = Time{bin-047|bin-048|bin-049|bin-050|bin-051|bin-052|bin-053|bin-054|bin-055|bin-056|bin-057|bin-058|bin-059|bin-060|bin-061|bin-062|bin-063|bin-064|bin-065|bin-066|bin-067|bin-068|bin-069|bin-070|bin-071|bin-072|bin-073|bin-074|bin-075|bin-076|bin-077|bin-078|bin-079|bin-080}</PROPERTY>
<!--OUTCOME are not used in pyAgrum BIFXML (see fast property) but are kept for compatibility-->
	<OUTCOME>bin-047</OUTCOME>
	<OUTCOME>bin-048</OUTCOME>
	<OUTCOME>bin-049</OUTCOME>
	<OUTCOME>bin-050</OUTCOME>
	<OUTCOME>bin-051</OUTCOME>
	<OUTCOME>bin-052</OUTCOME>
	<OUTCOME>bin-053</OUTCOME>
	<OUTCOME>bin-054</OUTCOME>
	<OUTCOME>bin-055</OUTCOME>
	<OUTCOME>bin-056</OUTCOME>
	<OUTCOME>bin-057</OUTCOME>
	<OUTCOME>bin-058</OUTCOME>
	<OUTCOME>bin-059</OUTCOME>
	<OUTCOME>bin-060</OUTCOME>
	<OUTCOME>bin-061</OUTCOME>
	<OUTCOME>bin-062</OUTCOME>
	<OUTCOME>bin-063</OUTCOME>
	<OUTCOME>bin-064</OUTCOME>
	<OUTCOME>bin-065</OUTCOME>
	<OUTCOME>bin-066</OUTCOME>
	<OUTCOME>bin-067</OUTCOME>
	<OUTCOME>bin-068</OUTCOME>
	<OUTCOME>bin-069</OUTCOME>
	<OUTCOME>bin-070</OUTCOME>
	<OUTCOME>bin-071</OUTCOME>
	<OUTCOME>bin-072</OUTCOME>
	<OUTCOME>bin-073</OUTCOME>
	<OUTCOME>bin-074</OUTCOME>
	<OUTCOME>bin-075</OUTCOME>
	<OUTCOME>bin-076</OUTCOME>
	<OUTCOME>bin-077</OUTCOME>
	<OUTCOME>bin-078</OUTCOME>
	<OUTCOME>bin-079</OUTCOME>
	<OUTCOME>bin-080</OUTCOME>
</VARIABLE>

<VARIABLE TYPE="nature">
	<NAME>Src IP Role</NAME>
	<PROPERTY>description = </PROPERTY>
	<PROPERTY>fast = Src IP Role{Internet|Server|User}</PROPERTY>
<!--OUTCOME are not used in pyAgrum BIFXML (see fast property) but are kept for compatibility-->
	<OUTCOME>Internet</OUTCOME>
	<OUTCOME>Server</OUTCOME>
	<OUTCOME>User</OUTCOME>
</VARIABLE>

<VARIABLE TYPE="nature">
	<NAME>Dst IP Role</NAME>
	<PROPERTY>description = </PROPERTY>
	<PROPERTY>fast = Dst IP Role{Internet|Server|User}</PROPERTY>
<!--OUTCOME are not used in pyAgrum BIFXML (see fast property) but are kept for compatibility-->
	<OUTCOME>Internet</OUTCOME>
	<OUTCOME>Server</OUTCOME>
	<OUTCOME>User</OUTCOME>
</VARIABLE>

<VARIABLE TYPE="nature">
	<NAME>Applicative Proto</NAME>
	<PROPERTY>description = </PROPERTY>
	<PROPERTY>fast = Applicative Proto{dns|ftp|ftp-data|http|krb|ldap_tcp|ntp|ssh|ssl}</PROPERTY>
<!--OUTCOME are not used in pyAgrum BIFXML (see fast property) but are kept for compatibility-->
	<OUTCOME>dns</OUTCOME>
	<OUTCOME>ftp</OUTCOME>
	<OUTCOME>ftp-data</OUTCOME>
	<OUTCOME>http</OUTCOME>
	<OUTCOME>krb</OUTCOME>
	<OUTCOME>ldap_tcp</OUTCOME>
	<OUTCOME>ntp</OUTCOME>
	<OUTCOME>ssh</OUTCOME>
	<OUTCOME>ssl</OUTCOME>
</VARIABLE>

<VARIABLE TYPE="nature">
	<NAME>Proto</NAME>
	<PROPERTY>description = </PROPERTY>
	<PROPERTY>fast = Proto{TCP|UDP}</PROPERTY>
<!--OUTCOME are not used in pyAgrum BIFXML (see fast property) but are kept for compatibility-->
	<OUTCOME>TCP</OUTCOME>
	<OUTCOME>UDP</OUTCOME>
</VARIABLE>

<VARIABLE TYPE="nature">
	<NAME>Src IP Addr</NAME>
	<PROPERTY>description = </PROPERTY>
	<PROPERTY>fast = Src IP Addr{192.168.10.12|192.168.10.14|192.168.10.15|192.168.10.16|192.168.10.17|192.168.10.19|192.168.10.25|192.168.10.3|192.168.10.5|192.168.10.50|192.168.10.51|192.168.10.8|192.168.10.9|Internet}</PROPERTY>
<!--OUTCOME are not used in pyAgrum BIFXML (see fast property) but are kept for compatibility-->
	<OUTCOME>192.168.10.12</OUTCOME>
	<OUTCOME>192.168.10.14</OUTCOME>
	<OUTCOME>192.168.10.15</OUTCOME>
	<OUTCOME>192.168.10.16</OUTCOME>
	<OUTCOME>192.168.10.17</OUTCOME>
	<OUTCOME>192.168.10.19</OUTCOME>
	<OUTCOME>192.168.10.25</OUTCOME>
	<OUTCOME>192.168.10.3</OUTCOME>
	<OUTCOME>192.168.10.5</OUTCOME>
	<OUTCOME>192.168.10.50</OUTCOME>
	<OUTCOME>192.168.10.51</OUTCOME>
	<OUTCOME>192.168.10.8</OUTCOME>
	<OUTCOME>192.168.10.9</OUTCOME>
	<OUTCOME>Internet</OUTCOME>
</VARIABLE>

<VARIABLE TYPE="nature">
	<NAME>Dst IP Addr</NAME>
	<PROPERTY>description = </PROPERTY>
	<PROPERTY>fast = Dst IP Addr{172.104.52.34|172.104.54.71|172.104.98.120|172.217.0.238|172.217.1.163|172.217.1.166|172.217.1.174|172.217.10.1|172.217.10.10|172.217.10.100|172.217.10.102|172.217.10.104|172.217.10.106|172.217.10.109|172.217.10.110|172.217.10.114|172.217.10.115|172.217.10.129|172.217.10.13|172.217.10.130|172.217.10.131|172.217.10.132|172.217.10.134|172.217.10.136|172.217.10.137|172.217.10.138|172.217.10.14|172.217.10.141|172.217.10.142|172.217.10.146|172.217.10.147|172.217.10.18|172.217.10.19|172.217.10.2|172.217.10.225|172.217.10.226|172.217.10.227|172.217.10.228|172.217.10.230|172.217.10.232|172.217.10.234|172.217.10.237|172.217.10.238|172.217.10.242|172.217.10.243|172.217.10.3|172.217.10.33|172.217.10.34|172.217.10.35|172.217.10.36|172.217.10.38|172.217.10.40|172.217.10.42|172.217.10.45|172.217.10.46|172.217.10.50|172.217.10.51|172.217.10.6|172.217.10.65|172.217.10.66|172.217.10.67|172.217.10.68|172.217.10.70|172.217.10.72|172.217.10.74|172.217.10.77|172.217.10.78|172.217.10.8|172.217.10.82|172.217.10.83|172.217.10.97|172.217.10.98|172.217.10.99|172.217.11.1|172.217.11.10|172.217.11.13|172.217.11.14|172.217.11.18|172.217.11.19|172.217.11.2|172.217.11.3|172.217.11.33|172.217.11.34|172.217.11.35|172.217.11.36|172.217.11.38|172.217.11.4|172.217.11.40|172.217.11.42|172.217.11.45|172.217.11.46|172.217.11.50|172.217.11.51|172.217.11.6|172.217.11.8|172.217.12.129|172.217.12.130|172.217.12.131|172.217.12.132|172.217.12.134|172.217.12.136|172.217.12.138|172.217.12.141|172.217.12.142|172.217.12.146|172.217.12.147|172.217.12.161|172.217.12.162|172.217.12.163|172.217.12.164|172.217.12.166|172.217.12.168|172.217.12.170|172.217.12.173|172.217.12.174|172.217.12.178|172.217.12.179|172.217.12.193|172.217.12.194|172.217.12.195|172.217.12.198|172.217.12.200|172.217.12.201|172.217.12.202|172.217.12.205|172.217.12.206|172.217.12.210|172.217.12.211|172.217.12.99|172.217.17.35|172.217.17.99|172.217.19.206|172.217.2.102|172.217.2.109|172.217.2.110|172.217.2.162|172.217.2.164|172.217.20.78|172.217.29.195|172.217.3.100|172.217.3.102|172.217.3.104|172.217.3.106|172.217.3.109|172.217.3.110|172.217.3.114|172.217.3.115|172.217.3.116|172.217.3.34|172.217.3.35|172.217.3.36|172.217.3.97|172.217.3.98|172.217.3.99|172.217.5.227|172.217.5.228|172.217.5.238|172.217.6.193|172.217.6.194|172.217.6.195|172.217.6.196|172.217.6.198|172.217.6.200|172.217.6.202|172.217.6.206|172.217.6.210|172.217.6.211|172.217.6.212|172.217.6.225|172.217.6.226|172.217.6.227|172.217.6.228|172.217.6.230|172.217.6.232|172.217.6.234|172.217.6.237|172.217.6.238|172.217.6.243|172.217.7.1|172.217.7.10|172.217.7.13|172.217.7.131|172.217.7.132|172.217.7.14|172.217.7.162|172.217.7.163|172.217.7.164|172.217.7.170|172.217.7.174|172.217.7.18|172.217.7.19|172.217.7.195|172.217.7.196|172.217.7.2|172.217.7.202|172.217.7.227|172.217.7.228|172.217.7.3|172.217.7.4|172.217.7.6|172.217.7.8|172.217.8.10|172.217.8.3|172.217.8.4|172.217.8.6|172.217.9.225|172.217.9.226|172.217.9.227|172.217.9.228|172.217.9.230|172.217.9.232|172.217.9.233|172.217.9.234|172.217.9.237|172.217.9.238|172.217.9.242|172.217.9.243|172.224.10.215|172.224.108.63|172.224.11.150|172.224.12.18|172.224.13.96|172.224.5.142|172.224.8.45|172.82.204.149|172.82.204.92|172.82.206.1|172.82.206.2|172.98.66.52|172.98.66.53|172.98.66.58|172.98.66.60|192.168.10.1|192.168.10.12|192.168.10.16|192.168.10.17|192.168.10.19|192.168.10.255|192.168.10.3|192.168.10.50|192.168.10.51|198.199.94.97|Internet}</PROPERTY>
<!--OUTCOME are not used in pyAgrum BIFXML (see fast property) but are kept for compatibility-->
	<OUTCOME>172.104.52.34</OUTCOME>
	<OUTCOME>172.104.54.71</OUTCOME>
	<OUTCOME>172.104.98.120</OUTCOME>
	<OUTCOME>172.217.0.238</OUTCOME>
	<OUTCOME>172.217.1.163</OUTCOME>
	<OUTCOME>172.217.1.166</OUTCOME>
	<OUTCOME>172.217.1.174</OUTCOME>
	<OUTCOME>172.217.10.1</OUTCOME>
	<OUTCOME>172.217.10.10</OUTCOME>
	<OUTCOME>172.217.10.100</OUTCOME>
	<OUTCOME>172.217.10.102</OUTCOME>
	<OUTCOME>172.217.10.104</OUTCOME>
	<OUTCOME>172.217.10.106</OUTCOME>
	<OUTCOME>172.217.10.109</OUTCOME>
	<OUTCOME>172.217.10.110</OUTCOME>
	<OUTCOME>172.217.10.114</OUTCOME>
	<OUTCOME>172.217.10.115</OUTCOME>
	<OUTCOME>172.217.10.129</OUTCOME>
	<OUTCOME>172.217.10.13</OUTCOME>
	<OUTCOME>172.217.10.130</OUTCOME>
	<OUTCOME>172.217.10.131</OUTCOME>
	<OUTCOME>172.217.10.132</OUTCOME>
	<OUTCOME>172.217.10.134</OUTCOME>
	<OUTCOME>172.217.10.136</OUTCOME>
	<OUTCOME>172.217.10.137</OUTCOME>
	<OUTCOME>172.217.10.138</OUTCOME>
	<OUTCOME>172.217.10.14</OUTCOME>
	<OUTCOME>172.217.10.141</OUTCOME>
	<OUTCOME>172.217.10.142</OUTCOME>
	<OUTCOME>172.217.10.146</OUTCOME>
	<OUTCOME>172.217.10.147</OUTCOME>
	<OUTCOME>172.217.10.18</OUTCOME>
	<OUTCOME>172.217.10.19</OUTCOME>
	<OUTCOME>172.217.10.2</OUTCOME>
	<OUTCOME>172.217.10.225</OUTCOME>
	<OUTCOME>172.217.10.226</OUTCOME>
	<OUTCOME>172.217.10.227</OUTCOME>
	<OUTCOME>172.217.10.228</OUTCOME>
	<OUTCOME>172.217.10.230</OUTCOME>
	<OUTCOME>172.217.10.232</OUTCOME>
	<OUTCOME>172.217.10.234</OUTCOME>
	<OUTCOME>172.217.10.237</OUTCOME>
	<OUTCOME>172.217.10.238</OUTCOME>
	<OUTCOME>172.217.10.242</OUTCOME>
	<OUTCOME>172.217.10.243</OUTCOME>
	<OUTCOME>172.217.10.3</OUTCOME>
	<OUTCOME>172.217.10.33</OUTCOME>
	<OUTCOME>172.217.10.34</OUTCOME>
	<OUTCOME>172.217.10.35</OUTCOME>
	<OUTCOME>172.217.10.36</OUTCOME>
	<OUTCOME>172.217.10.38</OUTCOME>
	<OUTCOME>172.217.10.40</OUTCOME>
	<OUTCOME>172.217.10.42</OUTCOME>
	<OUTCOME>172.217.10.45</OUTCOME>
	<OUTCOME>172.217.10.46</OUTCOME>
	<OUTCOME>172.217.10.50</OUTCOME>
	<OUTCOME>172.217.10.51</OUTCOME>
	<OUTCOME>172.217.10.6</OUTCOME>
	<OUTCOME>172.217.10.65</OUTCOME>
	<OUTCOME>172.217.10.66</OUTCOME>
	<OUTCOME>172.217.10.67</OUTCOME>
	<OUTCOME>172.217.10.68</OUTCOME>
	<OUTCOME>172.217.10.70</OUTCOME>
	<OUTCOME>172.217.10.72</OUTCOME>
	<OUTCOME>172.217.10.74</OUTCOME>
	<OUTCOME>172.217.10.77</OUTCOME>
	<OUTCOME>172.217.10.78</OUTCOME>
	<OUTCOME>172.217.10.8</OUTCOME>
	<OUTCOME>172.217.10.82</OUTCOME>
	<OUTCOME>172.217.10.83</OUTCOME>
	<OUTCOME>172.217.10.97</OUTCOME>
	<OUTCOME>172.217.10.98</OUTCOME>
	<OUTCOME>172.217.10.99</OUTCOME>
	<OUTCOME>172.217.11.1</OUTCOME>
	<OUTCOME>172.217.11.10</OUTCOME>
	<OUTCOME>172.217.11.13</OUTCOME>
	<OUTCOME>172.217.11.14</OUTCOME>
	<OUTCOME>172.217.11.18</OUTCOME>
	<OUTCOME>172.217.11.19</OUTCOME>
	<OUTCOME>172.217.11.2</OUTCOME>
	<OUTCOME>172.217.11.3</OUTCOME>
	<OUTCOME>172.217.11.33</OUTCOME>
	<OUTCOME>172.217.11.34</OUTCOME>
	<OUTCOME>172.217.11.35</OUTCOME>
	<OUTCOME>172.217.11.36</OUTCOME>
	<OUTCOME>172.217.11.38</OUTCOME>
	<OUTCOME>172.217.11.4</OUTCOME>
	<OUTCOME>172.217.11.40</OUTCOME>
	<OUTCOME>172.217.11.42</OUTCOME>
	<OUTCOME>172.217.11.45</OUTCOME>
	<OUTCOME>172.217.11.46</OUTCOME>
	<OUTCOME>172.217.11.50</OUTCOME>
	<OUTCOME>172.217.11.51</OUTCOME>
	<OUTCOME>172.217.11.6</OUTCOME>
	<OUTCOME>172.217.11.8</OUTCOME>
	<OUTCOME>172.217.12.129</OUTCOME>
	<OUTCOME>172.217.12.130</OUTCOME>
	<OUTCOME>172.217.12.131</OUTCOME>
	<OUTCOME>172.217.12.132</OUTCOME>
	<OUTCOME>172.217.12.134</OUTCOME>
	<OUTCOME>172.217.12.136</OUTCOME>
	<OUTCOME>172.217.12.138</OUTCOME>
	<OUTCOME>172.217.12.141</OUTCOME>
	<OUTCOME>172.217.12.142</OUTCOME>
	<OUTCOME>172.217.12.146</OUTCOME>
	<OUTCOME>172.217.12.147</OUTCOME>
	<OUTCOME>172.217.12.161</OUTCOME>
	<OUTCOME>172.217.12.162</OUTCOME>
	<OUTCOME>172.217.12.163</OUTCOME>
	<OUTCOME>172.217.12.164</OUTCOME>
	<OUTCOME>172.217.12.166</OUTCOME>
	<OUTCOME>172.217.12.168</OUTCOME>
	<OUTCOME>172.217.12.170</OUTCOME>
	<OUTCOME>172.217.12.173</OUTCOME>
	<OUTCOME>172.217.12.174</OUTCOME>
	<OUTCOME>172.217.12.178</OUTCOME>
	<OUTCOME>172.217.12.179</OUTCOME>
	<OUTCOME>172.217.12.193</OUTCOME>
	<OUTCOME>172.217.12.194</OUTCOME>
	<OUTCOME>172.217.12.195</OUTCOME>
	<OUTCOME>172.217.12.198</OUTCOME>
	<OUTCOME>172.217.12.200</OUTCOME>
	<OUTCOME>172.217.12.201</OUTCOME>
	<OUTCOME>172.217.12.202</OUTCOME>
	<OUTCOME>172.217.12.205</OUTCOME>
	<OUTCOME>172.217.12.206</OUTCOME>
	<OUTCOME>172.217.12.210</OUTCOME>
	<OUTCOME>172.217.12.211</OUTCOME>
	<OUTCOME>172.217.12.99</OUTCOME>
	<OUTCOME>172.217.17.35</OUTCOME>
	<OUTCOME>172.217.17.99</OUTCOME>
	<OUTCOME>172.217.19.206</OUTCOME>
	<OUTCOME>172.217.2.102</OUTCOME>
	<OUTCOME>172.217.2.109</OUTCOME>
	<OUTCOME>172.217.2.110</OUTCOME>
	<OUTCOME>172.217.2.162</OUTCOME>
	<OUTCOME>172.217.2.164</OUTCOME>
	<OUTCOME>172.217.20.78</OUTCOME>
	<OUTCOME>172.217.29.195</OUTCOME>
	<OUTCOME>172.217.3.100</OUTCOME>
	<OUTCOME>172.217.3.102</OUTCOME>
	<OUTCOME>172.217.3.104</OUTCOME>
	<OUTCOME>172.217.3.106</OUTCOME>
	<OUTCOME>172.217.3.109</OUTCOME>
	<OUTCOME>172.217.3.110</OUTCOME>
	<OUTCOME>172.217.3.114</OUTCOME>
	<OUTCOME>172.217.3.115</OUTCOME>
	<OUTCOME>172.217.3.116</OUTCOME>
	<OUTCOME>172.217.3.34</OUTCOME>
	<OUTCOME>172.217.3.35</OUTCOME>
	<OUTCOME>172.217.3.36</OUTCOME>
	<OUTCOME>172.217.3.97</OUTCOME>
	<OUTCOME>172.217.3.98</OUTCOME>
	<OUTCOME>172.217.3.99</OUTCOME>
	<OUTCOME>172.217.5.227</OUTCOME>
	<OUTCOME>172.217.5.228</OUTCOME>
	<OUTCOME>172.217.5.238</OUTCOME>
	<OUTCOME>172.217.6.193</OUTCOME>
	<OUTCOME>172.217.6.194</OUTCOME>
	<OUTCOME>172.217.6.195</OUTCOME>
	<OUTCOME>172.217.6.196</OUTCOME>
	<OUTCOME>172.217.6.198</OUTCOME>
	<OUTCOME>172.217.6.200</OUTCOME>
	<OUTCOME>172.217.6.202</OUTCOME>
	<OUTCOME>172.217.6.206</OUTCOME>
	<OUTCOME>172.217.6.210</OUTCOME>
	<OUTCOME>172.217.6.211</OUTCOME>
	<OUTCOME>172.217.6.212</OUTCOME>
	<OUTCOME>172.217.6.225</OUTCOME>
	<OUTCOME>172.217.6.226</OUTCOME>
	<OUTCOME>172.217.6.227</OUTCOME>
	<OUTCOME>172.217.6.228</OUTCOME>
	<OUTCOME>172.217.6.230</OUTCOME>
	<OUTCOME>172.217.6.232</OUTCOME>
	<OUTCOME>172.217.6.234</OUTCOME>
	<OUTCOME>172.217.6.237</OUTCOME>
	<OUTCOME>172.217.6.238</OUTCOME>
	<OUTCOME>172.217.6.243</OUTCOME>
	<OUTCOME>172.217.7.1</OUTCOME>
	<OUTCOME>172.217.7.10</OUTCOME>
	<OUTCOME>172.217.7.13</OUTCOME>
	<OUTCOME>172.217.7.131</OUTCOME>
	<OUTCOME>172.217.7.132</OUTCOME>
	<OUTCOME>172.217.7.14</OUTCOME>
	<OUTCOME>172.217.7.162</OUTCOME>
	<OUTCOME>172.217.7.163</OUTCOME>
	<OUTCOME>172.217.7.164</OUTCOME>
	<OUTCOME>172.217.7.170</OUTCOME>
	<OUTCOME>172.217.7.174</OUTCOME>
	<OUTCOME>172.217.7.18</OUTCOME>
	<OUTCOME>172.217.7.19</OUTCOME>
	<OUTCOME>172.217.7.195</OUTCOME>
	<OUTCOME>172.217.7.196</OUTCOME>
	<OUTCOME>172.217.7.2</OUTCOME>
	<OUTCOME>172.217.7.202</OUTCOME>
	<OUTCOME>172.217.7.227</OUTCOME>
	<OUTCOME>172.217.7.228</OUTCOME>
	<OUTCOME>172.217.7.3</OUTCOME>
	<OUTCOME>172.217.7.4</OUTCOME>
	<OUTCOME>172.217.7.6</OUTCOME>
	<OUTCOME>172.217.7.8</OUTCOME>
	<OUTCOME>172.217.8.10</OUTCOME>
	<OUTCOME>172.217.8.3</OUTCOME>
	<OUTCOME>172.217.8.4</OUTCOME>
	<OUTCOME>172.217.8.6</OUTCOME>
	<OUTCOME>172.217.9.225</OUTCOME>
	<OUTCOME>172.217.9.226</OUTCOME>
	<OUTCOME>172.217.9.227</OUTCOME>
	<OUTCOME>172.217.9.228</OUTCOME>
	<OUTCOME>172.217.9.230</OUTCOME>
	<OUTCOME>172.217.9.232</OUTCOME>
	<OUTCOME>172.217.9.233</OUTCOME>
	<OUTCOME>172.217.9.234</OUTCOME>
	<OUTCOME>172.217.9.237</OUTCOME>
	<OUTCOME>172.217.9.238</OUTCOME>
	<OUTCOME>172.217.9.242</OUTCOME>
	<OUTCOME>172.217.9.243</OUTCOME>
	<OUTCOME>172.224.10.215</OUTCOME>
	<OUTCOME>172.224.108.63</OUTCOME>
	<OUTCOME>172.224.11.150</OUTCOME>
	<OUTCOME>172.224.12.18</OUTCOME>
	<OUTCOME>172.224.13.96</OUTCOME>
	<OUTCOME>172.224.5.142</OUTCOME>
	<OUTCOME>172.224.8.45</OUTCOME>
	<OUTCOME>172.82.204.149</OUTCOME>
	<OUTCOME>172.82.204.92</OUTCOME>
	<OUTCOME>172.82.206.1</OUTCOME>
	<OUTCOME>172.82.206.2</OUTCOME>
	<OUTCOME>172.98.66.52</OUTCOME>
	<OUTCOME>172.98.66.53</OUTCOME>
	<OUTCOME>172.98.66.58</OUTCOME>
	<OUTCOME>172.98.66.60</OUTCOME>
	<OUTCOME>192.168.10.1</OUTCOME>
	<OUTCOME>192.168.10.12</OUTCOME>
	<OUTCOME>192.168.10.16</OUTCOME>
	<OUTCOME>192.168.10.17</OUTCOME>
	<OUTCOME>192.168.10.19</OUTCOME>
	<OUTCOME>192.168.10.255</OUTCOME>
	<OUTCOME>192.168.10.3</OUTCOME>
	<OUTCOME>192.168.10.50</OUTCOME>
	<OUTCOME>192.168.10.51</OUTCOME>
	<OUTCOME>198.199.94.97</OUTCOME>
	<OUTCOME>Internet</OUTCOME>
</VARIABLE>

<VARIABLE TYPE="nature">
	<NAME>Dst Pt</NAME>
	<PROPERTY>description = </PROPERTY>
	<PROPERTY>fast = Dst Pt{port-10139|port-10157|port-10424|port-10613|port-10763|port-10769|port-10791|port-11187|port-11484|port-11512|port-11646|port-11921|port-12086|port-12099|port-123|port-12409|port-12452|port-12685|port-12735|port-12803|port-12866|port-12915|port-12984|port-13277|port-13620|port-13646|port-137|port-14781|port-14804|port-14858|port-14908|port-15230|port-15339|port-15405|port-15447|port-15604|port-15628|port-15686|port-15969|port-15992|port-16177|port-16223|port-16367|port-16416|port-16593|port-16643|port-16746|port-16872|port-16934|port-17184|port-17359|port-17656|port-17751|port-17938|port-17996|port-18303|port-18515|port-18521|port-18560|port-18713|port-18800|port-18933|port-19151|port-19532|port-19569|port-19620|port-19695|port-19794|port-19889|port-20170|port-20756|port-20975|port-21|port-21111|port-21137|port-21195|port-21215|port-21306|port-21318|port-21341|port-21403|port-21420|port-21517|port-21525|port-21745|port-21797|port-22|port-22225|port-22434|port-22540|port-22637|port-22686|port-22857|port-22959|port-23091|port-23169|port-23233|port-23518|port-23575|port-23581|port-23602|port-23766|port-23769|port-23814|port-23910|port-24187|port-24517|port-24561|port-24619|port-24826|port-24962|port-25020|port-25116|port-25545|port-25772|port-25779|port-25976|port-26383|port-26490|port-26782|port-27005|port-27028|port-27061|port-27119|port-27275|port-27308|port-27311|port-27613|port-27818|port-27860|port-27930|port-27949|port-27969|port-28062|port-28149|port-28199|port-28241|port-28388|port-28483|port-28610|port-28858|port-28879|port-28882|port-28885|port-28906|port-28946|port-29712|port-29794|port-29865|port-29996|port-30060|port-30679|port-30812|port-31009|port-31133|port-31299|port-31451|port-31627|port-31667|port-31988|port-32110|port-32144|port-32432|port-32575|port-32774|port-32977|port-33061|port-33145|port-33234|port-33512|port-33651|port-33661|port-33719|port-33725|port-33737|port-33790|port-33844|port-33880|port-33930|port-33966|port-34102|port-34103|port-34457|port-34473|port-34847|port-35102|port-35245|port-35386|port-35668|port-35950|port-35952|port-36033|port-36253|port-36433|port-36499|port-36504|port-36602|port-36655|port-36758|port-36763|port-37368|port-37461|port-37486|port-37610|port-37633|port-37639|port-37814|port-37841|port-37920|port-38000|port-38039|port-38452|port-38784|port-38805|port-389|port-39054|port-39107|port-39295|port-39422|port-39457|port-39544|port-39651|port-39858|port-39923|port-39924|port-39961|port-39982|port-40116|port-40355|port-40451|port-40482|port-40509|port-40542|port-41113|port-41132|port-41214|port-41317|port-41385|port-41417|port-41601|port-41617|port-41819|port-41984|port-42691|port-43061|port-43089|port-43368|port-43627|port-43669|port-43764|port-44003|port-44020|port-44038|port-443|port-44507|port-44644|port-44846|port-44952|port-45140|port-45378|port-45605|port-45952|port-46104|port-46432|port-46441|port-465|port-46571|port-46886|port-46911|port-47296|port-47319|port-47602|port-47667|port-47732|port-47737|port-47771|port-47877|port-47914|port-48060|port-48372|port-48514|port-48522|port-48579|port-48582|port-48596|port-49075|port-49189|port-49194|port-49292|port-49334|port-49362|port-49707|port-50089|port-50234|port-50271|port-50486|port-50541|port-50634|port-50732|port-50947|port-50987|port-51036|port-5105|port-51130|port-51154|port-51176|port-5122|port-51268|port-51329|port-51522|port-5153|port-51557|port-51671|port-51768|port-5182|port-51867|port-51942|port-51961|port-52257|port-52274|port-52339|port-52565|port-5269|port-5285|port-52862|port-52883|port-52884|port-52901|port-53|port-53216|port-53230|port-5328|port-53304|port-53332|port-53391|port-5353|port-5355|port-53645|port-53649|port-54714|port-54792|port-55084|port-55116|port-55124|port-55201|port-5557|port-55774|port-5604|port-56196|port-56336|port-56372|port-56586|port-56625|port-56639|port-56669|port-56754|port-56970|port-57008|port-57197|port-57396|port-57434|port-57626|port-5766|port-57759|port-58152|port-5824|port-58277|port-58288|port-58507|port-58592|port-5863|port-58707|port-58767|port-58847|port-58987|port-58991|port-59138|port-59201|port-5931|port-59499|port-59520|port-59553|port-59597|port-59601|port-59672|port-59848|port-59915|port-60209|port-60210|port-60240|port-60311|port-60433|port-60523|port-60561|port-60689|port-6081|port-60970|port-61008|port-61085|port-61113|port-61213|port-61791|port-61846|port-62020|port-62191|port-62582|port-62587|port-6260|port-62913|port-63140|port-63355|port-63389|port-6339|port-6345|port-63652|port-63655|port-63911|port-63926|port-63939|port-63993|port-64022|port-64107|port-64117|port-64141|port-64163|port-64187|port-64226|port-64275|port-64308|port-64333|port-64628|port-64743|port-64778|port-64918|port-64999|port-65062|port-65100|port-65168|port-65178|port-65185|port-65203|port-65371|port-65490|port-6599|port-6619|port-6806|port-7176|port-7215|port-7388|port-7522|port-7637|port-7854|port-7905|port-80|port-8080|port-8081|port-8313|port-8322|port-8474|port-88|port-8817|port-9007|port-9100|port-9101|port-9152|port-9189|port-9751|port-9781|port-9797|port-9852|port-9916}</PROPERTY>
<!--OUTCOME are not used in pyAgrum BIFXML (see fast property) but are kept for compatibility-->
	<OUTCOME>port-10139</OUTCOME>
	<OUTCOME>port-10157</OUTCOME>
	<OUTCOME>port-10424</OUTCOME>
	<OUTCOME>port-10613</OUTCOME>
	<OUTCOME>port-10763</OUTCOME>
	<OUTCOME>port-10769</OUTCOME>
	<OUTCOME>port-10791</OUTCOME>
	<OUTCOME>port-11187</OUTCOME>
	<OUTCOME>port-11484</OUTCOME>
	<OUTCOME>port-11512</OUTCOME>
	<OUTCOME>port-11646</OUTCOME>
	<OUTCOME>port-11921</OUTCOME>
	<OUTCOME>port-12086</OUTCOME>
	<OUTCOME>port-12099</OUTCOME>
	<OUTCOME>port-123</OUTCOME>
	<OUTCOME>port-12409</OUTCOME>
	<OUTCOME>port-12452</OUTCOME>
	<OUTCOME>port-12685</OUTCOME>
	<OUTCOME>port-12735</OUTCOME>
	<OUTCOME>port-12803</OUTCOME>
	<OUTCOME>port-12866</OUTCOME>
	<OUTCOME>port-12915</OUTCOME>
	<OUTCOME>port-12984</OUTCOME>
	<OUTCOME>port-13277</OUTCOME>
	<OUTCOME>port-13620</OUTCOME>
	<OUTCOME>port-13646</OUTCOME>
	<OUTCOME>port-137</OUTCOME>
	<OUTCOME>port-14781</OUTCOME>
	<OUTCOME>port-14804</OUTCOME>
	<OUTCOME>port-14858</OUTCOME>
	<OUTCOME>port-14908</OUTCOME>
	<OUTCOME>port-15230</OUTCOME>
	<OUTCOME>port-15339</OUTCOME>
	<OUTCOME>port-15405</OUTCOME>
	<OUTCOME>port-15447</OUTCOME>
	<OUTCOME>port-15604</OUTCOME>
	<OUTCOME>port-15628</OUTCOME>
	<OUTCOME>port-15686</OUTCOME>
	<OUTCOME>port-15969</OUTCOME>
	<OUTCOME>port-15992</OUTCOME>
	<OUTCOME>port-16177</OUTCOME>
	<OUTCOME>port-16223</OUTCOME>
	<OUTCOME>port-16367</OUTCOME>
	<OUTCOME>port-16416</OUTCOME>
	<OUTCOME>port-16593</OUTCOME>
	<OUTCOME>port-16643</OUTCOME>
	<OUTCOME>port-16746</OUTCOME>
	<OUTCOME>port-16872</OUTCOME>
	<OUTCOME>port-16934</OUTCOME>
	<OUTCOME>port-17184</OUTCOME>
	<OUTCOME>port-17359</OUTCOME>
	<OUTCOME>port-17656</OUTCOME>
	<OUTCOME>port-17751</OUTCOME>
	<OUTCOME>port-17938</OUTCOME>
	<OUTCOME>port-17996</OUTCOME>
	<OUTCOME>port-18303</OUTCOME>
	<OUTCOME>port-18515</OUTCOME>
	<OUTCOME>port-18521</OUTCOME>
	<OUTCOME>port-18560</OUTCOME>
	<OUTCOME>port-18713</OUTCOME>
	<OUTCOME>port-18800</OUTCOME>
	<OUTCOME>port-18933</OUTCOME>
	<OUTCOME>port-19151</OUTCOME>
	<OUTCOME>port-19532</OUTCOME>
	<OUTCOME>port-19569</OUTCOME>
	<OUTCOME>port-19620</OUTCOME>
	<OUTCOME>port-19695</OUTCOME>
	<OUTCOME>port-19794</OUTCOME>
	<OUTCOME>port-19889</OUTCOME>
	<OUTCOME>port-20170</OUTCOME>
	<OUTCOME>port-20756</OUTCOME>
	<OUTCOME>port-20975</OUTCOME>
	<OUTCOME>port-21</OUTCOME>
	<OUTCOME>port-21111</OUTCOME>
	<OUTCOME>port-21137</OUTCOME>
	<OUTCOME>port-21195</OUTCOME>
	<OUTCOME>port-21215</OUTCOME>
	<OUTCOME>port-21306</OUTCOME>
	<OUTCOME>port-21318</OUTCOME>
	<OUTCOME>port-21341</OUTCOME>
	<OUTCOME>port-21403</OUTCOME>
	<OUTCOME>port-21420</OUTCOME>
	<OUTCOME>port-21517</OUTCOME>
	<OUTCOME>port-21525</OUTCOME>
	<OUTCOME>port-21745</OUTCOME>
	<OUTCOME>port-21797</OUTCOME>
	<OUTCOME>port-22</OUTCOME>
	<OUTCOME>port-22225</OUTCOME>
	<OUTCOME>port-22434</OUTCOME>
	<OUTCOME>port-22540</OUTCOME>
	<OUTCOME>port-22637</OUTCOME>
	<OUTCOME>port-22686</OUTCOME>
	<OUTCOME>port-22857</OUTCOME>
	<OUTCOME>port-22959</OUTCOME>
	<OUTCOME>port-23091</OUTCOME>
	<OUTCOME>port-23169</OUTCOME>
	<OUTCOME>port-23233</OUTCOME>
	<OUTCOME>port-23518</OUTCOME>
	<OUTCOME>port-23575</OUTCOME>
	<OUTCOME>port-23581</OUTCOME>
	<OUTCOME>port-23602</OUTCOME>
	<OUTCOME>port-23766</OUTCOME>
	<OUTCOME>port-23769</OUTCOME>
	<OUTCOME>port-23814</OUTCOME>
	<OUTCOME>port-23910</OUTCOME>
	<OUTCOME>port-24187</OUTCOME>
	<OUTCOME>port-24517</OUTCOME>
	<OUTCOME>port-24561</OUTCOME>
	<OUTCOME>port-24619</OUTCOME>
	<OUTCOME>port-24826</OUTCOME>
	<OUTCOME>port-24962</OUTCOME>
	<OUTCOME>port-25020</OUTCOME>
	<OUTCOME>port-25116</OUTCOME>
	<OUTCOME>port-25545</OUTCOME>
	<OUTCOME>port-25772</OUTCOME>
	<OUTCOME>port-25779</OUTCOME>
	<OUTCOME>port-25976</OUTCOME>
	<OUTCOME>port-26383</OUTCOME>
	<OUTCOME>port-26490</OUTCOME>
	<OUTCOME>port-26782</OUTCOME>
	<OUTCOME>port-27005</OUTCOME>
	<OUTCOME>port-27028</OUTCOME>
	<OUTCOME>port-27061</OUTCOME>
	<OUTCOME>port-27119</OUTCOME>
	<OUTCOME>port-27275</OUTCOME>
	<OUTCOME>port-27308</OUTCOME>
	<OUTCOME>port-27311</OUTCOME>
	<OUTCOME>port-27613</OUTCOME>
	<OUTCOME>port-27818</OUTCOME>
	<OUTCOME>port-27860</OUTCOME>
	<OUTCOME>port-27930</OUTCOME>
	<OUTCOME>port-27949</OUTCOME>
	<OUTCOME>port-27969</OUTCOME>
	<OUTCOME>port-28062</OUTCOME>
	<OUTCOME>port-28149</OUTCOME>
	<OUTCOME>port-28199</OUTCOME>
	<OUTCOME>port-28241</OUTCOME>
	<OUTCOME>port-28388</OUTCOME>
	<OUTCOME>port-28483</OUTCOME>
	<OUTCOME>port-28610</OUTCOME>
	<OUTCOME>port-28858</OUTCOME>
	<OUTCOME>port-28879</OUTCOME>
	<OUTCOME>port-28882</OUTCOME>
	<OUTCOME>port-28885</OUTCOME>
	<OUTCOME>port-28906</OUTCOME>
	<OUTCOME>port-28946</OUTCOME>
	<OUTCOME>port-29712</OUTCOME>
	<OUTCOME>port-29794</OUTCOME>
	<OUTCOME>port-29865</OUTCOME>
	<OUTCOME>port-29996</OUTCOME>
	<OUTCOME>port-30060</OUTCOME>
	<OUTCOME>port-30679</OUTCOME>
	<OUTCOME>port-30812</OUTCOME>
	<OUTCOME>port-31009</OUTCOME>
	<OUTCOME>port-31133</OUTCOME>
	<OUTCOME>port-31299</OUTCOME>
	<OUTCOME>port-31451</OUTCOME>
	<OUTCOME>port-31627</OUTCOME>
	<OUTCOME>port-31667</OUTCOME>
	<OUTCOME>port-31988</OUTCOME>
	<OUTCOME>port-32110</OUTCOME>
	<OUTCOME>port-32144</OUTCOME>
	<OUTCOME>port-32432</OUTCOME>
	<OUTCOME>port-32575</OUTCOME>
	<OUTCOME>port-32774</OUTCOME>
	<OUTCOME>port-32977</OUTCOME>
	<OUTCOME>port-33061</OUTCOME>
	<OUTCOME>port-33145</OUTCOME>
	<OUTCOME>port-33234</OUTCOME>
	<OUTCOME>port-33512</OUTCOME>
	<OUTCOME>port-33651</OUTCOME>
	<OUTCOME>port-33661</OUTCOME>
	<OUTCOME>port-33719</OUTCOME>
	<OUTCOME>port-33725</OUTCOME>
	<OUTCOME>port-33737</OUTCOME>
	<OUTCOME>port-33790</OUTCOME>
	<OUTCOME>port-33844</OUTCOME>
	<OUTCOME>port-33880</OUTCOME>
	<OUTCOME>port-33930</OUTCOME>
	<OUTCOME>port-33966</OUTCOME>
	<OUTCOME>port-34102</OUTCOME>
	<OUTCOME>port-34103</OUTCOME>
	<OUTCOME>port-34457</OUTCOME>
	<OUTCOME>port-34473</OUTCOME>
	<OUTCOME>port-34847</OUTCOME>
	<OUTCOME>port-35102</OUTCOME>
	<OUTCOME>port-35245</OUTCOME>
	<OUTCOME>port-35386</OUTCOME>
	<OUTCOME>port-35668</OUTCOME>
	<OUTCOME>port-35950</OUTCOME>
	<OUTCOME>port-35952</OUTCOME>
	<OUTCOME>port-36033</OUTCOME>
	<OUTCOME>port-36253</OUTCOME>
	<OUTCOME>port-36433</OUTCOME>
	<OUTCOME>port-36499</OUTCOME>
	<OUTCOME>port-36504</OUTCOME>
	<OUTCOME>port-36602</OUTCOME>
	<OUTCOME>port-36655</OUTCOME>
	<OUTCOME>port-36758</OUTCOME>
	<OUTCOME>port-36763</OUTCOME>
	<OUTCOME>port-37368</OUTCOME>
	<OUTCOME>port-37461</OUTCOME>
	<OUTCOME>port-37486</OUTCOME>
	<OUTCOME>port-37610</OUTCOME>
	<OUTCOME>port-37633</OUTCOME>
	<OUTCOME>port-37639</OUTCOME>
	<OUTCOME>port-37814</OUTCOME>
	<OUTCOME>port-37841</OUTCOME>
	<OUTCOME>port-37920</OUTCOME>
	<OUTCOME>port-38000</OUTCOME>
	<OUTCOME>port-38039</OUTCOME>
	<OUTCOME>port-38452</OUTCOME>
	<OUTCOME>port-38784</OUTCOME>
	<OUTCOME>port-38805</OUTCOME>
	<OUTCOME>port-389</OUTCOME>
	<OUTCOME>port-39054</OUTCOME>
	<OUTCOME>port-39107</OUTCOME>
	<OUTCOME>port-39295</OUTCOME>
	<OUTCOME>port-39422</OUTCOME>
	<OUTCOME>port-39457</OUTCOME>
	<OUTCOME>port-39544</OUTCOME>
	<OUTCOME>port-39651</OUTCOME>
	<OUTCOME>port-39858</OUTCOME>
	<OUTCOME>port-39923</OUTCOME>
	<OUTCOME>port-39924</OUTCOME>
	<OUTCOME>port-39961</OUTCOME>
	<OUTCOME>port-39982</OUTCOME>
	<OUTCOME>port-40116</OUTCOME>
	<OUTCOME>port-40355</OUTCOME>
	<OUTCOME>port-40451</OUTCOME>
	<OUTCOME>port-40482</OUTCOME>
	<OUTCOME>port-40509</OUTCOME>
	<OUTCOME>port-40542</OUTCOME>
	<OUTCOME>port-41113</OUTCOME>
	<OUTCOME>port-41132</OUTCOME>
	<OUTCOME>port-41214</OUTCOME>
	<OUTCOME>port-41317</OUTCOME>
	<OUTCOME>port-41385</OUTCOME>
	<OUTCOME>port-41417</OUTCOME>
	<OUTCOME>port-41601</OUTCOME>
	<OUTCOME>port-41617</OUTCOME>
	<OUTCOME>port-41819</OUTCOME>
	<OUTCOME>port-41984</OUTCOME>
	<OUTCOME>port-42691</OUTCOME>
	<OUTCOME>port-43061</OUTCOME>
	<OUTCOME>port-43089</OUTCOME>
	<OUTCOME>port-43368</OUTCOME>
	<OUTCOME>port-43627</OUTCOME>
	<OUTCOME>port-43669</OUTCOME>
	<OUTCOME>port-43764</OUTCOME>
	<OUTCOME>port-44003</OUTCOME>
	<OUTCOME>port-44020</OUTCOME>
	<OUTCOME>port-44038</OUTCOME>
	<OUTCOME>port-443</OUTCOME>
	<OUTCOME>port-44507</OUTCOME>
	<OUTCOME>port-44644</OUTCOME>
	<OUTCOME>port-44846</OUTCOME>
	<OUTCOME>port-44952</OUTCOME>
	<OUTCOME>port-45140</OUTCOME>
	<OUTCOME>port-45378</OUTCOME>
	<OUTCOME>port-45605</OUTCOME>
	<OUTCOME>port-45952</OUTCOME>
	<OUTCOME>port-46104</OUTCOME>
	<OUTCOME>port-46432</OUTCOME>
	<OUTCOME>port-46441</OUTCOME>
	<OUTCOME>port-465</OUTCOME>
	<OUTCOME>port-46571</OUTCOME>
	<OUTCOME>port-46886</OUTCOME>
	<OUTCOME>port-46911</OUTCOME>
	<OUTCOME>port-47296</OUTCOME>
	<OUTCOME>port-47319</OUTCOME>
	<OUTCOME>port-47602</OUTCOME>
	<OUTCOME>port-47667</OUTCOME>
	<OUTCOME>port-47732</OUTCOME>
	<OUTCOME>port-47737</OUTCOME>
	<OUTCOME>port-47771</OUTCOME>
	<OUTCOME>port-47877</OUTCOME>
	<OUTCOME>port-47914</OUTCOME>
	<OUTCOME>port-48060</OUTCOME>
	<OUTCOME>port-48372</OUTCOME>
	<OUTCOME>port-48514</OUTCOME>
	<OUTCOME>port-48522</OUTCOME>
	<OUTCOME>port-48579</OUTCOME>
	<OUTCOME>port-48582</OUTCOME>
	<OUTCOME>port-48596</OUTCOME>
	<OUTCOME>port-49075</OUTCOME>
	<OUTCOME>port-49189</OUTCOME>
	<OUTCOME>port-49194</OUTCOME>
	<OUTCOME>port-49292</OUTCOME>
	<OUTCOME>port-49334</OUTCOME>
	<OUTCOME>port-49362</OUTCOME>
	<OUTCOME>port-49707</OUTCOME>
	<OUTCOME>port-50089</OUTCOME>
	<OUTCOME>port-50234</OUTCOME>
	<OUTCOME>port-50271</OUTCOME>
	<OUTCOME>port-50486</OUTCOME>
	<OUTCOME>port-50541</OUTCOME>
	<OUTCOME>port-50634</OUTCOME>
	<OUTCOME>port-50732</OUTCOME>
	<OUTCOME>port-50947</OUTCOME>
	<OUTCOME>port-50987</OUTCOME>
	<OUTCOME>port-51036</OUTCOME>
	<OUTCOME>port-5105</OUTCOME>
	<OUTCOME>port-51130</OUTCOME>
	<OUTCOME>port-51154</OUTCOME>
	<OUTCOME>port-51176</OUTCOME>
	<OUTCOME>port-5122</OUTCOME>
	<OUTCOME>port-51268</OUTCOME>
	<OUTCOME>port-51329</OUTCOME>
	<OUTCOME>port-51522</OUTCOME>
	<OUTCOME>port-5153</OUTCOME>
	<OUTCOME>port-51557</OUTCOME>
	<OUTCOME>port-51671</OUTCOME>
	<OUTCOME>port-51768</OUTCOME>
	<OUTCOME>port-5182</OUTCOME>
	<OUTCOME>port-51867</OUTCOME>
	<OUTCOME>port-51942</OUTCOME>
	<OUTCOME>port-51961</OUTCOME>
	<OUTCOME>port-52257</OUTCOME>
	<OUTCOME>port-52274</OUTCOME>
	<OUTCOME>port-52339</OUTCOME>
	<OUTCOME>port-52565</OUTCOME>
	<OUTCOME>port-5269</OUTCOME>
	<OUTCOME>port-5285</OUTCOME>
	<OUTCOME>port-52862</OUTCOME>
	<OUTCOME>port-52883</OUTCOME>
	<OUTCOME>port-52884</OUTCOME>
	<OUTCOME>port-52901</OUTCOME>
	<OUTCOME>port-53</OUTCOME>
	<OUTCOME>port-53216</OUTCOME>
	<OUTCOME>port-53230</OUTCOME>
	<OUTCOME>port-5328</OUTCOME>
	<OUTCOME>port-53304</OUTCOME>
	<OUTCOME>port-53332</OUTCOME>
	<OUTCOME>port-53391</OUTCOME>
	<OUTCOME>port-5353</OUTCOME>
	<OUTCOME>port-5355</OUTCOME>
	<OUTCOME>port-53645</OUTCOME>
	<OUTCOME>port-53649</OUTCOME>
	<OUTCOME>port-54714</OUTCOME>
	<OUTCOME>port-54792</OUTCOME>
	<OUTCOME>port-55084</OUTCOME>
	<OUTCOME>port-55116</OUTCOME>
	<OUTCOME>port-55124</OUTCOME>
	<OUTCOME>port-55201</OUTCOME>
	<OUTCOME>port-5557</OUTCOME>
	<OUTCOME>port-55774</OUTCOME>
	<OUTCOME>port-5604</OUTCOME>
	<OUTCOME>port-56196</OUTCOME>
	<OUTCOME>port-56336</OUTCOME>
	<OUTCOME>port-56372</OUTCOME>
	<OUTCOME>port-56586</OUTCOME>
	<OUTCOME>port-56625</OUTCOME>
	<OUTCOME>port-56639</OUTCOME>
	<OUTCOME>port-56669</OUTCOME>
	<OUTCOME>port-56754</OUTCOME>
	<OUTCOME>port-56970</OUTCOME>
	<OUTCOME>port-57008</OUTCOME>
	<OUTCOME>port-57197</OUTCOME>
	<OUTCOME>port-57396</OUTCOME>
	<OUTCOME>port-57434</OUTCOME>
	<OUTCOME>port-57626</OUTCOME>
	<OUTCOME>port-5766</OUTCOME>
	<OUTCOME>port-57759</OUTCOME>
	<OUTCOME>port-58152</OUTCOME>
	<OUTCOME>port-5824</OUTCOME>
	<OUTCOME>port-58277</OUTCOME>
	<OUTCOME>port-58288</OUTCOME>
	<OUTCOME>port-58507</OUTCOME>
	<OUTCOME>port-58592</OUTCOME>
	<OUTCOME>port-5863</OUTCOME>
	<OUTCOME>port-58707</OUTCOME>
	<OUTCOME>port-58767</OUTCOME>
	<OUTCOME>port-58847</OUTCOME>
	<OUTCOME>port-58987</OUTCOME>
	<OUTCOME>port-58991</OUTCOME>
	<OUTCOME>port-59138</OUTCOME>
	<OUTCOME>port-59201</OUTCOME>
	<OUTCOME>port-5931</OUTCOME>
	<OUTCOME>port-59499</OUTCOME>
	<OUTCOME>port-59520</OUTCOME>
	<OUTCOME>port-59553</OUTCOME>
	<OUTCOME>port-59597</OUTCOME>
	<OUTCOME>port-59601</OUTCOME>
	<OUTCOME>port-59672</OUTCOME>
	<OUTCOME>port-59848</OUTCOME>
	<OUTCOME>port-59915</OUTCOME>
	<OUTCOME>port-60209</OUTCOME>
	<OUTCOME>port-60210</OUTCOME>
	<OUTCOME>port-60240</OUTCOME>
	<OUTCOME>port-60311</OUTCOME>
	<OUTCOME>port-60433</OUTCOME>
	<OUTCOME>port-60523</OUTCOME>
	<OUTCOME>port-60561</OUTCOME>
	<OUTCOME>port-60689</OUTCOME>
	<OUTCOME>port-6081</OUTCOME>
	<OUTCOME>port-60970</OUTCOME>
	<OUTCOME>port-61008</OUTCOME>
	<OUTCOME>port-61085</OUTCOME>
	<OUTCOME>port-61113</OUTCOME>
	<OUTCOME>port-61213</OUTCOME>
	<OUTCOME>port-61791</OUTCOME>
	<OUTCOME>port-61846</OUTCOME>
	<OUTCOME>port-62020</OUTCOME>
	<OUTCOME>port-62191</OUTCOME>
	<OUTCOME>port-62582</OUTCOME>
	<OUTCOME>port-62587</OUTCOME>
	<OUTCOME>port-6260</OUTCOME>
	<OUTCOME>port-62913</OUTCOME>
	<OUTCOME>port-63140</OUTCOME>
	<OUTCOME>port-63355</OUTCOME>
	<OUTCOME>port-63389</OUTCOME>
	<OUTCOME>port-6339</OUTCOME>
	<OUTCOME>port-6345</OUTCOME>
	<OUTCOME>port-63652</OUTCOME>
	<OUTCOME>port-63655</OUTCOME>
	<OUTCOME>port-63911</OUTCOME>
	<OUTCOME>port-63926</OUTCOME>
	<OUTCOME>port-63939</OUTCOME>
	<OUTCOME>port-63993</OUTCOME>
	<OUTCOME>port-64022</OUTCOME>
	<OUTCOME>port-64107</OUTCOME>
	<OUTCOME>port-64117</OUTCOME>
	<OUTCOME>port-64141</OUTCOME>
	<OUTCOME>port-64163</OUTCOME>
	<OUTCOME>port-64187</OUTCOME>
	<OUTCOME>port-64226</OUTCOME>
	<OUTCOME>port-64275</OUTCOME>
	<OUTCOME>port-64308</OUTCOME>
	<OUTCOME>port-64333</OUTCOME>
	<OUTCOME>port-64628</OUTCOME>
	<OUTCOME>port-64743</OUTCOME>
	<OUTCOME>port-64778</OUTCOME>
	<OUTCOME>port-64918</OUTCOME>
	<OUTCOME>port-64999</OUTCOME>
	<OUTCOME>port-65062</OUTCOME>
	<OUTCOME>port-65100</OUTCOME>
	<OUTCOME>port-65168</OUTCOME>
	<OUTCOME>port-65178</OUTCOME>
	<OUTCOME>port-65185</OUTCOME>
	<OUTCOME>port-65203</OUTCOME>
	<OUTCOME>port-65371</OUTCOME>
	<OUTCOME>port-65490</OUTCOME>
	<OUTCOME>port-6599</OUTCOME>
	<OUTCOME>port-6619</OUTCOME>
	<OUTCOME>port-6806</OUTCOME>
	<OUTCOME>port-7176</OUTCOME>
	<OUTCOME>port-7215</OUTCOME>
	<OUTCOME>port-7388</OUTCOME>
	<OUTCOME>port-7522</OUTCOME>
	<OUTCOME>port-7637</OUTCOME>
	<OUTCOME>port-7854</OUTCOME>
	<OUTCOME>port-7905</OUTCOME>
	<OUTCOME>port-80</OUTCOME>
	<OUTCOME>port-8080</OUTCOME>
	<OUTCOME>port-8081</OUTCOME>
	<OUTCOME>port-8313</OUTCOME>
	<OUTCOME>port-8322</OUTCOME>
	<OUTCOME>port-8474</OUTCOME>
	<OUTCOME>port-88</OUTCOME>
	<OUTCOME>port-8817</OUTCOME>
	<OUTCOME>port-9007</OUTCOME>
	<OUTCOME>port-9100</OUTCOME>
	<OUTCOME>port-9101</OUTCOME>
	<OUTCOME>port-9152</OUTCOME>
	<OUTCOME>port-9189</OUTCOME>
	<OUTCOME>port-9751</OUTCOME>
	<OUTCOME>port-9781</OUTCOME>
	<OUTCOME>port-9797</OUTCOME>
	<OUTCOME>port-9852</OUTCOME>
	<OUTCOME>port-9916</OUTCOME>
</VARIABLE>

<!-- Probability distributions -->
<DEFINITION>
	<FOR>Time</FOR>
	<TABLE>
		0.0589075 0.0457455 0.0444455 0.0418185 0.0416266 0.0402806 0.0396374 0.0393834 0.0363996 0.0363374 0.0359996 0.0352429 0.0350969 0.0338537 0.0319132 0.0299645 0.0293862 0.0284051 0.0271862 0.0265186 0.0263294 0.0260132 0.0257592 0.0232889 0.0230916 0.0208322 0.0206727 0.0197106 0.0193268 0.0184187 0.0170458 0.0159296 0.00369455 0.00173782
	</TABLE>
</DEFINITION>
<DEFINITION>
	<FOR>Src IP Role</FOR>
	<TABLE>
		0.79551 0.203849 0.000640534
	</TABLE>
</DEFINITION>
<DEFINITION>
	<FOR>Dst IP Role</FOR>
	<TABLE>
		0.652258 0.340821 0.00692155
	</TABLE>
</DEFINITION>
<DEFINITION>
	<FOR>Applicative Proto</FOR>
	<GIVEN>Proto</GIVEN>
	<TABLE>
		7.31748e-06 0.00335873 0.00334409 0.255907 0 0.00348312 0 0.00772726 0.726172
		0.96833 0 0 0 0.00249416 0 0.0291757 0 0
	</TABLE>
</DEFINITION>
<DEFINITION>
	<FOR>Proto</FOR>
	<TABLE>
		0.630655 0.369345
	</TABLE>
</DEFINITION>
<DEFINITION>
	<FOR>Src IP Addr</FOR>
	<GIVEN>Src IP Role</GIVEN>
	<GIVEN>Time</GIVEN>
	<GIVEN>Dst IP Role</GIVEN>
	<TABLE>
		0 0 0 0 0 0 0 0 0 0 0 0 0 1
		0 0 0 0 0 0 0 0 0 0 0 0 0 0
		0 0 0 0 0 0 0 0 0 0 0 0 0 0
		0 0 0 0 0 0 0 0 0 0 0 0 0 1
		0 0 0 0 0 0 0 0 0 0 0 0 0 0
		0 0 0 0 0 0 0 0 0 0 0 0 0 0
		0 0 0 0 0 0 0 0 0 0 0 0 0 1
		0 0 0 0 0 0 0 0 0 0 0 0 0 0
		0 0 0 0 0 0 0 0 0 0 0 0 0 0
		0 0 0 0 0 0 0 0 0 0 0 0 0 1
		0 0 0 0 0 0 0 0 0 0 0 0 0 0
		0 0 0 0 0 0 0 0 0 0 0 0 0 0
		0 0 0 0 0 0 0 0 0 0 0 0 0 1
		0 0 0 0 0 0 0 0 0 0 0 0 0 0
		0 0 0 0 0 0 0 0 0 0 0 0 0 0
		0 0 0 0 0 0 0 0 0 0 0 0 0 1
		0 0 0 0 0 0 0 0 0 0 0 0 0 0
		0 0 0 0 0 0 0 0 0 0 0 0 0 0
		0 0 0 0 0 0 0 0 0 0 0 0 0 1
		0 0 0 0 0 0 0 0 0 0 0 0 0 0
		0 0 0 0 0 0 0 0 0 0 0 0 0 0
		0 0 0 0 0 0 0 0 0 0 0 0 0 1
		0 0 0 0 0 0 0 0 0 0 0 0 0 0
		0 0 0 0 0 0 0 0 0 0 0 0 0 0
		0 0 0 0 0 0 0 0 0 0 0 0 0 1
		0 0 0 0 0 0 0 0 0 0 0 0 0 0
		0 0 0 0 0 0 0 0 0 0 0 0 0 0
		0 0 0 0 0 0 0 0 0 0 0 0 0 1
		0 0 0 0 0 0 0 0 0 0 0 0 0 0
		0 0 0 0 0 0 0 0 0 0 0 0 0 0
		0 0 0 0 0 0 0 0 0 0 0 0 0 1
		0 0 0 0 0 0 0 0 0 0 0 0 0 0
		0 0 0 0 0 0 0 0 0 0 0 0 0 0
		0 0 0 0 0 0 0 0 0 0 0 0 0 1
		0 0 0 0 0 0 0 0 0 0 0 0 0 0
		0 0 0 0 0 0 0 0 0 0 0 0 0 0
		0 0 0 0 0 0 0 0 0 0 0 0 0 1
		0 0 0 0 0 0 0 0 0 0 0 0 0 0
		0 0 0 0 0 0 0 0 0 0 0 0 0 0
		0 0 0 0 0 0 0 0 0 0 0 0 0 1
		0 0 0 0 0 0 0 0 0 0 0 0 0 0
		0 0 0 0 0 0 0 0 0 0 0 0 0 0
		0 0 0 0 0 0 0 0 0 0 0 0 0 1
		0 0 0 0 0 0 0 0 0 0 0 0 0 0
		0 0 0 0 0 0 0 0 0 0 0 0 0 0
		0 0 0 0 0 0 0 0 0 0 0 0 0 1
		0 0 0 0 0 0 0 0 0 0 0 0 0 0
		0 0 0 0 0 0 0 0 0 0 0 0 0 0
		0 0 0 0 0 0 0 0 0 0 0 0 0 1
		0 0 0 0 0 0 0 0 0 0 0 0 0 0
		0 0 0 0 0 0 0 0 0 0 0 0 0 0
		0 0 0 0 0 0 0 0 0 0 0 0 0 1
		0 0 0 0 0 0 0 0 0 0 0 0 0 0
		0 0 0 0 0 0 0 0 0 0 0 0 0 0
		0 0 0 0 0 0 0 0 0 0 0 0 0 1
		0 0 0 0 0 0 0 0 0 0 0 0 0 0
		0 0 0 0 0 0 0 0 0 0 0 0 0 0
		0 0 0 0 0 0 0 0 0 0 0 0 0 1
		0 0 0 0 0 0 0 0 0 0 0 0 0 0
		0 0 0 0 0 0 0 0 0 0 0 0 0 0
		0 0 0 0 0 0 0 0 0 0 0 0 0 1
		0 0 0 0 0 0 0 0 0 0 0 0 0 0
		0 0 0 0 0 0 0 0 0 0 0 0 0 0
		0 0 0 0 0 0 0 0 0 0 0 0 0 1
		0 0 0 0 0 0 0 0 0 0 0 0 0 0
		0 0 0 0 0 0 0 0 0 0 0 0 0 0
		0 0 0 0 0 0 0 0 0 0 0 0 0 1
		0 0 0 0 0 0 0 0 0 0 0 0 0 0
		0 0 0 0 0 0 0 0 0 0 0 0 0 0
		0 0 0 0 0 0 0 0 0 0 0 0 0 1
		0 0 0 0 0 0 0 0 0 0 0 0 0 0
		0 0 0 0 0 0 0 0 0 0 0 0 0 0
		0 0 0 0 0 0 0 0 0 0 0 0 0 1
		0 0 0 0 0 0 0 0 0 0 0 0 0 0
		0 0 0 0 0 0 0 0 0 0 0 0 0 0
		0 0 0 0 0 0 0 0 0 0 0 0 0 1
		0 0 0 0 0 0 0 0 0 0 0 0 0 0
		0 0 0 0 0 0 0 0 0 0 0 0 0 0
		0 0 0 0 0 0 0 0 0 0 0 0 0 1
		0 0 0 0 0 0 0 0 0 0 0 0 0 0
		0 0 0 0 0 0 0 0 0 0 0 0 0 0
		0 0 0 0 0 0 0 0 0 0 0 0 0 1
		0 0 0 0 0 0 0 0 0 0 0 0 0 0
		0 0 0 0 0 0 0 0 0 0 0 0 0 0
		0 0 0 0 0 0 0 0 0 0 0 0 0 1
		0 0 0 0 0 0 0 0 0 0 0 0 0 0
		0 0 0 0 0 0 0 0 0 0 0 0 0 0
		0 0 0 0 0 0 0 0 0 0 0 0 0 1
		0 0 0 0 0 0 0 0 0 0 0 0 0 0
		0 0 0 0 0 0 0 0 0 0 0 0 0 0
		0 0 0 0 0 0 0 0 0 0 0 0 0 1
		0 0 0 0 0 0 0 0 0 0 0 0 0 0
		0 0 0 0 0 0 0 0 0 0 0 0 0 0
		0 0 0 0 0 0 0 0 0 0 0 0 0 1
		0 0 0 0 0 0 0 0 0 0 0 0 0 0
		0 0 0 0 0 0 0 0 0 0 0 0 0 0
		0 0 0 0 0 0 0 0 0 0 0 0 0 1
		0 0 0 0 0 0 0 0 0 0 0 0 0 0
		0 0 0 0 0 0 0 0 0 0 0 0 0 0
		0 0 0 0 0 0 0 0 0 0 0 0 0 1
		0 0 0 0 0 0 0 0 0 0 0 0 0 0
		0 0 0 0 0 0 0 0 0 0 0 0 0 0
		0 0 0 0 0 0 0 1 0 0 0 0 0 0
		0 0 0 0 0 0 0 1 0 0 0 0 0 0
		0 0 0 0 0 0 0 1 0 0 0 0 0 0
		0 0 0 0 0 0 0 1 0 0 0 0 0 0
		0 0 0 0 0 0 0 1 0 0 0 0 0 0
		0 0 0 0 0 0 0 1 0 0 0 0 0 0
		0 0 0 0 0 0 0 1 0 0 0 0 0 0
		0 0 0 0 0 0 0 1 0 0 0 0 0 0
		0 0 0 0 0 0 0 0 0 0 0 0 0 0
		0 0 0 0 0 0 0 0 0 0 0 0 0 0
		0 0 0 0 0 0 0 1 0 0 0 0 0 0
		0 0 0 0 0 0 0 0 0 0 0 0 0 0
		0 0 0 0 0 0 0 1 0 0 0 0 0 0
		0 0 0 0 0 0 0 1 0 0 0 0 0 0
		0 0 0 0 0 0 0 0 0 0 0 0 0 0
		0 0 0 0 0 0 0 1 0 0 0 0 0 0
		0 0 0 0 0 0 0 1 0 0 0 0 0 0
		0 0 0 0 0 0 0 0 0 0 0 0 0 0
		0 0 0 0 0 0 0 1 0 0 0 0 0 0
		0 0 0 0 0 0 0 1 0 0 0 0 0 0
		0 0 0 0 0 0 0 0 0 0 0 0 0 0
		0 0 0 0 0 0 0 0 0 0 0 0 0 0
		0 0 0 0 0 0 0 1 0 0 0 0 0 0
		0 0 0 0 0 0 0 0 0 0 0 0 0 0
		0 0 0 0 0 0 0 1 0 0 0 0 0 0
		0 0 0 0 0 0 0 1 0 0 0 0 0 0
		0 0 0 0 0 0 0 0 0 0 0 0 0 0
		0 0 0 0 0 0 0 1 0 0 0 0 0 0
		0 0 0 0 0 0 0 1 0 0 0 0 0 0
		0 0 0 0 0 0 0 0 0 0 0 0 0 0
		0 0 0 0 0 0 0 1 0 0 0 0 0 0
		0 0 0 0 0 0 0 1 0 0 0 0 0 0
		0 0 0 0 0 0 0 0 0 0 0 0 0 0
		0 0 0 0 0 0 0 1 0 0 0 0 0 0
		0 0 0 0 0 0 0 1 0 0 0 0 0 0
		0 0 0 0 0 0 0 0 0 0 0 0 0 0
		0 0 0 0 0 0 0 1 0 0 0 0 0 0
		0 0 0 0 0 0 0 1 0 0 0 0 0 0
		0 0 0 0 0 0 0 0 0 0 0 0 0 0
		0 0 0 0 0 0 0 1 0 0 0 0 0 0
		0 0 0 0 0 0 0 1 0 0 0 0 0 0
		0 0 0 0 0 0 0 0 0 0 0 0 0 0
		0 0 0 0 0 0 0 1 0 0 0 0 0 0
		0 0 0 0 0 0 0 1 0 0 0 0 0 0
		0 0 0 0 0 0 0 0 0 0 0 0 0 0
		0 0 0 0 0 0 0 1 0 0 0 0 0 0
		0 0 0 0 0 0 0 1 0 0 0 0 0 0
		0 0 0 0 0 0 0 0 0 0 0 0 0 0
		0 0 0 0 0 0 0 1 0 0 0 0 0 0
		0 0 0 0 0 0 0 1 0 0 0 0 0 0
		0 0 0 0 0 0 0 0 0 0 0 0 0 0
		0 0 0 0 0 0 0 0 0 0 0 0 0 0
		0 0 0 0 0 0 0 1 0 0 0 0 0 0
		0 0 0 0 0 0 0 0 0 0 0 0 0 0
		0 0 0 0 0 0 0 1 0 0 0 0 0 0
		0 0 0 0 0 0 0 1 0 0 0 0 0 0
		0 0 0 0 0 0 0 0 0 0 0 0 0 0
		0 0 0 0 0 0 0 0 0 0 0 0 0 0
		0 0 0 0 0 0 0 1 0 0 0 0 0 0
		0 0 0 0 0 0 0 0 0 0 0 0 0 0
		0 0 0 0 0 0 0 1 0 0 0 0 0 0
		0 0 0 0 0 0 0 1 0 0 0 0 0 0
		0 0 0 0 0 0 0 0 0 0 0 0 0 0
		0 0 0 0 0 0 0 0 0 0 0 0 0 0
		0 0 0 0 0 0 0 1 0 0 0 0 0 0
		0 0 0 0 0 0 0 0 0 0 0 0 0 0
		0 0 0 0 0 0 0 1 0 0 0 0 0 0
		0 0 0 0 0 0 0 1 0 0 0 0 0 0
		0 0 0 0 0 0 0 0 0 0 0 0 0 0
		0 0 0 0 0 0 0 0 0 0 0 0 0 0
		0 0 0 0 0 0 0 1 0 0 0 0 0 0
		0 0 0 0 0 0 0 0 0 0 0 0 0 0
		0 0 0 0 0 0 0 1 0 0 0 0 0 0
		0 0 0 0 0 0 0 1 0 0 0 0 0 0
		0 0 0 0 0 0 0 0 0 0 0 0 0 0
		0 0 0 0 0 0 0 0 0 0 0 0 0 0
		0 0 0 0 0 0 0 1 0 0 0 0 0 0
		0 0 0 0 0 0 0 0 0 0 0 0 0 0
		0 0 0 0 0 0 0 1 0 0 0 0 0 0
		0 0 0 0 0 0 0 1 0 0 0 0 0 0
		0 0 0 0 0 0 0 0 0 0 0 0 0 0
		0 0 0 0 0 0 0 0 0 0 0 0 0 0
		0 0 0 0 0 0 0 1 0 0 0 0 0 0
		0 0 0 0 0 0 0 0 0 0 0 0 0 0
		0 0 0 0 0 0 0 1 0 0 0 0 0 0
		0 0 0 0 0 0 0 1 0 0 0 0 0 0
		0 0 0 0 0 0 0 0 0 0 0 0 0 0
		0 0 0 0 0 0 0 1 0 0 0 0 0 0
		0 0 0 0 0 0 0 1 0 0 0 0 0 0
		0 0 0 0 0 0 0 0 0 0 0 0 0 0
		0 0 0 0 0 0 0 1 0 0 0 0 0 0
		0 0 0 0 0 0 0 1 0 0 0 0 0 0
		0 0 0 0 0 0 0 0 0 0 0 0 0 0
		0 0 0 0 0 0 0 1 0 0 0 0 0 0
		0 0 0 0 0 0 0 1 0 0 0 0 0 0
		0 0 0 0 0 0 0 0 0 0 0 0 0 0
		0 0 0 0 0 0 0 1 0 0 0 0 0 0
		0 0 0 0 0 0 0 1 0 0 0 0 0 0
		0 0 0 0 0 0 0 0 0 0 0 0 0 0
		0 0 0 0 0 0 0 0 0 0 0 0 0 0
		0 0 0 0 0 0 0 1 0 0 0 0 0 0
		0 0 0 0 0 0 0 0 0 0 0 0 0 0
		0.340426 0 0 0 0.308511 0 0.0957447 0 0 0.191489 0 0 0.0638298 0
		0.410088 0 0 0 0.197368 0 0.0723684 0 0 0.241228 0 0 0.0789474 0
		0 0 0 0 0 0 0 0 0 1 0 0 0 0
		0.0907399 0.271289 0 0.12657 0.120056 0.0949279 0.011168 0 0.0739879 0.0604933 0.00651466 0 0.144253 0
		0.104094 0.396575 0 0.131121 0.0048167 0.027027 0.0133797 0 0.0701097 0.0163233 0.00776024 0 0.228793 0
		0.117647 0.0588235 0 0.176471 0.0588235 0.0588235 0.156863 0 0.137255 0.0588235 0 0 0.176471 0
		0.05063 0.268499 0.0219931 0.193356 0.0742268 0.0460481 0.0300115 0 0.155097 0.00801833 0.0696449 0.0281787 0.0542955 0
		0.0541233 0.318408 0.0283431 0.205186 0.0574401 0.0251771 0.0212573 0 0.0999548 0.0111563 0.0590984 0.0284939 0.0913614 0
		0.0972222 0.0555556 0.0972222 0.0694444 0.0972222 0.0416667 0.222222 0 0.0972222 0.0416667 0.0833333 0.0416667 0.0555556 0
		0.084 0.0734737 0.0837895 0.0444211 0.0629474 0.0570526 0.0747368 0 0.372 0.0296842 0.0374737 0.0195789 0.0608421 0
		0.209806 0.115491 0.142043 0.074605 0.0156377 0.0231308 0.0493566 0 0.0923603 0.0731389 0.0482163 0.0329044 0.12331 0
		0 0.153846 0.0615385 0.169231 0.0461538 0.169231 0.138462 0 0.0307692 0.0461538 0.123077 0 0.0615385 0
		0.0712104 0.0371323 0.0855168 0.0888925 0.0549751 0.0443659 0.0368108 0 0.10561 0.0231474 0.0597975 0.0186465 0.373895 0
		0.139742 0.0393107 0.102854 0.0621073 0.0172321 0.0348232 0.0166936 0 0.05035 0.0350924 0.0441572 0.0297972 0.427841 0
		0.0238095 0.119048 0.047619 0.154762 0.0357143 0.107143 0.119048 0 0.047619 0.178571 0.0714286 0.047619 0.047619 0
		0.285909 0.027605 0.0456545 0.0235098 0.043076 0.0820567 0.121037 0 0.220689 0.0037919 0.0338238 0.0109207 0.101926 0
		0.154289 0.0774324 0.110823 0.0463443 0.0256189 0.107513 0.113126 0 0.0889465 0.0142487 0.0459125 0.029217 0.186528 0
		0.112676 0.0985915 0.084507 0.0985915 0.0704225 0.0985915 0.112676 0 0.084507 0.0422535 0.084507 0.056338 0.056338 0
		0.248765 0.0451802 0.0111579 0.0299982 0.0385952 0.078105 0.0942016 0 0.168648 0.00493872 0.104079 0.0680446 0.108286 0
		0.125313 0.0828634 0.0280388 0.0358709 0.0191103 0.0615602 0.0816103 0 0.132206 0.0120614 0.08349 0.133929 0.203947 0
		0.112676 0.084507 0.112676 0.0704225 0.140845 0.0704225 0.112676 0 0.084507 0.0422535 0.056338 0.056338 0.056338 0
		0.0446523 0.1229 0.00744206 0.0835637 0.0308314 0.0788858 0.276207 0 0.0963215 0.00510313 0.200298 0.0314693 0.0223262 0
		0.0675173 0.181464 0.0148857 0.111643 0.0104554 0.0981747 0.150452 0 0.0538721 0.013468 0.200957 0.0558214 0.0412901 0
		0.0740741 0.037037 0.0740741 0.0555556 0.0925926 0.0925926 0.148148 0 0.111111 0.0555556 0.0740741 0.111111 0.0740741 0
		0.0744908 0.0622696 0.0316198 0.071193 0.0223084 0.0329777 0.420563 0 0.129001 0.00523763 0.0694471 0.05742 0.0234724 0
		0.155348 0.147456 0.0766355 0.0872274 0.00228453 0.046729 0.163863 0 0.106542 0.0159917 0.0658359 0.0893043 0.042783 0
		0.0769231 0.102564 0.128205 0.0641026 0.0641026 0.0897436 0.102564 0 0.128205 0.0384615 0.0512821 0.102564 0.0512821 0
		0.0502218 0.0134664 0.0218631 0.0763625 0.0172687 0.0236058 0.38308 0 0.107098 0.00316857 0.0350127 0.222592 0.0462611 0
		0.0781457 0.0246689 0.0432119 0.10149 0.0140728 0.0307947 0.147185 0 0.0786424 0.0125828 0.034106 0.343212 0.0918874 0
		0.0526316 0 0.0789474 0.0921053 0.118421 0.118421 0.105263 0 0.131579 0.0394737 0.184211 0.0526316 0.0263158 0
		0.0305765 0.0134463 0.0274452 0.0279978 0.0147357 0.0718364 0.451833 0 0.16154 0.00221035 0.0607847 0.0300239 0.10757 0
		0.0581288 0.0110722 0.043735 0.0522237 0.0175309 0.0885772 0.211663 0 0.125115 0.0136557 0.0636649 0.0634803 0.251153 0
		0.0465116 0.0232558 0.0465116 0.127907 0.104651 0.127907 0.0930233 0 0.116279 0.0348837 0.162791 0.0697674 0.0465116 0
		0.0207836 0.0405451 0.0194208 0.0541738 0.0204429 0.0153322 0.430324 0 0.28586 0.00170358 0.0352641 0.0630324 0.0131175 0
		0.0717354 0.0972938 0.0420962 0.100301 0.0229811 0.0146048 0.212199 0 0.179124 0.0156787 0.0534794 0.14884 0.0416667 0
		0.0784314 0.0392157 0.137255 0.0882353 0.127451 0.0686275 0.0784314 0 0.0784314 0.0294118 0.117647 0.0980392 0.0588235 0
		0.0251504 0.0344083 0.0101836 0.0465977 0.0206758 0.051381 0.412745 0 0.266008 0.00231446 0.0771486 0.0518439 0.00154297 0
		0.0733876 0.0694155 0.0226972 0.0790618 0.0395309 0.0894647 0.217515 0 0.169094 0.0138075 0.0847361 0.133157 0.00813316 0
		0.0689655 0.0862069 0.103448 0.12931 0.0948276 0.0603448 0.12069 0 0.0689655 0.0258621 0.0862069 0.103448 0.0517241 0
		0.024689 0.00320392 0.00904636 0.00508858 0.0480588 0.0527704 0.604787 0 0.233321 0.00207312 0.0122503 0.00207312 0.00263852 0
		0.10908 0.00670323 0.0310786 0.00487508 0.0642901 0.197745 0.280012 0 0.244363 0.0222425 0.0301645 0.000914077 0.00853138 0
		0.0714286 0.0238095 0.0952381 0.130952 0.178571 0.107143 0.119048 0 0.0714286 0.0357143 0.0952381 0.047619 0.0238095 0
		0.014123 0.000455581 0.0656036 0.00865604 0.0202733 0.057631 0.530752 0 0.280866 0.00205011 0.0191344 0.00022779 0.00022779 0
		0.049125 0.00153516 0.145226 0.0389929 0.0190359 0.140006 0.334357 0 0.206939 0.0303961 0.0322383 0.000921093 0.00122812 0
		0.0930233 0.0232558 0.0697674 0.174419 0.174419 0.104651 0.139535 0 0.0465116 0.0348837 0.0697674 0.0232558 0.0465116 0
		0.00521853 0.00163079 0.00228311 0.00782779 0.0215264 0.00945858 0.682648 0 0.196999 0.00293542 0.0107632 0 0.0587084 0
		0.0629995 0.00329102 0.00470146 0.0559473 0.0263282 0.0183357 0.406206 0 0.236013 0.0470146 0.00940291 0.000940291 0.12882 0
		0.0519481 0.0779221 0.0779221 0.142857 0.0909091 0.0909091 0.103896 0 0.0519481 0.103896 0.0519481 0.0519481 0.103896 0
		0.0384284 0.104961 0.00573559 0.0200746 0.039002 0.0217952 0.733582 0 0.00114712 0.00200746 0.0140522 0.0111844 0.00802983 0
		0.107665 0.225668 0.00606061 0.0491979 0.0973262 0.0659537 0.332977 0 0.00713012 0.0253119 0.0110517 0.0413547 0.030303 0
		0.0512821 0.0769231 0.128205 0.166667 0.0641026 0.0897436 0.102564 0 0.025641 0.0384615 0.0769231 0.0769231 0.102564 0
		0.0171743 0.0709657 0.00162022 0.00842515 0.029164 0.0126377 0.648088 0 0.0181465 0.00162022 0.13545 0.0233312 0.0333765 0
		0.0751377 0.107396 0.00236035 0.0460268 0.0566483 0.0283242 0.34225 0 0.0326515 0.0283242 0.154996 0.0554681 0.070417 0
		0.0540541 0.0540541 0.0810811 0.175676 0.0405405 0.148649 0.162162 0 0.0810811 0.0405405 0.0810811 0.0540541 0.027027 0
		0.0231729 0.100267 0.00802139 0.0106952 0.197861 0.0753119 0.322638 0 0.0882353 0.00311943 0.0463458 0.057041 0.0672906 0
		0.0610846 0.157628 0.0369487 0.00595948 0.2059 0.0634684 0.0965435 0 0.150179 0.0214541 0.023242 0.115614 0.0619785 0
		0.0666667 0.0666667 0.0666667 0.122222 0.0333333 0.188889 0.133333 0 0.111111 0.0333333 0.0666667 0.0888889 0.0222222 0
		0.312711 0.0730223 0.0148749 0.0375254 0.105477 0.0665991 0.00236646 0 0.0605139 0.0020284 0.0757268 0.189993 0.0591616 0
		0.335946 0.0590306 0.00767877 0.0326348 0.121741 0.0599904 0.000639898 0 0.0791873 0.0115182 0.0238362 0.203967 0.0638298 0
		0.0909091 0.0606061 0.0909091 0.106061 0.0454545 0.106061 0.0606061 0 0.121212 0.0454545 0.121212 0.151515 0 0
		0.244558 0.0166622 0.0507928 0.0327869 0.143779 0.0257995 0 0 0.00564364 0.00188121 0.114754 0.15641 0.206934 0
		0.300379 0.0130081 0.0526829 0.0275339 0.117832 0.0172358 0.000108401 0 0.0216802 0.00769648 0.0983198 0.127805 0.215718 0
		0.056338 0.084507 0.084507 0.0704225 0.0985915 0.140845 0 0 0.140845 0.0422535 0.112676 0.140845 0.028169 0
		0.02 0.43 0.0510345 0.0575862 0.0327586 0.022069 0 0 0.0668966 0.00206897 0.0844828 0.169655 0.0634483 0
		0.0206934 0.420584 0.0609911 0.0481031 0.0426575 0.0150663 0 0 0.0800508 0.0130695 0.0533672 0.17299 0.0724269 0
		0.0645161 0.0215054 0.0860215 0.0967742 0.139785 0.0860215 0 0 0.107527 0.0322581 0.0860215 0.129032 0.150538 0
		0.0295359 0.131646 0.0421941 0.0670886 0.0780591 0.0548523 0 0 0.140506 0.00168776 0.0232068 0.156962 0.274262 0
		0.0173378 0.0999254 0.0443699 0.0551827 0.0564877 0.0529456 0 0 0.0993661 0.0132364 0.0115585 0.141685 0.407905 0
		0.0816327 0.0612245 0.0816327 0.0714286 0.0918367 0.112245 0 0 0.142857 0.0306122 0.0816327 0.102041 0.142857 0
		0.170527 0.138985 0.147363 0.0275998 0.0271069 0.0818137 0 0 0.094135 0.000985707 0.115821 0.113849 0.0818137 0
		0.117507 0.121682 0.161646 0.0262452 0.014912 0.104682 0 0 0.120787 0.0208768 0.076946 0.139278 0.0954369 0
		0.0681818 0.113636 0.0681818 0.0795455 0.125 0.147727 0 0 0.0681818 0.0340909 0.0454545 0.136364 0.113636 0
		0.0536308 0.0583768 0.0299003 0.0227812 0.489321 0.0389179 0 0 0.0450878 0.00189843 0.0901756 0.0261035 0.143806 0
		0.0660315 0.0494128 0.0257035 0.0332373 0.49014 0.0274762 0 0 0.0265899 0.0157323 0.0502991 0.037669 0.177709 0
		0.0851064 0.0638298 0.0851064 0.117021 0.117021 0.159574 0 0 0.0851064 0.0319149 0.0638298 0.106383 0.0851064 0
		0.0360825 0.173969 0.00816151 0.101804 0.20232 0.0777491 0 0 0.162371 0.00171821 0.0416667 0.119845 0.0743127 0
		0.0560458 0.0908657 0.0100167 0.106368 0.238731 0.0777486 0 0 0.133079 0.016933 0.0341045 0.129025 0.107083 0
		0.0869565 0.0869565 0.108696 0.119565 0.0978261 0.141304 0 0 0.0869565 0.0326087 0.0434783 0.108696 0.0869565 0
		0.114919 0.114032 0.0706056 0.187297 0.107238 0.0735598 0 0 0.0422452 0.00118168 0.104874 0.162482 0.0215657 0
		0.108748 0.0900596 0.0846918 0.165209 0.112724 0.0805169 0 0 0.0520875 0.0139165 0.083499 0.191054 0.017495 0
		0.0792079 0.118812 0.118812 0.128713 0.0990099 0.118812 0 0 0.0594059 0.019802 0.039604 0.0792079 0.138614 0
		0.0352155 0.0412872 0.111718 0.156041 0.209472 0.0346084 0 0 0.168792 0.00242866 0.128112 0.108075 0.00425015 0
		0.0760524 0.0428016 0.159533 0.124867 0.199859 0.0392642 0 0 0.202335 0.025115 0.0240538 0.0898479 0.0162717 0
		0.0540541 0.108108 0.0810811 0.148649 0.148649 0.148649 0 0 0.0810811 0.0405405 0.0540541 0.108108 0.027027 0
		0.136804 0.00394973 0.0294434 0.122083 0.127828 0.0157989 0 0 0.287253 0.0021544 0.128905 0.135727 0.0100539 0
		0.119959 0.010537 0.0391084 0.0968592 0.101722 0.0194529 0 0 0.421884 0.014387 0.0470111 0.11388 0.0151976 0
		0.0731707 0.0487805 0.097561 0.158537 0.158537 0.158537 0 0 0.0731707 0.0365854 0.0487805 0.097561 0.0487805 0
		0.0666397 0.15105 0.00807754 0.0420032 0.155493 0.0310985 0 0 0.453554 0.00121163 0.0290792 0.0605816 0.00121163 0
		0.151527 0.11145 0.0112595 0.0347328 0.14771 0.0221374 0 0 0.447519 0.0135496 0.0103053 0.0414122 0.00839695 0
		0 0.157895 0.0526316 0.144737 0.144737 0.118421 0 0 0.131579 0.0394737 0.0526316 0.105263 0.0526316 0
		0.0482782 0.160027 0.0226199 0.0266712 0.190074 0.0958812 0.221134 0 0.118839 0.00033761 0.0844024 0.0202566 0.0114787 0
		0.118805 0.15581 0.0361394 0.0339753 0.132439 0.13114 0.119455 0 0.169877 0.0151482 0.0495564 0.0320277 0.00562649 0
		0.0631579 0.126316 0.0421053 0.115789 0.136842 0.0947368 0.0526316 0 0.105263 0.0315789 0.0842105 0.0631579 0.0842105 0
		0.0197811 0.0467172 0.145833 0.174453 0.0721801 0.0465067 0.361111 0 0.0648148 0.000841751 0.0317761 0.0185185 0.0174663 0
		0.0439791 0.0191473 0.217053 0.241586 0.0809274 0.0622289 0.125654 0 0.0854151 0.0106208 0.0249813 0.0507105 0.0376963 0
		0.08 0.12 0.04 0.06 0.18 0.14 0.2 0 0 0.06 0.04 0 0.08 0
		0.0453286 0.0415512 0.334676 0.08965 0.0420549 0.0657265 0.188869 0 0.0455805 0.00151095 0.0705112 0.0299673 0.0445732 0
		0.0544672 0.0427427 0.451024 0.0644108 0.0427427 0.0939448 0.0391808 0 0.0584743 0.0103888 0.0510537 0.0488275 0.0427427 0
		0.117647 0.0784314 0.0392157 0.0392157 0.176471 0.137255 0.235294 0 0 0.0588235 0 0 0.117647 0
		0.0516432 0 0 0.633803 0.00938967 0.244131 0.00469484 0 0.00469484 0 0.0516432 0 0 0
		0.013905 0 0 0.575898 0.00463499 0.390498 0 0 0.00115875 0.00115875 0.0115875 0.00115875 0 0
		0 0 0 0.375 0.375 0.125 0 0 0 0.125 0 0 0 0
	</TABLE>
</DEFINITION>
<DEFINITION>
	<FOR>Dst IP Addr</FOR>
	<GIVEN>Applicative Proto</GIVEN>
	<GIVEN>Dst IP Role</GIVEN>
	<TABLE>
		0 0 0 0 0 0 0 0 0 0 0 0 0 0 0 0 0 0 0 0 0 0 0 0 0 0 0 0 0 0 0 0 0 0 0 0 0 0 0 0 0 0 0 0 0 0 0 0 0 0 0 0 0 0 0 0 0 0 0 0 0 0 0 0 0 0 0 0 0 0 0 0 0 0 0 0 0 0 0 0 0 0 0 0 0 0 0 0 0 0 0 0 0 0 0 0 0 0 0 0 0 0 0 0 0 0 0 0 0 0 0 0 0 0 0 0 0 0 0 0 0 0 0 0 0 0 0 0 0 0 0 0 0 0 0 0 0 0 0 0 0 0 0 0 0 0 0 0 0 0 0 0 0 0 0 0 0 0 0 0 0 0 0 0 0 0 0 0 0 0 0 0 0 0 0 0 0 0 0 0 0 0 0 0 0 0 0 0 0 0 0 0 0 0 0 0 0 0 0 0 0 0 0 0 0 0 0 0 0 0 0 0 0 0 0 0 0 0 0 0 0 0 0 0 0 0 0 0 0 0 0 0 0 0 0 0 0 0 0 0 0 0 1
		0 0 0 0 0 0 0 0 0 0 0 0 0 0 0 0 0 0 0 0 0 0 0 0 0 0 0 0 0 0 0 0 0 0 0 0 0 0 0 0 0 0 0 0 0 0 0 0 0 0 0 0 0 0 0 0 0 0 0 0 0 0 0 0 0 0 0 0 0 0 0 0 0 0 0 0 0 0 0 0 0 0 0 0 0 0 0 0 0 0 0 0 0 0 0 0 0 0 0 0 0 0 0 0 0 0 0 0 0 0 0 0 0 0 0 0 0 0 0 0 0 0 0 0 0 0 0 0 0 0 0 0 0 0 0 0 0 0 0 0 0 0 0 0 0 0 0 0 0 0 0 0 0 0 0 0 0 0 0 0 0 0 0 0 0 0 0 0 0 0 0 0 0 0 0 0 0 0 0 0 0 0 0 0 0 0 0 0 0 0 0 0 0 0 0 0 0 0 0 0 0 0 0 0 0 0 0 0 0 0 0 0 0 0 0 0 0 0 0 0 0 0 0 0 0 0 4.452e-06 4.452e-06 0 0 0 0 0.334759 0 0 0 0 0.00326332 0.661968 0 0 0 0
		0 0 0 0 0 0 0 0 0 0 0 0 0 0 0 0 0 0 0 0 0 0 0 0 0 0 0 0 0 0 0 0 0 0 0 0 0 0 0 0 0 0 0 0 0 0 0 0 0 0 0 0 0 0 0 0 0 0 0 0 0 0 0 0 0 0 0 0 0 0 0 0 0 0 0 0 0 0 0 0 0 0 0 0 0 0 0 0 0 0 0 0 0 0 0 0 0 0 0 0 0 0 0 0 0 0 0 0 0 0 0 0 0 0 0 0 0 0 0 0 0 0 0 0 0 0 0 0 0 0 0 0 0 0 0 0 0 0 0 0 0 0 0 0 0 0 0 0 0 0 0 0 0 0 0 0 0 0 0 0 0 0 0 0 0 0 0 0 0 0 0 0 0 0 0 0 0 0 0 0 0 0 0 0 0 0 0 0 0 0 0 0 0 0 0 0 0 0 0 0 0 0 0 0 0 0 0 0 0 0 0 0 0 0 0 0 0 0 0 0 0 0 0 0 0 0 0 0 0 0 0 0 0 0.974533 0.00339559 0.00339559 0.00509338 0 0 0.0101868 0.00339559 0 0
		0 0 0 0 0 0 0 0 0 0 0 0 0 0 0 0 0 0 0 0 0 0 0 0 0 0 0 0 0 0 0 0 0 0 0 0 0 0 0 0 0 0 0 0 0 0 0 0 0 0 0 0 0 0 0 0 0 0 0 0 0 0 0 0 0 0 0 0 0 0 0 0 0 0 0 0 0 0 0 0 0 0 0 0 0 0 0 0 0 0 0 0 0 0 0 0 0 0 0 0 0 0 0 0 0 0 0 0 0 0 0 0 0 0 0 0 0 0 0 0 0 0 0 0 0 0 0 0 0 0 0 0 0 0 0 0 0 0 0 0 0 0 0 0 0 0 0 0 0 0 0 0 0 0 0 0 0 0 0 0 0 0 0 0 0 0 0 0 0 0 0 0 0 0 0 0 0 0 0 0 0 0 0 0 0 0 0 0 0 0 0 0 0 0 0 0 0 0 0 0 0 0 0 0 0 0 0 0 0 0 0 0 0 0 0 0 0 0 0 0 0 0 0 0 0 0 0 0 0 0 0 0 0 0 0 0 0 0 0 0 0 0 0
		0 0 0 0 0 0 0 0 0 0 0 0 0 0 0 0 0 0 0 0 0 0 0 0 0 0 0 0 0 0 0 0 0 0 0 0 0 0 0 0 0 0 0 0 0 0 0 0 0 0 0 0 0 0 0 0 0 0 0 0 0 0 0 0 0 0 0 0 0 0 0 0 0 0 0 0 0 0 0 0 0 0 0 0 0 0 0 0 0 0 0 0 0 0 0 0 0 0 0 0 0 0 0 0 0 0 0 0 0 0 0 0 0 0 0 0 0 0 0 0 0 0 0 0 0 0 0 0 0 0 0 0 0 0 0 0 0 0 0 0 0 0 0 0 0 0 0 0 0 0 0 0 0 0 0 0 0 0 0 0 0 0 0 0 0 0 0 0 0 0 0 0 0 0 0 0 0 0 0 0 0 0 0 0 0 0 0 0 0 0 0 0 0 0 0 0 0 0 0 0 0 0 0 0 0 0 0 0 0 0 0 0 0 0 0 0 0 0 0 0 0 0 0 0 0 0 0 0 0 0 0 0 0 0 0 0 0 0 0 0 0 0 0
		0 0 0 0 0 0 0 0 0 0 0 0 0 0 0 0 0 0 0 0 0 0 0 0 0 0 0 0 0 0 0 0 0 0 0 0 0 0 0 0 0 0 0 0 0 0 0 0 0 0 0 0 0 0 0 0 0 0 0 0 0 0 0 0 0 0 0 0 0 0 0 0 0 0 0 0 0 0 0 0 0 0 0 0 0 0 0 0 0 0 0 0 0 0 0 0 0 0 0 0 0 0 0 0 0 0 0 0 0 0 0 0 0 0 0 0 0 0 0 0 0 0 0 0 0 0 0 0 0 0 0 0 0 0 0 0 0 0 0 0 0 0 0 0 0 0 0 0 0 0 0 0 0 0 0 0 0 0 0 0 0 0 0 0 0 0 0 0 0 0 0 0 0 0 0 0 0 0 0 0 0 0 0 0 0 0 0 0 0 0 0 0 0 0 0 0 0 0 0 0 0 0 0 0 0 0 0 0 0 0 0 0 0 0 0 0 0 0 0 0 0 0 0 0 0 0 0 0 0 0 0 0 0 0 0 0 0 0 0 1 0 0 0
		0 0 0 0 0 0 0 0 0 0 0 0 0 0 0 0 0 0 0 0 0 0 0 0 0 0 0 0 0 0 0 0 0 0 0 0 0 0 0 0 0 0 0 0 0 0 0 0 0 0 0 0 0 0 0 0 0 0 0 0 0 0 0 0 0 0 0 0 0 0 0 0 0 0 0 0 0 0 0 0 0 0 0 0 0 0 0 0 0 0 0 0 0 0 0 0 0 0 0 0 0 0 0 0 0 0 0 0 0 0 0 0 0 0 0 0 0 0 0 0 0 0 0 0 0 0 0 0 0 0 0 0 0 0 0 0 0 0 0 0 0 0 0 0 0 0 0 0 0 0 0 0 0 0 0 0 0 0 0 0 0 0 0 0 0 0 0 0 0 0 0 0 0 0 0 0 0 0 0 0 0 0 0 0 0 0 0 0 0 0 0 0 0 0 0 0 0 0 0 0 0 0 0 0 0 0 0 0 0 0 0 0 0 0 0 0 0 0 0 0 0 0 0 0 0 0 0 0 0 0 0 0 0 0 0 0 0 0 0 0 0 0 0
		0 0 0 0 0 0 0 0 0 0 0 0 0 0 0 0 0 0 0 0 0 0 0 0 0 0 0 0 0 0 0 0 0 0 0 0 0 0 0 0 0 0 0 0 0 0 0 0 0 0 0 0 0 0 0 0 0 0 0 0 0 0 0 0 0 0 0 0 0 0 0 0 0 0 0 0 0 0 0 0 0 0 0 0 0 0 0 0 0 0 0 0 0 0 0 0 0 0 0 0 0 0 0 0 0 0 0 0 0 0 0 0 0 0 0 0 0 0 0 0 0 0 0 0 0 0 0 0 0 0 0 0 0 0 0 0 0 0 0 0 0 0 0 0 0 0 0 0 0 0 0 0 0 0 0 0 0 0 0 0 0 0 0 0 0 0 0 0 0 0 0 0 0 0 0 0 0 0 0 0 0 0 0 0 0 0 0 0 0 0 0 0 0 0 0 0 0 0 0 0 0 0 0 0 0 0 0 0 0 0 0 0 0 0 0 0 0 0 0 0 0 0 0 0 0 0 0 0 0 0 0 0 0 0 0 0 0 0 0 0 0 0 0
		0 0 0 0 0 0 0 0 0 0 0 0 0 0 0 0 0 0 0 0 0 0 0 0 0 0 0 0 0 0 0 0 0 0 0 0 0 0 0 0 0 0 0 0 0 0 0 0 0 0 0 0 0 0 0 0 0 0 0 0 0 0 0 0 0 0 0 0 0 0 0 0 0 0 0 0 0 0 0 0 0 0 0 0 0 0 0 0 0 0 0 0 0 0 0 0 0 0 0 0 0 0 0 0 0 0 0 0 0 0 0 0 0 0 0 0 0 0 0 0 0 0 0 0 0 0 0 0 0 0 0 0 0 0 0 0 0 0 0 0 0 0 0 0 0 0 0 0 0 0 0 0 0 0 0 0 0 0 0 0 0 0 0 0 0 0 0 0 0 0 0 0 0 0 0 0 0 0 0 0 0 0 0 0 0 0 0 0 0 0 0 0 0 0 0 0 0 0 0 0 0 0 0 0 0 0 0 0 0 0 0 0 0 0 0 0 0 0 0 0 0 0 0 0 0 0 0 0 0 0 0 0 0 0 0 0 0 0 0 1 0 0 0
		0 0 0 0 0 0 0 0 0 0 0 0 0 0 0 0 0 0 0 0 0 0 0 0 0 0 0 0 0 0 0 0 0 0 0 0 0 0 0 0 0 0 0 0 0 0 0 0 0 0 0 0 0 0 0 0 0 0 0 0 0 0 0 0 0 0 0 0 0 0 0 0 0 0 0 0 0 0 0 0 0 0 0 0 0 0 0 0 0 0 0 0 0 0 0 0 0 0 0 0 0 0 0 0 0 0 0 0 0 0 0 0 0 0 0 0 0 0 0 0 0 0 0 0 0 0 0 0 0 0 0 0 0 0 0 0 0 0 0 0 0 0 0 0 0 0 0 0 0 0 0 0 0 0 0 0 0 0 0 0 0 0 0 0 0 0 0 0 0 0 0 0 0 0 0 0 0 0 0 0 0 0 0 0 0 0 0 0 0 0 0 0 0 0 0 0 0 0 0 0 0 0 0 0 0 0 0 0 0 0 0 0 0 0 0 0 0 0 0 0 0 0 0 0 0 0 0 0 0 0 0 0 0 0 0 0 0 0 0 0 0 0 1
		0 0 0 0 0 0 0.000393236 0.0043256 0.000786473 0.000786473 0.000786473 0 0.000786473 0 0.01337 0 0 0.00471884 0 0.014943 0.00196618 0.00707825 0.000393236 0.000786473 0 0.00275265 0.0389304 0 0.034998 0 0 0 0 0.00393236 0.00275265 0.014943 0.00275265 0 0.000393236 0 0.00589855 0 0.0912308 0 0 0.0043256 0.00157295 0.00747149 0.00511207 0 0.00157295 0 0.0043256 0 0.0129768 0 0.000393236 0 0.00275265 0.00747149 0 0 0.00196618 0 0.000786473 0 0.0440425 0 0 0 0.00117971 0.00550531 0.00235942 0 0.0043256 0 0.0420763 0 0.00196618 0.0208415 0.000786473 0.000786473 0.00589855 0 0.000393236 0 0.000786473 0.00275265 0.000393236 0 0.0192686 0 0 0.00668502 0.00157295 0.000786473 0.0121903 0.000786473 0.00393236 0.00117971 0.000393236 0.000393236 0 0.0153362 0 0 0 0.0129768 0.00117971 0 0.0188753 0.00157295 0.00314589 0 0.0247739 0 0.000393236 0.00275265 0.0208415 0.00157295 0.00196618 0.00314589 0 0.00589855 0 0.0519072 0 0 0 0 0 0 0 0 0 0 0 0 0 0 0.00707825 0 0.00314589 0 0.0401101 0 0 0 0 0 0.00235942 0.00393236 0.014943 0.00196618 0 0.00471884 0 0.00589855 0.0117971 0.00235942 0.000786473 0.00196618 0.0043256 0.00196618 0.0534801 0 0 0 0.00117971 0.0220212 0.00235942 0.000393236 0.00707825 0.00157295 0.00353913 0 0.0212348 0 0.00943767 0.000393236 0 0 0.00157295 0.0121903 0.00117971 0 0.00235942 0.000393236 0 0 0 0.000786473 0.00471884 0.0125836 0 0.000393236 0 0.00196618 0 0.00471884 0 0 0.000393236 0.00353913 0 0.0043256 0.0125836 0.00235942 0.00157295 0 0.000786473 0 0.0043256 0 0.0405033 0 0 0 0 0 0 0 0.000393236 0.000393236 0 0 0.00511207 0 0 0.00157295 0.000786473 0 0 0 0 0 0 0 0 0 0 0.000393236 0
		0 0 0 0 0 0 0 0 0 0 0 0 0 0 0 0 0 0 0 0 0 0 0 0 0 0 0 0 0 0 0 0 0 0 0 0 0 0 0 0 0 0 0 0 0 0 0 0 0 0 0 0 0 0 0 0 0 0 0 0 0 0 0 0 0 0 0 0 0 0 0 0 0 0 0 0 0 0 0 0 0 0 0 0 0 0 0 0 0 0 0 0 0 0 0 0 0 0 0 0 0 0 0 0 0 0 0 0 0 0 0 0 0 0 0 0 0 0 0 0 0 0 0 0 0 0 0 0 0 0 0 0 0 0 0 0 0 0 0 0 0 0 0 0 0 0 0 0 0 0 0 0 0 0 0 0 0 0 0 0 0 0 0 0 0 0 0 0 0 0 0 0 0 0 0 0 0 0 0 0 0 0 0 0 0 0 0 0 0 0 0 0 0 0 0 0 0 0 0 0 0 0 0 0 0 0 0 0 0 0 0 0 0 0 0 0 0 0 0 0 0 0 0 0 0 0 0 0 0 0 0 0 0 0 0 0 0 0 0 0 0 0 0
		0 0 0 0 0 0 0 0 0 0 0 0 0 0 0 0 0 0 0 0 0 0 0 0 0 0 0 0 0 0 0 0 0 0 0 0 0 0 0 0 0 0 0 0 0 0 0 0 0 0 0 0 0 0 0 0 0 0 0 0 0 0 0 0 0 0 0 0 0 0 0 0 0 0 0 0 0 0 0 0 0 0 0 0 0 0 0 0 0 0 0 0 0 0 0 0 0 0 0 0 0 0 0 0 0 0 0 0 0 0 0 0 0 0 0 0 0 0 0 0 0 0 0 0 0 0 0 0 0 0 0 0 0 0 0 0 0 0 0 0 0 0 0 0 0 0 0 0 0 0 0 0 0 0 0 0 0 0 0 0 0 0 0 0 0 0 0 0 0 0 0 0 0 0 0 0 0 0 0 0 0 0 0 0 0 0 0 0 0 0 0 0 0 0 0 0 0 0 0 0 0 0 0 0 0 0 0 0 0 0 0 0 0 0 0 0 0 0 0 0 0 0 0 0 0 0 0 0 0 0 0 0 0 0 0 0 0 0 0 0 0 0 0
		0 0 0 0 0 0 0 0 0 0 0 0 0 0 0 0 0 0 0 0 0 0 0 0 0 0 0 0 0 0 0 0 0 0 0 0 0 0 0 0 0 0 0 0 0 0 0 0 0 0 0 0 0 0 0 0 0 0 0 0 0 0 0 0 0 0 0 0 0 0 0 0 0 0 0 0 0 0 0 0 0 0 0 0 0 0 0 0 0 0 0 0 0 0 0 0 0 0 0 0 0 0 0 0 0 0 0 0 0 0 0 0 0 0 0 0 0 0 0 0 0 0 0 0 0 0 0 0 0 0 0 0 0 0 0 0 0 0 0 0 0 0 0 0 0 0 0 0 0 0 0 0 0 0 0 0 0 0 0 0 0 0 0 0 0 0 0 0 0 0 0 0 0 0 0 0 0 0 0 0 0 0 0 0 0 0 0 0 0 0 0 0 0 0 0 0 0 0 0 0 0 0 0 0 0 0 0 0 0 0 0 0 0 0 0 0 0 0 0 0 0 0 0 0 0 0 0 0 0 0 0 0 0 0 0 0 0 0 1 0 0 0 0
		0 0 0 0 0 0 0 0 0 0 0 0 0 0 0 0 0 0 0 0 0 0 0 0 0 0 0 0 0 0 0 0 0 0 0 0 0 0 0 0 0 0 0 0 0 0 0 0 0 0 0 0 0 0 0 0 0 0 0 0 0 0 0 0 0 0 0 0 0 0 0 0 0 0 0 0 0 0 0 0 0 0 0 0 0 0 0 0 0 0 0 0 0 0 0 0 0 0 0 0 0 0 0 0 0 0 0 0 0 0 0 0 0 0 0 0 0 0 0 0 0 0 0 0 0 0 0 0 0 0 0 0 0 0 0 0 0 0 0 0 0 0 0 0 0 0 0 0 0 0 0 0 0 0 0 0 0 0 0 0 0 0 0 0 0 0 0 0 0 0 0 0 0 0 0 0 0 0 0 0 0 0 0 0 0 0 0 0 0 0 0 0 0 0 0 0 0 0 0 0 0 0 0 0 0 0 0 0 0 0 0 0 0 0 0 0 0 0 0 0 0 0 0 0 0 0 0 0 0 0 0 0 0 0 0 0 0 0 0 0 0 0 0
		0 0 0 0 0 0 0 0 0 0 0 0 0 0 0 0 0 0 0 0 0 0 0 0 0 0 0 0 0 0 0 0 0 0 0 0 0 0 0 0 0 0 0 0 0 0 0 0 0 0 0 0 0 0 0 0 0 0 0 0 0 0 0 0 0 0 0 0 0 0 0 0 0 0 0 0 0 0 0 0 0 0 0 0 0 0 0 0 0 0 0 0 0 0 0 0 0 0 0 0 0 0 0 0 0 0 0 0 0 0 0 0 0 0 0 0 0 0 0 0 0 0 0 0 0 0 0 0 0 0 0 0 0 0 0 0 0 0 0 0 0 0 0 0 0 0 0 0 0 0 0 0 0 0 0 0 0 0 0 0 0 0 0 0 0 0 0 0 0 0 0 0 0 0 0 0 0 0 0 0 0 0 0 0 0 0 0 0 0 0 0 0 0 0 0 0 0 0 0 0 0 0 0 0 0 0 0 0 0 0 0 0 0 0 0 0 0 0 0 0 0 0 0 0 0 0 0 0 0 0 0 0 0 0 0 0 0 0 0 0 0 0 0
		0 0 0 0 0 0 0 0 0 0 0 0 0 0 0 0 0 0 0 0 0 0 0 0 0 0 0 0 0 0 0 0 0 0 0 0 0 0 0 0 0 0 0 0 0 0 0 0 0 0 0 0 0 0 0 0 0 0 0 0 0 0 0 0 0 0 0 0 0 0 0 0 0 0 0 0 0 0 0 0 0 0 0 0 0 0 0 0 0 0 0 0 0 0 0 0 0 0 0 0 0 0 0 0 0 0 0 0 0 0 0 0 0 0 0 0 0 0 0 0 0 0 0 0 0 0 0 0 0 0 0 0 0 0 0 0 0 0 0 0 0 0 0 0 0 0 0 0 0 0 0 0 0 0 0 0 0 0 0 0 0 0 0 0 0 0 0 0 0 0 0 0 0 0 0 0 0 0 0 0 0 0 0 0 0 0 0 0 0 0 0 0 0 0 0 0 0 0 0 0 0 0 0 0 0 0 0 0 0 0 0 0 0 0 0 0 0 0 0 0 0 0 0 0 0 0 0 0 0 0 0 0 0 0 0 0 0 0 1 0 0 0 0
		0 0 0 0 0 0 0 0 0 0 0 0 0 0 0 0 0 0 0 0 0 0 0 0 0 0 0 0 0 0 0 0 0 0 0 0 0 0 0 0 0 0 0 0 0 0 0 0 0 0 0 0 0 0 0 0 0 0 0 0 0 0 0 0 0 0 0 0 0 0 0 0 0 0 0 0 0 0 0 0 0 0 0 0 0 0 0 0 0 0 0 0 0 0 0 0 0 0 0 0 0 0 0 0 0 0 0 0 0 0 0 0 0 0 0 0 0 0 0 0 0 0 0 0 0 0 0 0 0 0 0 0 0 0 0 0 0 0 0 0 0 0 0 0 0 0 0 0 0 0 0 0 0 0 0 0 0 0 0 0 0 0 0 0 0 0 0 0 0 0 0 0 0 0 0 0 0 0 0 0 0 0 0 0 0 0 0 0 0 0 0 0 0 0 0 0 0 0 0 0 0 0 0 0 0 0 0 0 0 0 0 0 0 0 0 0 0 0 0 0 0 0 0 0 0 0 0 0 0 0 0 0 0 0 0 0 0 0 0 0 0 0 0
		0 0 0 0 0 0 0 0 0 0 0 0 0 0 0 0 0 0 0 0 0 0 0 0 0 0 0 0 0 0 0 0 0 0 0 0 0 0 0 0 0 0 0 0 0 0 0 0 0 0 0 0 0 0 0 0 0 0 0 0 0 0 0 0 0 0 0 0 0 0 0 0 0 0 0 0 0 0 0 0 0 0 0 0 0 0 0 0 0 0 0 0 0 0 0 0 0 0 0 0 0 0 0 0 0 0 0 0 0 0 0 0 0 0 0 0 0 0 0 0 0 0 0 0 0 0 0 0 0 0 0 0 0 0 0 0 0 0 0 0 0 0 0 0 0 0 0 0 0 0 0 0 0 0 0 0 0 0 0 0 0 0 0 0 0 0 0 0 0 0 0 0 0 0 0 0 0 0 0 0 0 0 0 0 0 0 0 0 0 0 0 0 0 0 0 0 0 0 0 0 0 0 0 0 0 0 0 0 0 0 0 0 0 0 0 0 0 0 0 0 0 0 0 0 0 0 0 0 0 0 0 0 0 0 0 0 0 0 0 0 0 0 1
		0 0 0 0 0 0 0 0 0 0 0 0 0 0 0 0 0 0 0 0 0 0 0 0 0 0 0 0 0 0 0 0 0 0 0 0 0 0 0 0 0 0 0 0 0 0 0 0 0 0 0 0 0 0 0 0 0 0 0 0 0 0 0 0 0 0 0 0 0 0 0 0 0 0 0 0 0 0 0 0 0 0 0 0 0 0 0 0 0 0 0 0 0 0 0 0 0 0 0 0 0 0 0 0 0 0 0 0 0 0 0 0 0 0 0 0 0 0 0 0 0 0 0 0 0 0 0 0 0 0 0 0 0 0 0 0 0 0 0 0 0 0 0 0 0 0 0 0 0 0 0 0 0 0 0 0 0 0 0 0 0 0 0 0 0 0 0 0 0 0 0 0 0 0 0 0 0 0 0 0 0 0 0 0 0 0 0 0 0 0 0 0 0 0 0 0 0 0 0 0 0 0 0 0 0 0 0 0 0 0 0 0 0 0 0 0 0 0 0 0 0 0 0 0 0 0 0 0 0 0 0 0 0 0 0 0 0 0 1 0 0 0 0
		0 0 0 0 0 0 0 0 0 0 0 0 0 0 0 0 0 0 0 0 0 0 0 0 0 0 0 0 0 0 0 0 0 0 0 0 0 0 0 0 0 0 0 0 0 0 0 0 0 0 0 0 0 0 0 0 0 0 0 0 0 0 0 0 0 0 0 0 0 0 0 0 0 0 0 0 0 0 0 0 0 0 0 0 0 0 0 0 0 0 0 0 0 0 0 0 0 0 0 0 0 0 0 0 0 0 0 0 0 0 0 0 0 0 0 0 0 0 0 0 0 0 0 0 0 0 0 0 0 0 0 0 0 0 0 0 0 0 0 0 0 0 0 0 0 0 0 0 0 0 0 0 0 0 0 0 0 0 0 0 0 0 0 0 0 0 0 0 0 0 0 0 0 0 0 0 0 0 0 0 0 0 0 0 0 0 0 0 0 0 0 0 0 0 0 0 0 0 0 0 0 0 0 0 0 0 0 0 0 0 0 0 0 0 0 0 0 0 0 0 0 0 0 0 0 0 0 0 0 0 0 0 0 0 0 0 0 0 0 0 0 0 0
		0 0 0 0 0 0 0 0 0 0 0 0 0 0 0 0 0 0 0 0 0 0 0 0 0 0 0 0 0 0 0 0 0 0 0 0 0 0 0 0 0 0 0 0 0 0 0 0 0 0 0 0 0 0 0 0 0 0 0 0 0 0 0 0 0 0 0 0 0 0 0 0 0 0 0 0 0 0 0 0 0 0 0 0 0 0 0 0 0 0 0 0 0 0 0 0 0 0 0 0 0 0 0 0 0 0 0 0 0 0 0 0 0 0 0 0 0 0 0 0 0 0 0 0 0 0 0 0 0 0 0 0 0 0 0 0 0 0 0 0 0 0 0 0 0 0 0 0 0 0 0 0 0 0 0 0 0 0 0 0 0 0 0 0 0 0 0 0 0 0 0 0 0 0 0 0 0 0 0 0 0 0 0 0 0 0 0 0 0 0 0 0 0 0 0 0 0 0 0 0 0 0 0 0 0 0 0 0 0 0 0 0 0 0 0 0 0 0 0 0 0 0 0 0 0 0 0 0 0 0 0 0 0 0 0 0 0 0 0 0 0 0 0
		0 0 0 0 0 0 0 0 0 0 0 0 0 0 0 0 0 0 0 0 0 0 0 0 0 0 0 0 0 0 0 0 0 0 0 0 0 0 0 0 0 0 0 0 0 0 0 0 0 0 0 0 0 0 0 0 0 0 0 0 0 0 0 0 0 0 0 0 0 0 0 0 0 0 0 0 0 0 0 0 0 0 0 0 0 0 0 0 0 0 0 0 0 0 0 0 0 0 0 0 0 0 0 0 0 0 0 0 0 0 0 0 0 0 0 0 0 0 0 0 0 0 0 0 0 0 0 0 0 0 0 0 0 0 0 0 0 0 0 0 0 0 0 0 0 0 0 0 0 0 0 0 0 0 0 0 0 0 0 0 0 0 0 0 0 0 0 0 0 0 0 0 0 0 0 0 0 0 0 0 0 0 0 0 0 0 0 0 0 0 0 0 0 0 0 0 0 0 0 0 0 0 0 0 0 0 0 0 0 0 0 0 0 0 0 0 0 0 0 0 0 0 0 0 0 0 0 0 0 0 0 0 0 0 0 0 0 0 0 0 0 0 0
		0 0 0 0 0 0 0 0 0 0 0 0 0 0 0 0 0 0 0 0 0 0 0 0 0 0 0 0 0 0 0 0 0 0 0 0 0 0 0 0 0 0 0 0 0 0 0 0 0 0 0 0 0 0 0 0 0 0 0 0 0 0 0 0 0 0 0 0 0 0 0 0 0 0 0 0 0 0 0 0 0 0 0 0 0 0 0 0 0 0 0 0 0 0 0 0 0 0 0 0 0 0 0 0 0 0 0 0 0 0 0 0 0 0 0 0 0 0 0 0 0 0 0 0 0 0 0 0 0 0 0 0 0 0 0 0 0 0 0 0 0 0 0 0 0 0 0 0 0 0 0 0 0 0 0 0 0 0 0 0 0 0 0 0 0 0 0 0 0 0 0 0 0 0 0 0 0 0 0 0 0 0 0 0 0 0 0 0 0 0 0 0 0 0 0 0 0 0 0 0 0 0 0 0 0 0 0 0 0 0 0 0 0 0 0 0 0 0 0 0 0 0 0 0 0 0 0 0 0 0 0 0 0 0 0 0 0 0 0 1 0 0 0
		0 0 0 0 0 0 0 0 0 0 0 0 0 0 0 0 0 0 0 0 0 0 0 0 0 0 0 0 0 0 0 0 0 0 0 0 0 0 0 0 0 0 0 0 0 0 0 0 0 0 0 0 0 0 0 0 0 0 0 0 0 0 0 0 0 0 0 0 0 0 0 0 0 0 0 0 0 0 0 0 0 0 0 0 0 0 0 0 0 0 0 0 0 0 0 0 0 0 0 0 0 0 0 0 0 0 0 0 0 0 0 0 0 0 0 0 0 0 0 0 0 0 0 0 0 0 0 0 0 0 0 0 0 0 0 0 0 0 0 0 0 0 0 0 0 0 0 0 0 0 0 0 0 0 0 0 0 0 0 0 0 0 0 0 0 0 0 0 0 0 0 0 0 0 0 0 0 0 0 0 0 0 0 0 0 0 0 0 0 0 0 0 0 0 0 0 0 0 0 0 0 0 0 0 0 0 0 0 0 0 0 0 0 0 0 0 0 0 0 0 0 0 0 0 0 0 0 0 0 0 0 0 0 0 0 0 0 0 0 0 0 0 1
		0.000161891 0.000161891 0.000161891 0.000242836 0.000566618 0.000161891 0.000242836 0.0080136 0.0035616 0.00210458 0.00590902 0.000242836 0.00323782 0.00283309 0.00420916 0.000242836 0.00113324 0.0107657 0.000161891 0.008904 0.00420916 0.00655658 0.0071232 0.000971345 0.00105229 0.00194269 0.00590902 0.00210458 0.00760887 0.000161891 0.000647564 0.000566618 0.00145702 0.0105229 0.00963251 0.0280881 0.00720414 0.0017808 0.00898494 0.000485673 0.00234742 0.00210458 0.00647564 0.000323782 0.00194269 0.00469484 0.00161891 0.0186984 0.00250931 0.000566618 0.00331876 0.00113324 0.00242836 0.00153796 0.00566618 0.000404727 0 0.00493767 0.00420916 0.0220172 0.00485673 0.00218553 0.00469484 0.000728509 0.00218553 0.00582807 0.0101182 0.000809454 0.000485673 0.000323782 0.00137607 0.0250931 0.0035616 0.00250931 0.00558524 0.0017808 0.0139226 0.000404727 0.000242836 0.0357779 0.00720414 0.00121418 0.013356 0.00655658 0.000485673 0.00242836 0.0062328 0.0026712 0.00105229 0.00250931 0.00315687 0.000161891 0.000323782 0.00631374 0.00404727 0.00315687 0.0216124 0.00469484 0.00898494 0.00598996 0.00186175 0.00194269 8.09454e-05 0.00679942 0.000242836 0.0008904 0.00453294 0.0143273 0.00704225 0.00145702 0.008904 0.00275215 0.00412822 0.00186175 0.011818 0.000809454 0.00145702 0.00768982 0.0502671 0.00793265 0.0106848 0.00210458 0.0008904 0.0035616 0.00129513 0.00922778 0.000728509 0.00194269 0.000161891 8.09454e-05 0.000404727 0.000161891 0.00145702 0.000161891 0.000809454 0.000728509 0.00113324 8.09454e-05 8.09454e-05 0.00275215 0.00696131 0.00153796 0.00339971 0.00364254 0.00874211 0.000242836 0.000404727 8.09454e-05 0.000728509 0.00169985 0.00542334 0.00526145 0.0232313 0.00631374 0.00348065 0.00550429 8.09454e-05 0.00420916 0.0324591 0.00412822 0.00518051 0.00558524 0.00234742 0.00186175 0.00437105 0.000566618 0.0008904 8.09454e-05 0.00113324 0.0290594 0.00688036 0.00299498 0.00582807 0.00307593 0.00194269 0.000809454 0.00817549 0.000161891 0.0026712 0.00186175 0.00161891 0.000404727 0.00259025 0.00275215 0.00121418 0.00145702 0.004452 0.000161891 0.000566618 8.09454e-05 0.000161891 0.004452 0.0035616 0.0260644 8.09454e-05 0.00275215 0.00129513 0.00420916 0.00153796 0.00323782 0.000485673 8.09454e-05 0.00323782 0.00590902 8.09454e-05 0.00777076 0.0189412 0.00947062 0.00607091 0.00631374 0.00348065 0.000971345 0.00226647 0.00169985 0.0101991 0.000161891 0.000323782 8.09454e-05 0.000161891 0.000242836 0.00331876 0.000728509 0.00218553 0 0.000161891 0.000323782 0.0008904 0.00137607 0.000161891 0 0 0.000404727 0 0 0 0 0 0 0 0 0 0 0
		0 0 0 0 0 0 0 0 0 0 0 0 0 0 0 0 0 0 0 0 0 0 0 0 0 0 0 0 0 0 0 0 0 0 0 0 0 0 0 0 0 0 0 0 0 0 0 0 0 0 0 0 0 0 0 0 0 0 0 0 0 0 0 0 0 0 0 0 0 0 0 0 0 0 0 0 0 0 0 0 0 0 0 0 0 0 0 0 0 0 0 0 0 0 0 0 0 0 0 0 0 0 0 0 0 0 0 0 0 0 0 0 0 0 0 0 0 0 0 0 0 0 0 0 0 0 0 0 0 0 0 0 0 0 0 0 0 0 0 0 0 0 0 0 0 0 0 0 0 0 0 0 0 0 0 0 0 0 0 0 0 0 0 0 0 0 0 0 0 0 0 0 0 0 0 0 0 0 0 0 0 0 0 0 0 0 0 0 0 0 0 0 0 0 0 0 0 0 0 0 0 0 0 0 0 0 0 0 0 0 0 0 0 0 0 0 0 0 0 0 0 0 0 0 0 0 0 0 0 0 0 0 0 0 0 0 0 0 0 0 0 0 0
	</TABLE>
</DEFINITION>
<DEFINITION>
	<FOR>Dst Pt</FOR>
	<GIVEN>Applicative Proto</GIVEN>
	<GIVEN>Dst IP Role</GIVEN>
	<TABLE>
		0 0 0 0 0 0 0 0 0 0 0 0 0 0 0 0 0 0 0 0 0 0 0 0 0 0 0.291055 0 0 0 0 0 0 0 0 0 0 0 0 0 0 0 0 0 0 0 0 0 0 0 0 0 0 0 0 0 0 0 0 0 0 0 0 0 0 0 0 0 0 0 0 0 0 0 0 0 0 0 0 0 0 0 0 0 0 0 0 0 0 0 0 0 0 0 0 0 0 0 0 0 0 0 0 0 0 0 0 0 0 0 0 0 0 0 0 0 0 0 0 0 0 0 0 0 0 0 0 0 0 0 0 0 0 0 0 0 0 0 0 0 0 0 0 0 0 0 0 0 0 0 0 0 0 0 0 0 0 0 0 0 0 0 0 0 0 0 0 0 0 0 0 0 0 0 0 0 0 0 0 0 0 0 0 0 0 0 0 0 0 0 0 0 0 0 0 0 0 0 0 0 0 0 0 0 0 0 0 0 0 0 0 0 0 0 0 0 0 0 0 0 0 0 0 0 0 0 0 0 0 0 0 0 0 0 0 0 0 0 0 0 0 0 0 0 0 0 0 0 0 0 0 0 0 0 0 0 0 0 0 0 0 0 0 0 0 0 0 0 0 0 0 0 0 0 0 0 0 0 0 0 0 0 0 0 0 0 0 0 0 0 0 0 0 0 0 0 0 0 0 0 0 0 0 0 0 0 0 0 0 0 0 0 0 0 0 0 0 0 0 0 0 0 0 0 0 0 0 0 0.012016 0 0 0 0 0 0 0.544726 0.152203 0 0 0 0 0 0 0 0 0 0 0 0 0 0 0 0 0 0 0 0 0 0 0 0 0 0 0 0 0 0 0 0 0 0 0 0 0 0 0 0 0 0 0 0 0 0 0 0 0 0 0 0 0 0 0 0 0 0 0 0 0 0 0 0 0 0 0 0 0 0 0 0 0 0 0 0 0 0 0 0 0 0 0 0 0 0 0 0 0 0 0 0 0 0 0 0 0 0 0 0 0 0 0 0 0 0 0 0 0 0 0 0 0 0 0 0 0 0 0 0 0 0 0 0 0 0 0 0 0 0 0 0 0 0
		0 0 0 0 0 0 0 0 0 0 0 0 0 0 0 0 0 0 0 0 0 0 0 0 0 0 0.00386879 0 0 0 0 0 0 0 0 0 0 0 0 0 0 0 0 0 0 0 0 0 0 0 0 0 0 0 0 0 0 0 0 0 0 0 0 0 0 0 0 0 0 0 0 0 0 0 0 0 0 0 0 0 0 0 0 0 0 0 0 0 0 0 0 0 0 0 0 0 0 0 0 0 0 0 0 0 0 0 0 0 0 0 0 0 0 0 0 0 0 0 0 0 0 0 0 0 0 0 0 0 0 0 0 0 0 0 0 0 0 0 0 0 0 0 0 0 0 0 0 0 0 0 0 0 0 0 0 0 0 0 0 0 0 0 0 0 0 0 0 0 0 0 0 0 0 0 0 0 0 0 0 0 0 0 0 0 0 0 0 0 0 0 0 0 0 0 0 0 0 0 0 0 0 0 0 0 0 0 0 0 0 0 0 0 0 0 0 0 0 0 0 0 0 0 0 0 0 0 0 0 0 0 0 0 0 0 0 0 0 0 0 0 0 0 0 0 0 0 0 0 0 0 0 0 0 0 0 0 0 0 0 0 0 0 0 0 0 0 0 0 0 0 0 0 0 0 0 0 0 0 0 0 0 0 0 0 0 0 0 0 0 0 0 0 0 0 0 0 0 0 0 0 0 0 0 0 0 0 0 0 0 0 0 0 0 0 0 0 0 0 0 0 0 0 0 0 0 0 0 0 0.996131 0 0 0 0 0 0 0 0 0 0 0 0 0 0 0 0 0 0 0 0 0 0 0 0 0 0 0 0 0 0 0 0 0 0 0 0 0 0 0 0 0 0 0 0 0 0 0 0 0 0 0 0 0 0 0 0 0 0 0 0 0 0 0 0 0 0 0 0 0 0 0 0 0 0 0 0 0 0 0 0 0 0 0 0 0 0 0 0 0 0 0 0 0 0 0 0 0 0 0 0 0 0 0 0 0 0 0 0 0 0 0 0 0 0 0 0 0 0 0 0 0 0 0 0 0 0 0 0 0 0 0 0 0 0 0 0 0 0 0 0 0 0
		0 0 0 0 0 0 0 0 0 0 0 0 0 0 0 0 0 0 0 0 0 0 0 0 0 0 1 0 0 0 0 0 0 0 0 0 0 0 0 0 0 0 0 0 0 0 0 0 0 0 0 0 0 0 0 0 0 0 0 0 0 0 0 0 0 0 0 0 0 0 0 0 0 0 0 0 0 0 0 0 0 0 0 0 0 0 0 0 0 0 0 0 0 0 0 0 0 0 0 0 0 0 0 0 0 0 0 0 0 0 0 0 0 0 0 0 0 0 0 0 0 0 0 0 0 0 0 0 0 0 0 0 0 0 0 0 0 0 0 0 0 0 0 0 0 0 0 0 0 0 0 0 0 0 0 0 0 0 0 0 0 0 0 0 0 0 0 0 0 0 0 0 0 0 0 0 0 0 0 0 0 0 0 0 0 0 0 0 0 0 0 0 0 0 0 0 0 0 0 0 0 0 0 0 0 0 0 0 0 0 0 0 0 0 0 0 0 0 0 0 0 0 0 0 0 0 0 0 0 0 0 0 0 0 0 0 0 0 0 0 0 0 0 0 0 0 0 0 0 0 0 0 0 0 0 0 0 0 0 0 0 0 0 0 0 0 0 0 0 0 0 0 0 0 0 0 0 0 0 0 0 0 0 0 0 0 0 0 0 0 0 0 0 0 0 0 0 0 0 0 0 0 0 0 0 0 0 0 0 0 0 0 0 0 0 0 0 0 0 0 0 0 0 0 0 0 0 0 0 0 0 0 0 0 0 0 0 0 0 0 0 0 0 0 0 0 0 0 0 0 0 0 0 0 0 0 0 0 0 0 0 0 0 0 0 0 0 0 0 0 0 0 0 0 0 0 0 0 0 0 0 0 0 0 0 0 0 0 0 0 0 0 0 0 0 0 0 0 0 0 0 0 0 0 0 0 0 0 0 0 0 0 0 0 0 0 0 0 0 0 0 0 0 0 0 0 0 0 0 0 0 0 0 0 0 0 0 0 0 0 0 0 0 0 0 0 0 0 0 0 0 0 0 0 0 0 0 0 0 0 0 0 0 0 0 0 0 0 0 0 0
		0 0 0 0 0 0 0 0 0 0 0 0 0 0 0 0 0 0 0 0 0 0 0 0 0 0 0 0 0 0 0 0 0 0 0 0 0 0 0 0 0 0 0 0 0 0 0 0 0 0 0 0 0 0 0 0 0 0 0 0 0 0 0 0 0 0 0 0 0 0 0 0 0 0 0 0 0 0 0 0 0 0 0 0 0 0 0 0 0 0 0 0 0 0 0 0 0 0 0 0 0 0 0 0 0 0 0 0 0 0 0 0 0 0 0 0 0 0 0 0 0 0 0 0 0 0 0 0 0 0 0 0 0 0 0 0 0 0 0 0 0 0 0 0 0 0 0 0 0 0 0 0 0 0 0 0 0 0 0 0 0 0 0 0 0 0 0 0 0 0 0 0 0 0 0 0 0 0 0 0 0 0 0 0 0 0 0 0 0 0 0 0 0 0 0 0 0 0 0 0 0 0 0 0 0 0 0 0 0 0 0 0 0 0 0 0 0 0 0 0 0 0 0 0 0 0 0 0 0 0 0 0 0 0 0 0 0 0 0 0 0 0 0 0 0 0 0 0 0 0 0 0 0 0 0 0 0 0 0 0 0 0 0 0 0 0 0 0 0 0 0 0 0 0 0 0 0 0 0 0 0 0 0 0 0 0 0 0 0 0 0 0 0 0 0 0 0 0 0 0 0 0 0 0 0 0 0 0 0 0 0 0 0 0 0 0 0 0 0 0 0 0 0 0 0 0 0 0 0 0 0 0 0 0 0 0 0 0 0 0 0 0 0 0 0 0 0 0 0 0 0 0 0 0 0 0 0 0 0 0 0 0 0 0 0 0 0 0 0 0 0 0 0 0 0 0 0 0 0 0 0 0 0 0 0 0 0 0 0 0 0 0 0 0 0 0 0 0 0 0 0 0 0 0 0 0 0 0 0 0 0 0 0 0 0 0 0 0 0 0 0 0 0 0 0 0 0 0 0 0 0 0 0 0 0 0 0 0 0 0 0 0 0 0 0 0 0 0 0 0 0 0 0 0 0 0 0 0 0 0 0 0 0 0 0 0 0 0 0 0 0
		0 0 0 0 0 0 0 0 0 0 0 0 0 0 0 0 0 0 0 0 0 0 0 0 0 0 0 0 0 0 0 0 0 0 0 0 0 0 0 0 0 0 0 0 0 0 0 0 0 0 0 0 0 0 0 0 0 0 0 0 0 0 0 0 0 0 0 0 0 0 0 0 0 0 0 0 0 0 0 0 0 0 0 0 0 0 0 0 0 0 0 0 0 0 0 0 0 0 0 0 0 0 0 0 0 0 0 0 0 0 0 0 0 0 0 0 0 0 0 0 0 0 0 0 0 0 0 0 0 0 0 0 0 0 0 0 0 0 0 0 0 0 0 0 0 0 0 0 0 0 0 0 0 0 0 0 0 0 0 0 0 0 0 0 0 0 0 0 0 0 0 0 0 0 0 0 0 0 0 0 0 0 0 0 0 0 0 0 0 0 0 0 0 0 0 0 0 0 0 0 0 0 0 0 0 0 0 0 0 0 0 0 0 0 0 0 0 0 0 0 0 0 0 0 0 0 0 0 0 0 0 0 0 0 0 0 0 0 0 0 0 0 0 0 0 0 0 0 0 0 0 0 0 0 0 0 0 0 0 0 0 0 0 0 0 0 0 0 0 0 0 0 0 0 0 0 0 0 0 0 0 0 0 0 0 0 0 0 0 0 0 0 0 0 0 0 0 0 0 0 0 0 0 0 0 0 0 0 0 0 0 0 0 0 0 0 0 0 0 0 0 0 0 0 0 0 0 0 0 0 0 0 0 0 0 0 0 0 0 0 0 0 0 0 0 0 0 0 0 0 0 0 0 0 0 0 0 0 0 0 0 0 0 0 0 0 0 0 0 0 0 0 0 0 0 0 0 0 0 0 0 0 0 0 0 0 0 0 0 0 0 0 0 0 0 0 0 0 0 0 0 0 0 0 0 0 0 0 0 0 0 0 0 0 0 0 0 0 0 0 0 0 0 0 0 0 0 0 0 0 0 0 0 0 0 0 0 0 0 0 0 0 0 0 0 0 0 0 0 0 0 0 0 0 0 0 0 0 0 0 0 0 0 0 0 0 0 0 0 0 0
		0 0 0 0 0 0 0 0 0 0 0 0 0 0 0 0 0 0 0 0 0 0 0 0 0 0 0 0 0 0 0 0 0 0 0 0 0 0 0 0 0 0 0 0 0 0 0 0 0 0 0 0 0 0 0 0 0 0 0 0 0 0 0 0 0 0 0 0 0 0 0 0 1 0 0 0 0 0 0 0 0 0 0 0 0 0 0 0 0 0 0 0 0 0 0 0 0 0 0 0 0 0 0 0 0 0 0 0 0 0 0 0 0 0 0 0 0 0 0 0 0 0 0 0 0 0 0 0 0 0 0 0 0 0 0 0 0 0 0 0 0 0 0 0 0 0 0 0 0 0 0 0 0 0 0 0 0 0 0 0 0 0 0 0 0 0 0 0 0 0 0 0 0 0 0 0 0 0 0 0 0 0 0 0 0 0 0 0 0 0 0 0 0 0 0 0 0 0 0 0 0 0 0 0 0 0 0 0 0 0 0 0 0 0 0 0 0 0 0 0 0 0 0 0 0 0 0 0 0 0 0 0 0 0 0 0 0 0 0 0 0 0 0 0 0 0 0 0 0 0 0 0 0 0 0 0 0 0 0 0 0 0 0 0 0 0 0 0 0 0 0 0 0 0 0 0 0 0 0 0 0 0 0 0 0 0 0 0 0 0 0 0 0 0 0 0 0 0 0 0 0 0 0 0 0 0 0 0 0 0 0 0 0 0 0 0 0 0 0 0 0 0 0 0 0 0 0 0 0 0 0 0 0 0 0 0 0 0 0 0 0 0 0 0 0 0 0 0 0 0 0 0 0 0 0 0 0 0 0 0 0 0 0 0 0 0 0 0 0 0 0 0 0 0 0 0 0 0 0 0 0 0 0 0 0 0 0 0 0 0 0 0 0 0 0 0 0 0 0 0 0 0 0 0 0 0 0 0 0 0 0 0 0 0 0 0 0 0 0 0 0 0 0 0 0 0 0 0 0 0 0 0 0 0 0 0 0 0 0 0 0 0 0 0 0 0 0 0 0 0 0 0 0 0 0 0 0 0 0 0 0 0 0 0 0 0 0 0 0 0 0
		0 0 0 0 0 0 0 0 0 0 0 0 0 0 0 0 0 0 0 0 0 0 0 0 0 0 0 0 0 0 0 0 0 0 0 0 0 0 0 0 0 0 0 0 0 0 0 0 0 0 0 0 0 0 0 0 0 0 0 0 0 0 0 0 0 0 0 0 0 0 0 0 0 0 0 0 0 0 0 0 0 0 0 0 0 0 0 0 0 0 0 0 0 0 0 0 0 0 0 0 0 0 0 0 0 0 0 0 0 0 0 0 0 0 0 0 0 0 0 0 0 0 0 0 0 0 0 0 0 0 0 0 0 0 0 0 0 0 0 0 0 0 0 0 0 0 0 0 0 0 0 0 0 0 0 0 0 0 0 0 0 0 0 0 0 0 0 0 0 0 0 0 0 0 0 0 0 0 0 0 0 0 0 0 0 0 0 0 0 0 0 0 0 0 0 0 0 0 0 0 0 0 0 0 0 0 0 0 0 0 0 0 0 0 0 0 0 0 0 0 0 0 0 0 0 0 0 0 0 0 0 0 0 0 0 0 0 0 0 0 0 0 0 0 0 0 0 0 0 0 0 0 0 0 0 0 0 0 0 0 0 0 0 0 0 0 0 0 0 0 0 0 0 0 0 0 0 0 0 0 0 0 0 0 0 0 0 0 0 0 0 0 0 0 0 0 0 0 0 0 0 0 0 0 0 0 0 0 0 0 0 0 0 0 0 0 0 0 0 0 0 0 0 0 0 0 0 0 0 0 0 0 0 0 0 0 0 0 0 0 0 0 0 0 0 0 0 0 0 0 0 0 0 0 0 0 0 0 0 0 0 0 0 0 0 0 0 0 0 0 0 0 0 0 0 0 0 0 0 0 0 0 0 0 0 0 0 0 0 0 0 0 0 0 0 0 0 0 0 0 0 0 0 0 0 0 0 0 0 0 0 0 0 0 0 0 0 0 0 0 0 0 0 0 0 0 0 0 0 0 0 0 0 0 0 0 0 0 0 0 0 0 0 0 0 0 0 0 0 0 0 0 0 0 0 0 0 0 0 0 0 0 0 0 0 0 0 0 0 0 0
		0 0 0 0 0 0 0 0 0 0 0 0 0 0 0 0 0 0 0 0 0 0 0 0 0 0 0 0 0 0 0 0 0 0 0 0 0 0 0 0 0 0 0 0 0 0 0 0 0 0 0 0 0 0 0 0 0 0 0 0 0 0 0 0 0 0 0 0 0 0 0 0 0 0 0 0 0 0 0 0 0 0 0 0 0 0 0 0 0 0 0 0 0 0 0 0 0 0 0 0 0 0 0 0 0 0 0 0 0 0 0 0 0 0 0 0 0 0 0 0 0 0 0 0 0 0 0 0 0 0 0 0 0 0 0 0 0 0 0 0 0 0 0 0 0 0 0 0 0 0 0 0 0 0 0 0 0 0 0 0 0 0 0 0 0 0 0 0 0 0 0 0 0 0 0 0 0 0 0 0 0 0 0 0 0 0 0 0 0 0 0 0 0 0 0 0 0 0 0 0 0 0 0 0 0 0 0 0 0 0 0 0 0 0 0 0 0 0 0 0 0 0 0 0 0 0 0 0 0 0 0 0 0 0 0 0 0 0 0 0 0 0 0 0 0 0 0 0 0 0 0 0 0 0 0 0 0 0 0 0 0 0 0 0 0 0 0 0 0 0 0 0 0 0 0 0 0 0 0 0 0 0 0 0 0 0 0 0 0 0 0 0 0 0 0 0 0 0 0 0 0 0 0 0 0 0 0 0 0 0 0 0 0 0 0 0 0 0 0 0 0 0 0 0 0 0 0 0 0 0 0 0 0 0 0 0 0 0 0 0 0 0 0 0 0 0 0 0 0 0 0 0 0 0 0 0 0 0 0 0 0 0 0 0 0 0 0 0 0 0 0 0 0 0 0 0 0 0 0 0 0 0 0 0 0 0 0 0 0 0 0 0 0 0 0 0 0 0 0 0 0 0 0 0 0 0 0 0 0 0 0 0 0 0 0 0 0 0 0 0 0 0 0 0 0 0 0 0 0 0 0 0 0 0 0 0 0 0 0 0 0 0 0 0 0 0 0 0 0 0 0 0 0 0 0 0 0 0 0 0 0 0 0 0 0 0 0 0 0 0 0
		0.00218818 0.00218818 0.00218818 0.00218818 0.00218818 0.00218818 0.00218818 0.00218818 0.00218818 0.00218818 0.00218818 0.00218818 0.00218818 0.00218818 0 0.00218818 0.00218818 0.00218818 0.00218818 0.00218818 0.00218818 0.00218818 0.00218818 0.00218818 0.00218818 0.00218818 0 0.00218818 0.00218818 0.00218818 0.00218818 0.00218818 0.00218818 0.00218818 0.00218818 0.00218818 0.00218818 0.00218818 0.00218818 0.00218818 0.00218818 0.00218818 0.00218818 0.00218818 0.00218818 0.00218818 0.00218818 0.00218818 0.00218818 0.00218818 0.00218818 0.00218818 0.00218818 0.00218818 0.00218818 0.00218818 0.00218818 0.00218818 0 0.00218818 0.00218818 0.00218818 0.00218818 0.00218818 0.00218818 0.00218818 0.00218818 0.00218818 0.00218818 0.00218818 0.00218818 0.00218818 0 0.00218818 0.00218818 0.00218818 0.00218818 0.00218818 0.00218818 0.00218818 0.00218818 0.00218818 0.00218818 0.00218818 0.00218818 0.00218818 0 0.00218818 0.00218818 0.00218818 0.00218818 0.00218818 0.00218818 0.00218818 0.00218818 0.00218818 0.00218818 0.00218818 0.00218818 0.00218818 0.00218818 0.00218818 0.00218818 0.00218818 0.00218818 0.00218818 0.00218818 0.00218818 0.00218818 0.00218818 0.00218818 0.00218818 0.00218818 0.00218818 0.00218818 0.00218818 0.00218818 0.00218818 0.00218818 0.00218818 0.00218818 0.00218818 0.00218818 0.00218818 0.00218818 0.00218818 0.00218818 0.00218818 0.00218818 0.00218818 0.00218818 0.00218818 0.00218818 0.00218818 0.00218818 0.00218818 0.00218818 0.00218818 0.00218818 0.00218818 0.00218818 0.00218818 0.00218818 0.00218818 0.00218818 0.00218818 0.00218818 0.00218818 0.00218818 0.00218818 0.00218818 0.00218818 0.00218818 0.00218818 0.00218818 0.00218818 0.00218818 0.00218818 0.00218818 0.00218818 0.00218818 0.00218818 0.00218818 0.00218818 0.00218818 0.00218818 0.00218818 0.00218818 0.00218818 0.00218818 0.00218818 0.00218818 0.00218818 0.00218818 0.00218818 0.00218818 0.00218818 0.00218818 0.00218818 0.00218818 0.00218818 0.00218818 0.00218818 0.00218818 0.00218818 0.00218818 0.00218818 0.00218818 0.00218818 0.00218818 0.00218818 0.00218818 0.00218818 0.00218818 0.00218818 0.00218818 0.00218818 0.00218818 0.00218818 0.00218818 0.00218818 0.00218818 0.00218818 0.00218818 0.00437637 0.00218818 0.00218818 0.00218818 0.00218818 0.00218818 0.00218818 0.00218818 0.00218818 0.00218818 0 0.00218818 0.00218818 0.00218818 0.00218818 0.00218818 0.00218818 0.00218818 0.00218818 0.00218818 0.00218818 0.00218818 0.00218818 0.00218818 0.00218818 0.00218818 0.00218818 0.00218818 0.00218818 0.00218818 0.00218818 0.00218818 0.00218818 0.00218818 0.00218818 0.00218818 0.00218818 0.00218818 0.00218818 0.00218818 0.00218818 0.00218818 0.00218818 0.00218818 0.00218818 0.00218818 0.00218818 0.00218818 0.00218818 0 0.00218818 0.00218818 0.00218818 0.00218818 0.00218818 0.00218818 0.00218818 0.00218818 0.00218818 0.00218818 0.00218818 0 0.00218818 0.00218818 0.00218818 0.00218818 0.00218818 0.00218818 0.00218818 0.00218818 0.00218818 0.00218818 0.00218818 0.00218818 0.00218818 0.00218818 0.00218818 0.00218818 0.00218818 0.00218818 0.00218818 0.00218818 0.00218818 0.00218818 0.00218818 0.00218818 0.00218818 0.00218818 0.00218818 0.00218818 0.00218818 0.00218818 0.00218818 0.00218818 0.00218818 0.00218818 0.00218818 0.00218818 0.00218818 0.00218818 0.00218818 0.00218818 0.00218818 0.00218818 0.00218818 0.00218818 0.00218818 0.00218818 0.00218818 0.00218818 0.00218818 0.00218818 0.00218818 0.00218818 0.00218818 0.00218818 0.00218818 0.00218818 0.00218818 0.00218818 0.00218818 0.00218818 0.00218818 0.00218818 0 0.00218818 0.00218818 0.00218818 0.00218818 0.00218818 0.00218818 0 0 0.00218818 0.00218818 0.00218818 0.00218818 0.00218818 0.00218818 0.00218818 0.00437637 0.00218818 0.00218818 0.00218818 0.00218818 0.00218818 0.00218818 0.00218818 0.00218818 0.00218818 0.00218818 0.00218818 0.00218818 0.00218818 0.00218818 0.00218818 0.00218818 0.00218818 0.00218818 0.00218818 0.00218818 0.00218818 0.00218818 0.00218818 0.00218818 0.00218818 0.00218818 0.00218818 0.00218818 0.00218818 0.00218818 0.00218818 0.00218818 0.00218818 0.00218818 0.00218818 0.00218818 0.00218818 0.00218818 0.00218818 0.00218818 0.00218818 0.00218818 0.00218818 0.00218818 0.00218818 0.00218818 0.00218818 0.00218818 0.00218818 0.00218818 0.00218818 0.00218818 0.00218818 0.00218818 0.00218818 0.00218818 0.00218818 0.00218818 0.00218818 0.00218818 0.00218818 0.00218818 0.00218818 0.00218818 0.00218818 0.00218818 0.00218818 0.00218818 0.00218818 0.00218818 0.00218818 0.00218818 0.00218818 0.00218818 0.00218818 0.00218818 0.00218818 0.00218818 0.00218818 0.00218818 0.00218818 0.00218818 0.00218818 0.00218818 0.00218818 0.00218818 0.00218818 0.00218818 0.00218818 0.00218818 0.00218818 0.00218818 0.00218818 0.00218818 0.00218818 0.00218818 0.00218818 0.00218818 0.00218818 0.00218818 0.00218818 0.00218818 0.00218818 0.00218818 0.00218818 0.00218818 0.00218818 0.00218818 0 0 0 0.00218818 0.00218818 0.00218818 0 0.00437637 0.00218818 0 0 0.00218818 0.00218818 0.00218818 0.00218818 0.00218818 0.00218818 0.00218818
		0 0 0 0 0 0 0 0 0 0 0 0 0 0 0 0 0 0 0 0 0 0 0 0 0 0 0 0 0 0 0 0 0 0 0 0 0 0 0 0 0 0 0 0 0 0 0 0 0 0 0 0 0 0 0 0 0 0 0 0 0 0 0 0 0 0 0 0 0 0 0 0 0 0 0 0 0 0 0 0 0 0 0 0 0 0 0 0 0 0 0 0 0 0 0 0 0 0 0 0 0 0 0 0 0 0 0 0 0 0 0 0 0 0 0 0 0 0 0 0 0 0 0 0 0 0 0 0 0 0 0 0 0 0 0 0 0 0 0 0 0 0 0 0 0 0 0 0 0 0 0 0 0 0 0 0 0 0 0 0 0 0 0 0 0 0 0 0 0 0 0 0 0 0 0 0 0 0 0 0 0 0 0 0 0 0 0 0 0 0 0 0 0 0 0 0 0 0 0 0 0 0 0 0 0 0 0 0 0 0 0 0 0 0 0 0 0 0 0 0 0 0 0 0 0 0 0 0 0 0 0 0 0 0 0 0 0 0 0 0 0 0 0 0 0 0 0 0 0 0 0 0 0 0 0 0 0 0 0 0 0 0 0 0 0 0 0 0 0 0 0 0 0 0 0 0 0 0 0 0 0 0 0 0 0 0 0 0 0 0 0 0 0 0 0 0 0 0 0 0 0 0 0 0 0 0 0 0 0 0 0 0 0 0 0 0 0 0 0 0 0 0 0 0 0 0 0 0 0 0 0 0 0 0 0 0 0 0 0 0 0 0 0 0 0 0 0 0 0 0 0 0 0 0 0 0 0 0 0 0 0 0 0 0 0 0 0 0 0 0 0 0 0 0 0 0 0 0 0 0 0 0 0 0 0 0 0 0 0 0 0 0 0 0 0 0 0 0 0 0 0 0 0 0 0 0 0 0 0 0 0 0 0 0 0 0 0 0 0 0 0 0 0 0 0 0 0 0 0 0 0 0 0 0 0 0 0 0 0 0 0 0 0 0 0 0 0 0 0 0 0 0 0 0.997965 0.00203522 0 0 0 0 0 0 0 0 0 0 0 0 0 0 0 0
		0 0 0 0 0 0 0 0 0 0 0 0 0 0 0 0 0 0 0 0 0 0 0 0 0 0 0 0 0 0 0 0 0 0 0 0 0 0 0 0 0 0 0 0 0 0 0 0 0 0 0 0 0 0 0 0 0 0 0 0 0 0 0 0 0 0 0 0 0 0 0 0 0 0 0 0 0 0 0 0 0 0 0 0 0 0 0 0 0 0 0 0 0 0 0 0 0 0 0 0 0 0 0 0 0 0 0 0 0 0 0 0 0 0 0 0 0 0 0 0 0 0 0 0 0 0 0 0 0 0 0 0 0 0 0 0 0 0 0 0 0 0 0 0 0 0 0 0 0 0 0 0 0 0 0 0 0 0 0 0 0 0 0 0 0 0 0 0 0 0 0 0 0 0 0 0 0 0 0 0 0 0 0 0 0 0 0 0 0 0 0 0 0 0 0 0 0 0 0 0 0 0 0 0 0 0 0 0 0 0 0 0 0 0 0 0 0 0 0 0 0 0 0 0 0 0 0 0 0 0 0 0 0 0 0 0 0 0 0 0 0 0 0 0 0 0 0 0 0 0 0 0 0 0 0 0 0 0 0 0 0 0 0 0 0 0 0 0 0 0 0 0 0 0 0 0 0 0 0 0 0 0 0 0 0 0 0 0 0 0 0 0 0 0 0 0 0 0 0 0 0 0 0 0 0 0 0 0 0 0 0 0 0 0 0 0 0 0 0 0 0 0 0 0 0 0 0 0 0 0 0 0 0 0 0 0 0 0 0 0 0 0 0 0 0 0 0 0 0 0 0 0 0 0 0 0 0 0 0 0 0 0 0 0 0 0 0 0 0 0 0 0 0 0 0 0 0 0 0 0 0 0 0 0 0 0 0 0 0 0 0 0 0 0 0 0 0 0 0 0 0 0 0 0 0 0 0 0 0 0 0 0 0 0 0 0 0 0 0 0 0 0 0 0 0 0 0 0 0 0 0 0 0 0 0 0 0 0 0 0 0 0 0 0 0 0 0 0 0 0 0 0 0 1 0 0 0 0 0 0 0 0 0 0 0 0 0 0 0 0 0
		0 0 0 0 0 0 0 0 0 0 0 0 0 0 0 0 0 0 0 0 0 0 0 0 0 0 0 0 0 0 0 0 0 0 0 0 0 0 0 0 0 0 0 0 0 0 0 0 0 0 0 0 0 0 0 0 0 0 0 0 0 0 0 0 0 0 0 0 0 0 0 0 0 0 0 0 0 0 0 0 0 0 0 0 0 0 0 0 0 0 0 0 0 0 0 0 0 0 0 0 0 0 0 0 0 0 0 0 0 0 0 0 0 0 0 0 0 0 0 0 0 0 0 0 0 0 0 0 0 0 0 0 0 0 0 0 0 0 0 0 0 0 0 0 0 0 0 0 0 0 0 0 0 0 0 0 0 0 0 0 0 0 0 0 0 0 0 0 0 0 0 0 0 0 0 0 0 0 0 0 0 0 0 0 0 0 0 0 0 0 0 0 0 0 0 0 0 0 0 0 0 0 0 0 0 0 0 0 0 0 0 0 0 0 0 0 0 0 0 0 0 0 0 0 0 0 0 0 0 0 0 0 0 0 0 0 0 0 0 0 0 0 0 0 0 0 0 0 0 0 0 0 0 0 0 0 0 0 0 0 0 0 0 0 0 0 0 0 0 0 0 0 0 0 0 0 0 0 0 0 0 0 0 0 0 0 0 0 0 0 0 0 0 0 0 0 0 0 0 0 0 0 0 0 0 0 0 0 0 0 0 0 0 0 0 0 0 0 0 0 0 0 0 0 0 0 0 0 0 0 0 0 0 0 0 0 0 0 0 0 0 0 0 0 0 0 0 0 0 0 0 0 0 0 0 0 0 0 0 0 0 0 0 0 0 0 0 0 0 0 0 0 0 0 0 0 0 0 0 0 0 0 0 0 0 0 0 0 0 0 0 0 0 0 0 0 0 0 0 0 0 0 0 0 0 0 0 0 0 0 0 0 0 0 0 0 0 0 0 0 0 0 0 0 0 0 0 0 0 0 0 0 0 0 0 0 0 0 0 0 0 0 0 0 0 0 0 0 0 0 0 0 0 0 0 0 0 0 0 0 0 0 0 0 0 0 0 0 0 0 0
		0 0 0 0 0 0 0 0 0 0 0 0 0 0 0 0 0 0 0 0 0 0 0 0 0 0 0 0 0 0 0 0 0 0 0 0 0 0 0 0 0 0 0 0 0 0 0 0 0 0 0 0 0 0 0 0 0 0 0 0 0 0 0 0 0 0 0 0 0 0 0 0 0 0 0 0 0 0 0 0 0 0 0 0 0 0 0 0 0 0 0 0 0 0 0 0 0 0 0 0 0 0 0 0 0 0 0 0 0 0 0 0 0 0 0 0 0 0 0 0 0 0 0 0 0 0 0 0 0 0 0 0 0 0 0 0 0 0 0 0 0 0 0 0 0 0 0 0 0 0 0 0 0 0 0 0 0 0 0 0 0 0 0 0 0 0 0 0 0 0 0 0 0 0 0 0 0 0 0 0 0 0 0 0 0 0 0 0 0 0 0 0 0 0 0 0 0 0 0 0 0 0 0 0 0 0 0 0 0 0 0 0 0 0 0 0 0 0 0 0 0 0 0 0 0 0 0 0 0 0 0 0 0 0 0 0 0 0 0 0 0 0 0 0 0 0 0 0 0 0 0 0 0 0 0 0 0 0 0 0 0 0 0 0 0 0 0 0 0 0 0 0 0 0 0 0 0 0 0 0 0 0 0 0 0 0 0 0 0 0 0 0 0 0 0 0 0 0 0 0 0 0 0 0 0 0 0 0 0 0 0 0 0 0 0 0 0 0 0 0 0 0 0 0 0 0 0 0 0 0 0 0 0 0 0 0 0 0 0 0 0 0 0 0 0 0 0 0 0 0 0 0 0 0 0 0 0 0 0 0 0 0 0 0 0 0 0 0 0 0 0 0 0 0 0 0 0 0 0 0 0 0 0 0 0 0 0 0 0 0 0 0 0 0 0 0 0 0 0 0 0 0 0 0 0 0 0 0 0 0 0 0 0 0 0 0 0 0 0 0 0 0 0 0 0 0 0 0 0 0 0 0 0 0 0 0 0 0 0 0 0 0 0 0 0 0 0 0 0 0 0 0 0 0 0 0 0 0 0 0 0 0 0 0 0 0 0 0 0 0 0
		0 0 0 0 0 0 0 0 0 0 0 0 0 0 0 0 0 0 0 0 0 0 0 0 0 0 0 0 0 0 0 0 0 0 0 0 0 0 0 0 0 0 0 0 0 0 0 0 0 0 0 0 0 0 0 0 0 0 0 0 0 0 0 0 0 0 0 0 0 0 0 0 0 0 0 0 0 0 0 0 0 0 0 0 0 0 0 0 0 0 0 0 0 0 0 0 0 0 0 0 0 0 0 0 0 0 0 0 0 0 0 0 0 0 0 0 0 0 0 0 0 0 0 0 0 0 0 0 0 0 0 0 0 0 0 0 0 0 0 0 0 0 0 0 0 0 0 0 0 0 0 0 0 0 0 0 0 0 0 0 0 0 0 0 0 0 0 0 0 0 0 0 0 0 0 0 0 0 0 0 0 0 0 0 0 0 0 0 0 0 0 0 0 0 0 0 0 0 0 0 0 0 0 0 0 0 0 0 0 0 0 0 0 0 0 0 0 0 0 0 0 0 0 0 0 0 0 0 0 0 0 0 0 0 0 0 0 0 0 0 0 0 0 0 0 0 0 0 0 0 0 0 0 0 0 0 0 0 0 0 0 0 0 0 0 0 0 0 0 0 0 0 0 0 0 0 0 0 0 0 0 0 0 0 0 0 0 0 0 0 0 0 0 0 0 0 0 0 0 0 0 0 0 0 0 0 0 0 0 0 0 0 0 0 0 0 0 0 0 0 0 0 0 0 0 0 0 0 0 0 0 0 0 0 0 0 0 0 0 0 0 0 0 0 0 0 0 0 0 0 0 0 0 0 0 0 0 0 0 0 0 0 0 0 0 0 0 0 0 0 0 0 0 0 0 0 0 0 0 0 0 0 0 0 0 0 0 0 0 0 0 0 0 0 0 0 0 0 0 0 0 0 0 0 0 0 0 0 0 0 0 0 0 0 0 0 0 0 0 0 0 0 0 0 0 0 0 0 0 0 0 0 0 0 0 0 0 0 0 0 0 0 0 0 0 0 0 0 0 0 0 0 0 0 0 0 0 0 0 1 0 0 0 0 0 0 0 0 0 0 0
		0 0 0 0 0 0 0 0 0 0 0 0 0 0 0 0 0 0 0 0 0 0 0 0 0 0 0 0 0 0 0 0 0 0 0 0 0 0 0 0 0 0 0 0 0 0 0 0 0 0 0 0 0 0 0 0 0 0 0 0 0 0 0 0 0 0 0 0 0 0 0 0 0 0 0 0 0 0 0 0 0 0 0 0 0 0 0 0 0 0 0 0 0 0 0 0 0 0 0 0 0 0 0 0 0 0 0 0 0 0 0 0 0 0 0 0 0 0 0 0 0 0 0 0 0 0 0 0 0 0 0 0 0 0 0 0 0 0 0 0 0 0 0 0 0 0 0 0 0 0 0 0 0 0 0 0 0 0 0 0 0 0 0 0 0 0 0 0 0 0 0 0 0 0 0 0 0 0 0 0 0 0 0 0 0 0 0 0 0 0 0 0 0 0 0 0 0 0 0 0 0 0 0 0 0 0 0 0 0 0 0 0 0 0 0 0 0 0 0 0 0 0 0 0 0 0 0 0 0 0 0 0 0 0 0 0 0 0 0 0 0 0 0 0 0 0 0 0 0 0 0 0 0 0 0 0 0 0 0 0 0 0 0 0 0 0 0 0 0 0 0 0 0 0 0 0 0 0 0 0 0 0 0 0 0 0 0 0 0 0 0 0 0 0 0 0 0 0 0 0 0 0 0 0 0 0 0 0 0 0 0 0 0 0 0 0 0 0 0 0 0 0 0 0 0 0 0 0 0 0 0 0 0 0 0 0 0 0 0 0 0 0 0 0 0 0 0 0 0 0 0 0 0 0 0 0 0 0 0 0 0 0 0 0 0 0 0 0 0 0 0 0 0 0 0 0 0 0 0 0 0 0 0 0 0 0 0 0 0 0 0 0 0 0 0 0 0 0 0 0 0 0 0 0 0 0 0 0 0 0 0 0 0 0 0 0 0 0 0 0 0 0 0 0 0 0 0 0 0 0 0 0 0 0 0 0 0 0 0 0 0 0 0 0 0 0 0 0 0 0 0 0 0 0 0 0 0 0 0 0 0 0 0 0 0 0 0 0 0 0 0
		0 0 0 0 0 0 0 0 0 0 0 0 0 0 0 0 0 0 0 0 0 0 0 0 0 0 0 0 0 0 0 0 0 0 0 0 0 0 0 0 0 0 0 0 0 0 0 0 0 0 0 0 0 0 0 0 0 0 0 0 0 0 0 0 0 0 0 0 0 0 0 0 0 0 0 0 0 0 0 0 0 0 0 0 0 0 0 0 0 0 0 0 0 0 0 0 0 0 0 0 0 0 0 0 0 0 0 0 0 0 0 0 0 0 0 0 0 0 0 0 0 0 0 0 0 0 0 0 0 0 0 0 0 0 0 0 0 0 0 0 0 0 0 0 0 0 0 0 0 0 0 0 0 0 0 0 0 0 0 0 0 0 0 0 0 0 0 0 0 0 0 0 0 0 0 0 0 0 0 0 0 0 0 0 0 0 0 0 0 0 0 0 0 0 0 0 0 0 0 0 0 0 0 0 0 0 0 0 0 0 0 0 0 0 0 0 0 0 0 0 0 0 0 0 0 0 0 0 0 0 0 0 0 0 0 0 0 0 0 0 0 0 0 0 0 0 0 0 0 0 0 0 0 0 0 0 0 0 0 0 0 0 0 0 0 0 0 0 0 0 0 0 0 0 0 0 0 0 0 0 0 0 0 0 0 0 0 0 0 0 0 0 0 0 0 0 0 0 0 0 0 0 0 0 0 0 0 0 0 0 0 0 0 0 0 0 0 0 0 0 0 0 0 0 0 0 0 0 0 0 0 0 0 0 0 0 0 0 0 0 0 0 0 0 0 0 0 0 0 0 0 0 0 0 0 0 0 0 0 0 0 0 0 0 0 0 0 0 0 0 0 0 0 0 0 0 0 0 0 0 0 0 0 0 0 0 0 0 0 0 0 0 0 0 0 0 0 0 0 0 0 0 0 0 0 0 0 0 0 0 0 0 0 0 0 0 0 0 0 0 0 0 0 0 0 0 0 0 0 0 0 0 0 0 0 0 0 0 0 0 0 0 0 0 0 0 0 0 0 0 0 0 0 0 0 0 0 0 0 0 0 0 0 0 0 0 0 0 0 0 0
		0 0 0 0 0 0 0 0 0 0 0 0 0 0 0 0 0 0 0 0 0 0 0 0 0 0 0 0 0 0 0 0 0 0 0 0 0 0 0 0 0 0 0 0 0 0 0 0 0 0 0 0 0 0 0 0 0 0 0 0 0 0 0 0 0 0 0 0 0 0 0 0 0 0 0 0 0 0 0 0 0 0 0 0 0 0 0 0 0 0 0 0 0 0 0 0 0 0 0 0 0 0 0 0 0 0 0 0 0 0 0 0 0 0 0 0 0 0 0 0 0 0 0 0 0 0 0 0 0 0 0 0 0 0 0 0 0 0 0 0 0 0 0 0 0 0 0 0 0 0 0 0 0 0 0 0 0 0 0 0 0 0 0 0 0 0 0 0 0 0 0 0 0 0 0 0 0 0 0 0 0 0 0 0 0 0 0 0 0 0 0 0 0 0 0 0 0 0 0 0 0 0 0 0 0 0 0 0 0 0 0 0 0 0 1 0 0 0 0 0 0 0 0 0 0 0 0 0 0 0 0 0 0 0 0 0 0 0 0 0 0 0 0 0 0 0 0 0 0 0 0 0 0 0 0 0 0 0 0 0 0 0 0 0 0 0 0 0 0 0 0 0 0 0 0 0 0 0 0 0 0 0 0 0 0 0 0 0 0 0 0 0 0 0 0 0 0 0 0 0 0 0 0 0 0 0 0 0 0 0 0 0 0 0 0 0 0 0 0 0 0 0 0 0 0 0 0 0 0 0 0 0 0 0 0 0 0 0 0 0 0 0 0 0 0 0 0 0 0 0 0 0 0 0 0 0 0 0 0 0 0 0 0 0 0 0 0 0 0 0 0 0 0 0 0 0 0 0 0 0 0 0 0 0 0 0 0 0 0 0 0 0 0 0 0 0 0 0 0 0 0 0 0 0 0 0 0 0 0 0 0 0 0 0 0 0 0 0 0 0 0 0 0 0 0 0 0 0 0 0 0 0 0 0 0 0 0 0 0 0 0 0 0 0 0 0 0 0 0 0 0 0 0 0 0 0 0 0 0 0 0 0 0 0 0 0 0 0 0 0 0
		0 0 0 0 0 0 0 0 0 0 0 0 0 0 0 0 0 0 0 0 0 0 0 0 0 0 0 0 0 0 0 0 0 0 0 0 0 0 0 0 0 0 0 0 0 0 0 0 0 0 0 0 0 0 0 0 0 0 0 0 0 0 0 0 0 0 0 0 0 0 0 0 0 0 0 0 0 0 0 0 0 0 0 0 0 0 0 0 0 0 0 0 0 0 0 0 0 0 0 0 0 0 0 0 0 0 0 0 0 0 0 0 0 0 0 0 0 0 0 0 0 0 0 0 0 0 0 0 0 0 0 0 0 0 0 0 0 0 0 0 0 0 0 0 0 0 0 0 0 0 0 0 0 0 0 0 0 0 0 0 0 0 0 0 0 0 0 0 0 0 0 0 0 0 0 0 0 0 0 0 0 0 0 0 0 0 0 0 0 0 0 0 0 0 0 0 0 0 0 0 0 0 0 0 0 0 0 0 0 0 0 0 0 0 0 0 0 0 0 0 0 0 0 0 0 0 0 0 0 0 0 0 0 0 0 0 0 0 0 0 0 0 0 0 0 0 0 0 0 0 0 0 0 0 0 0 0 0 0 0 0 0 0 0 0 0 0 0 0 0 0 0 0 0 0 0 0 0 0 0 0 0 0 0 0 0 0 0 0 0 0 0 0 0 0 0 0 0 0 0 0 0 0 0 0 0 0 0 0 0 0 0 0 0 0 0 0 0 0 0 0 0 0 0 0 0 0 0 0 0 0 0 0 0 0 0 0 0 0 0 0 0 0 0 0 0 0 0 0 0 0 0 0 0 0 0 0 0 0 0 0 0 0 0 0 0 0 0 0 0 0 0 0 0 0 0 0 0 0 0 0 0 0 0 0 0 0 0 0 0 0 0 0 0 0 0 0 0 0 0 0 0 0 0 0 0 0 0 0 0 0 0 0 0 0 0 0 0 0 0 0 0 0 0 0 0 0 0 0 0 0 0 0 0 0 0 0 0 0 0 0 0 0 0 0 0 0 0 0 0 0 0 0 0 0 0 0 0 0 0 0 0 0 0 0 0 0 0 0 0 0
		0 0 0 0 0 0 0 0 0 0 0 0 0 0 1 0 0 0 0 0 0 0 0 0 0 0 0 0 0 0 0 0 0 0 0 0 0 0 0 0 0 0 0 0 0 0 0 0 0 0 0 0 0 0 0 0 0 0 0 0 0 0 0 0 0 0 0 0 0 0 0 0 0 0 0 0 0 0 0 0 0 0 0 0 0 0 0 0 0 0 0 0 0 0 0 0 0 0 0 0 0 0 0 0 0 0 0 0 0 0 0 0 0 0 0 0 0 0 0 0 0 0 0 0 0 0 0 0 0 0 0 0 0 0 0 0 0 0 0 0 0 0 0 0 0 0 0 0 0 0 0 0 0 0 0 0 0 0 0 0 0 0 0 0 0 0 0 0 0 0 0 0 0 0 0 0 0 0 0 0 0 0 0 0 0 0 0 0 0 0 0 0 0 0 0 0 0 0 0 0 0 0 0 0 0 0 0 0 0 0 0 0 0 0 0 0 0 0 0 0 0 0 0 0 0 0 0 0 0 0 0 0 0 0 0 0 0 0 0 0 0 0 0 0 0 0 0 0 0 0 0 0 0 0 0 0 0 0 0 0 0 0 0 0 0 0 0 0 0 0 0 0 0 0 0 0 0 0 0 0 0 0 0 0 0 0 0 0 0 0 0 0 0 0 0 0 0 0 0 0 0 0 0 0 0 0 0 0 0 0 0 0 0 0 0 0 0 0 0 0 0 0 0 0 0 0 0 0 0 0 0 0 0 0 0 0 0 0 0 0 0 0 0 0 0 0 0 0 0 0 0 0 0 0 0 0 0 0 0 0 0 0 0 0 0 0 0 0 0 0 0 0 0 0 0 0 0 0 0 0 0 0 0 0 0 0 0 0 0 0 0 0 0 0 0 0 0 0 0 0 0 0 0 0 0 0 0 0 0 0 0 0 0 0 0 0 0 0 0 0 0 0 0 0 0 0 0 0 0 0 0 0 0 0 0 0 0 0 0 0 0 0 0 0 0 0 0 0 0 0 0 0 0 0 0 0 0 0 0 0 0 0 0 0 0 0 0 0 0 0 0
		0 0 0 0 0 0 0 0 0 0 0 0 0 0 1 0 0 0 0 0 0 0 0 0 0 0 0 0 0 0 0 0 0 0 0 0 0 0 0 0 0 0 0 0 0 0 0 0 0 0 0 0 0 0 0 0 0 0 0 0 0 0 0 0 0 0 0 0 0 0 0 0 0 0 0 0 0 0 0 0 0 0 0 0 0 0 0 0 0 0 0 0 0 0 0 0 0 0 0 0 0 0 0 0 0 0 0 0 0 0 0 0 0 0 0 0 0 0 0 0 0 0 0 0 0 0 0 0 0 0 0 0 0 0 0 0 0 0 0 0 0 0 0 0 0 0 0 0 0 0 0 0 0 0 0 0 0 0 0 0 0 0 0 0 0 0 0 0 0 0 0 0 0 0 0 0 0 0 0 0 0 0 0 0 0 0 0 0 0 0 0 0 0 0 0 0 0 0 0 0 0 0 0 0 0 0 0 0 0 0 0 0 0 0 0 0 0 0 0 0 0 0 0 0 0 0 0 0 0 0 0 0 0 0 0 0 0 0 0 0 0 0 0 0 0 0 0 0 0 0 0 0 0 0 0 0 0 0 0 0 0 0 0 0 0 0 0 0 0 0 0 0 0 0 0 0 0 0 0 0 0 0 0 0 0 0 0 0 0 0 0 0 0 0 0 0 0 0 0 0 0 0 0 0 0 0 0 0 0 0 0 0 0 0 0 0 0 0 0 0 0 0 0 0 0 0 0 0 0 0 0 0 0 0 0 0 0 0 0 0 0 0 0 0 0 0 0 0 0 0 0 0 0 0 0 0 0 0 0 0 0 0 0 0 0 0 0 0 0 0 0 0 0 0 0 0 0 0 0 0 0 0 0 0 0 0 0 0 0 0 0 0 0 0 0 0 0 0 0 0 0 0 0 0 0 0 0 0 0 0 0 0 0 0 0 0 0 0 0 0 0 0 0 0 0 0 0 0 0 0 0 0 0 0 0 0 0 0 0 0 0 0 0 0 0 0 0 0 0 0 0 0 0 0 0 0 0 0 0 0 0 0 0 0 0 0 0 0 0 0 0
		0 0 0 0 0 0 0 0 0 0 0 0 0 0 0 0 0 0 0 0 0 0 0 0 0 0 0 0 0 0 0 0 0 0 0 0 0 0 0 0 0 0 0 0 0 0 0 0 0 0 0 0 0 0 0 0 0 0 0 0 0 0 0 0 0 0 0 0 0 0 0 0 0 0 0 0 0 0 0 0 0 0 0 0 0 0 0 0 0 0 0 0 0 0 0 0 0 0 0 0 0 0 0 0 0 0 0 0 0 0 0 0 0 0 0 0 0 0 0 0 0 0 0 0 0 0 0 0 0 0 0 0 0 0 0 0 0 0 0 0 0 0 0 0 0 0 0 0 0 0 0 0 0 0 0 0 0 0 0 0 0 0 0 0 0 0 0 0 0 0 0 0 0 0 0 0 0 0 0 0 0 0 0 0 0 0 0 0 0 0 0 0 0 0 0 0 0 0 0 0 0 0 0 0 0 0 0 0 0 0 0 0 0 0 0 0 0 0 0 0 0 0 0 0 0 0 0 0 0 0 0 0 0 0 0 0 0 0 0 0 0 0 0 0 0 0 0 0 0 0 0 0 0 0 0 0 0 0 0 0 0 0 0 0 0 0 0 0 0 0 0 0 0 0 0 0 0 0 0 0 0 0 0 0 0 0 0 0 0 0 0 0 0 0 0 0 0 0 0 0 0 0 0 0 0 0 0 0 0 0 0 0 0 0 0 0 0 0 0 0 0 0 0 0 0 0 0 0 0 0 0 0 0 0 0 0 0 0 0 0 0 0 0 0 0 0 0 0 0 0 0 0 0 0 0 0 0 0 0 0 0 0 0 0 0 0 0 0 0 0 0 0 0 0 0 0 0 0 0 0 0 0 0 0 0 0 0 0 0 0 0 0 0 0 0 0 0 0 0 0 0 0 0 0 0 0 0 0 0 0 0 0 0 0 0 0 0 0 0 0 0 0 0 0 0 0 0 0 0 0 0 0 0 0 0 0 0 0 0 0 0 0 0 0 0 0 0 0 0 0 0 0 0 0 0 0 0 0 0 0 0 0 0 0 0 0 0 0 0 0 0
		0 0 0 0 0 0 0 0 0 0 0 0 0 0 0 0 0 0 0 0 0 0 0 0 0 0 0 0 0 0 0 0 0 0 0 0 0 0 0 0 0 0 0 0 0 0 0 0 0 0 0 0 0 0 0 0 0 0 0 0 0 0 0 0 0 0 0 0 0 0 0 0 0 0 0 0 0 0 0 0 0 0 0 0 0 0 0 0 0 0 0 0 0 0 0 0 0 0 0 0 0 0 0 0 0 0 0 0 0 0 0 0 0 0 0 0 0 0 0 0 0 0 0 0 0 0 0 0 0 0 0 0 0 0 0 0 0 0 0 0 0 0 0 0 0 0 0 0 0 0 0 0 0 0 0 0 0 0 0 0 0 0 0 0 0 0 0 0 0 0 0 0 0 0 0 0 0 0 0 0 0 0 0 0 0 0 0 0 0 0 0 0 0 0 0 0 0 0 0 0 0 0 0 0 0 0 0 0 0 0 0 0 0 0 0 0 0 0 0 0 0 0 0 0 0 0 0 0 0 0 0 0 0 0 0 0 0 0 0 0 0 0 0 0 0 0 0 0 0 0 0 0 0 0 0 0 0 0 0 0 0 0 0 0 0 0 0 0 0 0 0 0 0 0 0 0 0 0 0 0 0 0 0 0 0 0 0 0 0 0 0 0 0 0 0 0 0 0 0 0 0 0 0 0 0 0 0 0 0 0 0 0 0 0 0 0 0 0 0 0 0 0 0 0 0 0 0 0 0 0 0 0 0 0 0 0 0 0 0 0 0 0 0 0 0 0 0 0 0 0 0 0 0 0 0 0 0 0 0 0 0 0 0 0 0 0 0 0 0 0 0 0 0 0 0 0 0 0 0 0 0 0 0 0 0 0 0 0 0 0 0 0 0 0 0 0 0 0 0 0 0 0 0 0 0 0 0 0 0 0 0 0 0 0 0 0 0 0 0 0 0 0 0 0 0 0 0 0 0 0 0 0 0 0 0 0 0 0 0 0 0 0 0 0 0 0 0 0 0 0 0 0 0 0 0 0 0 0 0 0 0 0 0 0 0 0 0 0 0 0 0
		0 0 0 0 0 0 0 0 0 0 0 0 0 0 0 0 0 0 0 0 0 0 0 0 0 0 0 0 0 0 0 0 0 0 0 0 0 0 0 0 0 0 0 0 0 0 0 0 0 0 0 0 0 0 0 0 0 0 0 0 0 0 0 0 0 0 0 0 0 0 0 0 0 0 0 0 0 0 0 0 0 0 0 0 0 0 0 0 0 0 0 0 0 0 0 0 0 0 0 0 0 0 0 0 0 0 0 0 0 0 0 0 0 0 0 0 0 0 0 0 0 0 0 0 0 0 0 0 0 0 0 0 0 0 0 0 0 0 0 0 0 0 0 0 0 0 0 0 0 0 0 0 0 0 0 0 0 0 0 0 0 0 0 0 0 0 0 0 0 0 0 0 0 0 0 0 0 0 0 0 0 0 0 0 0 0 0 0 0 0 0 0 0 0 0 0 0 0 0 0 0 0 0 0 0 0 0 0 0 0 0 0 0 0 0 0 0 0 0 0 0 0 0 0 0 0 0 0 0 0 0 0 0 0 0 0 0 0 0 0 0 0 0 0 0 0 0 0 0 0 0 0 0 0 0 0 0 0 0 0 0 0 0 0 0 0 0 0 0 0 0 0 0 0 0 0 0 0 0 0 0 0 0 0 0 0 0 0 0 0 0 0 0 0 0 0 0 0 0 0 0 0 0 0 0 0 0 0 0 0 0 0 0 0 0 0 0 0 0 0 0 0 0 0 0 0 0 0 0 0 0 0 0 0 0 0 0 0 0 0 0 0 0 0 0 0 0 0 0 0 0 0 0 0 0 0 0 0 0 0 0 0 0 0 0 0 0 0 0 0 0 0 0 0 0 0 0 0 0 0 0 0 0 0 0 0 0 0 0 0 0 0 0 0 0 0 0 0 0 0 0 0 0 0 0 0 0 0 0 0 0 0 0 0 0 0 0 0 0 0 0 0 0 0 0 0 0 0 0 0 0 0 0 0 0 0 0 0 0 0 0 0 0 0 0 0 0 0 0 0 0 0 0 0 0 0 0 0 0 0 0 0 0 0 0 0 0 0 0 0 0
		0 0 0 0 0 0 0 0 0 0 0 0 0 0 0 0 0 0 0 0 0 0 0 0 0 0 0 0 0 0 0 0 0 0 0 0 0 0 0 0 0 0 0 0 0 0 0 0 0 0 0 0 0 0 0 0 0 0 0 0 0 0 0 0 0 0 0 0 0 0 0 0 0 0 0 0 0 0 0 0 0 0 0 0 0 0 1 0 0 0 0 0 0 0 0 0 0 0 0 0 0 0 0 0 0 0 0 0 0 0 0 0 0 0 0 0 0 0 0 0 0 0 0 0 0 0 0 0 0 0 0 0 0 0 0 0 0 0 0 0 0 0 0 0 0 0 0 0 0 0 0 0 0 0 0 0 0 0 0 0 0 0 0 0 0 0 0 0 0 0 0 0 0 0 0 0 0 0 0 0 0 0 0 0 0 0 0 0 0 0 0 0 0 0 0 0 0 0 0 0 0 0 0 0 0 0 0 0 0 0 0 0 0 0 0 0 0 0 0 0 0 0 0 0 0 0 0 0 0 0 0 0 0 0 0 0 0 0 0 0 0 0 0 0 0 0 0 0 0 0 0 0 0 0 0 0 0 0 0 0 0 0 0 0 0 0 0 0 0 0 0 0 0 0 0 0 0 0 0 0 0 0 0 0 0 0 0 0 0 0 0 0 0 0 0 0 0 0 0 0 0 0 0 0 0 0 0 0 0 0 0 0 0 0 0 0 0 0 0 0 0 0 0 0 0 0 0 0 0 0 0 0 0 0 0 0 0 0 0 0 0 0 0 0 0 0 0 0 0 0 0 0 0 0 0 0 0 0 0 0 0 0 0 0 0 0 0 0 0 0 0 0 0 0 0 0 0 0 0 0 0 0 0 0 0 0 0 0 0 0 0 0 0 0 0 0 0 0 0 0 0 0 0 0 0 0 0 0 0 0 0 0 0 0 0 0 0 0 0 0 0 0 0 0 0 0 0 0 0 0 0 0 0 0 0 0 0 0 0 0 0 0 0 0 0 0 0 0 0 0 0 0 0 0 0 0 0 0 0 0 0 0 0 0 0 0 0 0 0 0 0
		0 0 0 0 0 0 0 0 0 0 0 0 0 0 0 0 0 0 0 0 0 0 0 0 0 0 0 0 0 0 0 0 0 0 0 0 0 0 0 0 0 0 0 0 0 0 0 0 0 0 0 0 0 0 0 0 0 0 3.45288e-05 0 0 0 0 0 0 0 0 0 0 0 0 0 0 0 0 0 0 0 0 0 0 0 0 0 0 0 0 0 0 0 0 0 0 0 0 0 0 0 0 0 0 0 0 0 0 0 0 0 0 0 0 0 0 0 0 0 0 0 0 0 0 0 0 0 0 0 0 0 0 0 0 0 0 0 0 0 0 0 0 0 0 0 0 0 0 0 0 0 0 0 0 0 0 0 0 0 0 0 0 0 0 0 0 0 0 0 0 0 0 0 0 0 0 0 0 0 0 0 0 0 0 0 0 0 0 0 0 0 0 0 0 0 0 0 0 0 0 0 0 0 0 0 0 0 0 0 0 0 0 0 0 0 0 0 0 0 0 0 0 0 0 0 0 0 0 0 0 0 0 0 0 0 0 0 0 0 0 0 0 0 0 0 0 0 0 0 0 0 0 0 0 0 0 0.995626 0 0 0 0 0 0 0 0 0 0 0 0.00422402 0 0 0 0 0 0 0 0 0 0 0 0 0 0 0 0 0 0 0 0 0 0 0 0 0 0 0 0 0 0 0 0 0 0 0 0 0 0 0 0 0 0 0 0 0 0 0 0 0 0 0 0 0 0 0 0 0 0 0 0 0 0 0 0 0 0 0 0 0 0 0 0 0 0 0 0 0 0 0 0 0 0 0 0 0 0 0 0 0 0 0 0 0 0 0 0 0 0 0 0 0 0 0 0 0 0 0 0 0 0 0 0 0 0 0 0 0 0 0 0 0 0 0 0 0 0 0 0 0 0 0 0 0 0 0 0 0 0 0 0 0 0 0 0 0 0 0 0 0 0 0 0 0 0 0 0 0 0 0 0 0 0 0 0 0 0 0 0 0 0 0 0 0 0 0 0 0 0 0 0 0 0 0 0 0 0 0 0 4.60384e-05 4.60384e-05 0 0 0 0 0 0 1.15096e-05 1.15096e-05 0 0 0 0 0 0 0
