<?xml version="1.0" ?>

<BIF VERSION="0.3">
<NETWORK>
<NAME>TCP model</NAME>
<PROPERTY>software aGrUM</PROPERTY>

<!-- Variables -->
<VARIABLE TYPE="nature">
	<NAME>Cat Out Packet</NAME>
	<PROPERTY>description = Cat Out Packet</PROPERTY>
	<PROPERTY>fast = Cat Out Packet{cluster-0|cluster-1|cluster-2|cluster-3}</PROPERTY>
<!--OUTCOME are not used in pyAgrum BIFXML (see fast property) but are kept for compatibility-->
	<OUTCOME>cluster-0</OUTCOME>
	<OUTCOME>cluster-1</OUTCOME>
	<OUTCOME>cluster-2</OUTCOME>
	<OUTCOME>cluster-3</OUTCOME>
</VARIABLE>

<VARIABLE TYPE="nature">
	<NAME>Cat In Packet</NAME>
	<PROPERTY>description = Cat In Packet</PROPERTY>
	<PROPERTY>fast = Cat In Packet{cluster-0|cluster-1|cluster-2|cluster-3|cluster-4}</PROPERTY>
<!--OUTCOME are not used in pyAgrum BIFXML (see fast property) but are kept for compatibility-->
	<OUTCOME>cluster-0</OUTCOME>
	<OUTCOME>cluster-1</OUTCOME>
	<OUTCOME>cluster-2</OUTCOME>
	<OUTCOME>cluster-3</OUTCOME>
	<OUTCOME>cluster-4</OUTCOME>
</VARIABLE>

<VARIABLE TYPE="nature">
	<NAME>Connection State</NAME>
	<PROPERTY>description = Connection State</PROPERTY>
	<PROPERTY>fast = Connection State{REJ|RST|S0|SF|SH}</PROPERTY>
<!--OUTCOME are not used in pyAgrum BIFXML (see fast property) but are kept for compatibility-->
	<OUTCOME>REJ</OUTCOME>
	<OUTCOME>RST</OUTCOME>
	<OUTCOME>S0</OUTCOME>
	<OUTCOME>SF</OUTCOME>
	<OUTCOME>SH</OUTCOME>
</VARIABLE>

<VARIABLE TYPE="nature">
	<NAME>Time</NAME>
	<PROPERTY>description = Time</PROPERTY>
	<PROPERTY>fast = Time{bin-047|bin-048|bin-049|bin-050|bin-051|bin-052|bin-053|bin-054|bin-055|bin-056|bin-057|bin-058|bin-059|bin-060|bin-061|bin-062|bin-063|bin-064|bin-065|bin-066|bin-067|bin-068|bin-069|bin-070|bin-071|bin-072|bin-073|bin-074|bin-075|bin-076|bin-077|bin-078|bin-079|bin-080}</PROPERTY>
<!--OUTCOME are not used in pyAgrum BIFXML (see fast property) but are kept for compatibility-->
	<OUTCOME>bin-047</OUTCOME>
	<OUTCOME>bin-048</OUTCOME>
	<OUTCOME>bin-049</OUTCOME>
	<OUTCOME>bin-050</OUTCOME>
	<OUTCOME>bin-051</OUTCOME>
	<OUTCOME>bin-052</OUTCOME>
	<OUTCOME>bin-053</OUTCOME>
	<OUTCOME>bin-054</OUTCOME>
	<OUTCOME>bin-055</OUTCOME>
	<OUTCOME>bin-056</OUTCOME>
	<OUTCOME>bin-057</OUTCOME>
	<OUTCOME>bin-058</OUTCOME>
	<OUTCOME>bin-059</OUTCOME>
	<OUTCOME>bin-060</OUTCOME>
	<OUTCOME>bin-061</OUTCOME>
	<OUTCOME>bin-062</OUTCOME>
	<OUTCOME>bin-063</OUTCOME>
	<OUTCOME>bin-064</OUTCOME>
	<OUTCOME>bin-065</OUTCOME>
	<OUTCOME>bin-066</OUTCOME>
	<OUTCOME>bin-067</OUTCOME>
	<OUTCOME>bin-068</OUTCOME>
	<OUTCOME>bin-069</OUTCOME>
	<OUTCOME>bin-070</OUTCOME>
	<OUTCOME>bin-071</OUTCOME>
	<OUTCOME>bin-072</OUTCOME>
	<OUTCOME>bin-073</OUTCOME>
	<OUTCOME>bin-074</OUTCOME>
	<OUTCOME>bin-075</OUTCOME>
	<OUTCOME>bin-076</OUTCOME>
	<OUTCOME>bin-077</OUTCOME>
	<OUTCOME>bin-078</OUTCOME>
	<OUTCOME>bin-079</OUTCOME>
	<OUTCOME>bin-080</OUTCOME>
</VARIABLE>

<VARIABLE TYPE="nature">
	<NAME>Src IP Role</NAME>
	<PROPERTY>description = Src IP Role</PROPERTY>
	<PROPERTY>fast = Src IP Role{Internet|Server|User}</PROPERTY>
<!--OUTCOME are not used in pyAgrum BIFXML (see fast property) but are kept for compatibility-->
	<OUTCOME>Internet</OUTCOME>
	<OUTCOME>Server</OUTCOME>
	<OUTCOME>User</OUTCOME>
</VARIABLE>

<VARIABLE TYPE="nature">
	<NAME>Dst IP Role</NAME>
	<PROPERTY>description = Dst IP Role</PROPERTY>
	<PROPERTY>fast = Dst IP Role{Internet|Server|User}</PROPERTY>
<!--OUTCOME are not used in pyAgrum BIFXML (see fast property) but are kept for compatibility-->
	<OUTCOME>Internet</OUTCOME>
	<OUTCOME>Server</OUTCOME>
	<OUTCOME>User</OUTCOME>
</VARIABLE>

<VARIABLE TYPE="nature">
	<NAME>Applicative Proto</NAME>
	<PROPERTY>description = Applicative Proto</PROPERTY>
	<PROPERTY>fast = Applicative Proto{dns|ftp|ftp-data|http|krb|ldap_tcp|ntp|ssh|ssl}</PROPERTY>
<!--OUTCOME are not used in pyAgrum BIFXML (see fast property) but are kept for compatibility-->
	<OUTCOME>dns</OUTCOME>
	<OUTCOME>ftp</OUTCOME>
	<OUTCOME>ftp-data</OUTCOME>
	<OUTCOME>http</OUTCOME>
	<OUTCOME>krb</OUTCOME>
	<OUTCOME>ldap_tcp</OUTCOME>
	<OUTCOME>ntp</OUTCOME>
	<OUTCOME>ssh</OUTCOME>
	<OUTCOME>ssl</OUTCOME>
</VARIABLE>

<VARIABLE TYPE="nature">
	<NAME>Proto</NAME>
	<PROPERTY>description = Proto</PROPERTY>
	<PROPERTY>fast = Proto{TCP|UDP}</PROPERTY>
<!--OUTCOME are not used in pyAgrum BIFXML (see fast property) but are kept for compatibility-->
	<OUTCOME>TCP</OUTCOME>
	<OUTCOME>UDP</OUTCOME>
</VARIABLE>

<VARIABLE TYPE="nature">
	<NAME>Src IP Addr</NAME>
	<PROPERTY>description = Src IP Addr</PROPERTY>
	<PROPERTY>fast = Src IP Addr{192.168.10.12|192.168.10.14|192.168.10.15|192.168.10.16|192.168.10.17|192.168.10.19|192.168.10.25|192.168.10.3|192.168.10.5|192.168.10.50|192.168.10.51|192.168.10.8|192.168.10.9|Internet}</PROPERTY>
<!--OUTCOME are not used in pyAgrum BIFXML (see fast property) but are kept for compatibility-->
	<OUTCOME>192.168.10.12</OUTCOME>
	<OUTCOME>192.168.10.14</OUTCOME>
	<OUTCOME>192.168.10.15</OUTCOME>
	<OUTCOME>192.168.10.16</OUTCOME>
	<OUTCOME>192.168.10.17</OUTCOME>
	<OUTCOME>192.168.10.19</OUTCOME>
	<OUTCOME>192.168.10.25</OUTCOME>
	<OUTCOME>192.168.10.3</OUTCOME>
	<OUTCOME>192.168.10.5</OUTCOME>
	<OUTCOME>192.168.10.50</OUTCOME>
	<OUTCOME>192.168.10.51</OUTCOME>
	<OUTCOME>192.168.10.8</OUTCOME>
	<OUTCOME>192.168.10.9</OUTCOME>
	<OUTCOME>Internet</OUTCOME>
</VARIABLE>

<VARIABLE TYPE="nature">
	<NAME>Dst IP Addr</NAME>
	<PROPERTY>description = Dst IP Addr</PROPERTY>
	<PROPERTY>fast = Dst IP Addr{172.104.52.34|172.104.54.71|172.104.98.120|172.217.0.238|172.217.1.163|172.217.1.166|172.217.1.174|172.217.10.1|172.217.10.10|172.217.10.100|172.217.10.102|172.217.10.104|172.217.10.106|172.217.10.109|172.217.10.110|172.217.10.114|172.217.10.115|172.217.10.129|172.217.10.13|172.217.10.130|172.217.10.131|172.217.10.132|172.217.10.134|172.217.10.136|172.217.10.137|172.217.10.138|172.217.10.14|172.217.10.141|172.217.10.142|172.217.10.146|172.217.10.147|172.217.10.18|172.217.10.19|172.217.10.2|172.217.10.225|172.217.10.226|172.217.10.227|172.217.10.228|172.217.10.230|172.217.10.232|172.217.10.234|172.217.10.237|172.217.10.238|172.217.10.242|172.217.10.243|172.217.10.3|172.217.10.33|172.217.10.34|172.217.10.35|172.217.10.36|172.217.10.38|172.217.10.40|172.217.10.42|172.217.10.45|172.217.10.46|172.217.10.50|172.217.10.51|172.217.10.6|172.217.10.65|172.217.10.66|172.217.10.67|172.217.10.68|172.217.10.70|172.217.10.72|172.217.10.74|172.217.10.77|172.217.10.78|172.217.10.8|172.217.10.82|172.217.10.83|172.217.10.97|172.217.10.98|172.217.10.99|172.217.11.1|172.217.11.10|172.217.11.13|172.217.11.14|172.217.11.18|172.217.11.19|172.217.11.2|172.217.11.3|172.217.11.33|172.217.11.34|172.217.11.35|172.217.11.36|172.217.11.38|172.217.11.4|172.217.11.40|172.217.11.42|172.217.11.45|172.217.11.46|172.217.11.50|172.217.11.51|172.217.11.6|172.217.11.8|172.217.12.129|172.217.12.130|172.217.12.131|172.217.12.132|172.217.12.134|172.217.12.136|172.217.12.138|172.217.12.141|172.217.12.142|172.217.12.146|172.217.12.147|172.217.12.161|172.217.12.162|172.217.12.163|172.217.12.164|172.217.12.166|172.217.12.168|172.217.12.170|172.217.12.173|172.217.12.174|172.217.12.178|172.217.12.179|172.217.12.193|172.217.12.194|172.217.12.195|172.217.12.198|172.217.12.200|172.217.12.201|172.217.12.202|172.217.12.205|172.217.12.206|172.217.12.210|172.217.12.211|172.217.12.99|172.217.17.35|172.217.17.99|172.217.19.206|172.217.2.102|172.217.2.109|172.217.2.110|172.217.2.162|172.217.2.164|172.217.20.78|172.217.29.195|172.217.3.100|172.217.3.102|172.217.3.104|172.217.3.106|172.217.3.109|172.217.3.110|172.217.3.114|172.217.3.115|172.217.3.116|172.217.3.34|172.217.3.35|172.217.3.36|172.217.3.97|172.217.3.98|172.217.3.99|172.217.5.227|172.217.5.228|172.217.5.238|172.217.6.193|172.217.6.194|172.217.6.195|172.217.6.196|172.217.6.198|172.217.6.200|172.217.6.202|172.217.6.206|172.217.6.210|172.217.6.211|172.217.6.212|172.217.6.225|172.217.6.226|172.217.6.227|172.217.6.228|172.217.6.230|172.217.6.232|172.217.6.234|172.217.6.237|172.217.6.238|172.217.6.243|172.217.7.1|172.217.7.10|172.217.7.13|172.217.7.131|172.217.7.132|172.217.7.14|172.217.7.162|172.217.7.163|172.217.7.164|172.217.7.170|172.217.7.174|172.217.7.18|172.217.7.19|172.217.7.195|172.217.7.196|172.217.7.2|172.217.7.202|172.217.7.227|172.217.7.228|172.217.7.3|172.217.7.4|172.217.7.6|172.217.7.8|172.217.8.10|172.217.8.3|172.217.8.4|172.217.8.6|172.217.9.225|172.217.9.226|172.217.9.227|172.217.9.228|172.217.9.230|172.217.9.232|172.217.9.233|172.217.9.234|172.217.9.237|172.217.9.238|172.217.9.242|172.217.9.243|172.224.10.215|172.224.108.63|172.224.11.150|172.224.12.18|172.224.13.96|172.224.5.142|172.224.8.45|172.82.204.149|172.82.204.92|172.82.206.1|172.82.206.2|172.98.66.52|172.98.66.53|172.98.66.58|172.98.66.60|192.168.10.1|192.168.10.12|192.168.10.16|192.168.10.17|192.168.10.19|192.168.10.255|192.168.10.3|192.168.10.50|192.168.10.51|198.199.94.97|Internet}</PROPERTY>
<!--OUTCOME are not used in pyAgrum BIFXML (see fast property) but are kept for compatibility-->
	<OUTCOME>172.104.52.34</OUTCOME>
	<OUTCOME>172.104.54.71</OUTCOME>
	<OUTCOME>172.104.98.120</OUTCOME>
	<OUTCOME>172.217.0.238</OUTCOME>
	<OUTCOME>172.217.1.163</OUTCOME>
	<OUTCOME>172.217.1.166</OUTCOME>
	<OUTCOME>172.217.1.174</OUTCOME>
	<OUTCOME>172.217.10.1</OUTCOME>
	<OUTCOME>172.217.10.10</OUTCOME>
	<OUTCOME>172.217.10.100</OUTCOME>
	<OUTCOME>172.217.10.102</OUTCOME>
	<OUTCOME>172.217.10.104</OUTCOME>
	<OUTCOME>172.217.10.106</OUTCOME>
	<OUTCOME>172.217.10.109</OUTCOME>
	<OUTCOME>172.217.10.110</OUTCOME>
	<OUTCOME>172.217.10.114</OUTCOME>
	<OUTCOME>172.217.10.115</OUTCOME>
	<OUTCOME>172.217.10.129</OUTCOME>
	<OUTCOME>172.217.10.13</OUTCOME>
	<OUTCOME>172.217.10.130</OUTCOME>
	<OUTCOME>172.217.10.131</OUTCOME>
	<OUTCOME>172.217.10.132</OUTCOME>
	<OUTCOME>172.217.10.134</OUTCOME>
	<OUTCOME>172.217.10.136</OUTCOME>
	<OUTCOME>172.217.10.137</OUTCOME>
	<OUTCOME>172.217.10.138</OUTCOME>
	<OUTCOME>172.217.10.14</OUTCOME>
	<OUTCOME>172.217.10.141</OUTCOME>
	<OUTCOME>172.217.10.142</OUTCOME>
	<OUTCOME>172.217.10.146</OUTCOME>
	<OUTCOME>172.217.10.147</OUTCOME>
	<OUTCOME>172.217.10.18</OUTCOME>
	<OUTCOME>172.217.10.19</OUTCOME>
	<OUTCOME>172.217.10.2</OUTCOME>
	<OUTCOME>172.217.10.225</OUTCOME>
	<OUTCOME>172.217.10.226</OUTCOME>
	<OUTCOME>172.217.10.227</OUTCOME>
	<OUTCOME>172.217.10.228</OUTCOME>
	<OUTCOME>172.217.10.230</OUTCOME>
	<OUTCOME>172.217.10.232</OUTCOME>
	<OUTCOME>172.217.10.234</OUTCOME>
	<OUTCOME>172.217.10.237</OUTCOME>
	<OUTCOME>172.217.10.238</OUTCOME>
	<OUTCOME>172.217.10.242</OUTCOME>
	<OUTCOME>172.217.10.243</OUTCOME>
	<OUTCOME>172.217.10.3</OUTCOME>
	<OUTCOME>172.217.10.33</OUTCOME>
	<OUTCOME>172.217.10.34</OUTCOME>
	<OUTCOME>172.217.10.35</OUTCOME>
	<OUTCOME>172.217.10.36</OUTCOME>
	<OUTCOME>172.217.10.38</OUTCOME>
	<OUTCOME>172.217.10.40</OUTCOME>
	<OUTCOME>172.217.10.42</OUTCOME>
	<OUTCOME>172.217.10.45</OUTCOME>
	<OUTCOME>172.217.10.46</OUTCOME>
	<OUTCOME>172.217.10.50</OUTCOME>
	<OUTCOME>172.217.10.51</OUTCOME>
	<OUTCOME>172.217.10.6</OUTCOME>
	<OUTCOME>172.217.10.65</OUTCOME>
	<OUTCOME>172.217.10.66</OUTCOME>
	<OUTCOME>172.217.10.67</OUTCOME>
	<OUTCOME>172.217.10.68</OUTCOME>
	<OUTCOME>172.217.10.70</OUTCOME>
	<OUTCOME>172.217.10.72</OUTCOME>
	<OUTCOME>172.217.10.74</OUTCOME>
	<OUTCOME>172.217.10.77</OUTCOME>
	<OUTCOME>172.217.10.78</OUTCOME>
	<OUTCOME>172.217.10.8</OUTCOME>
	<OUTCOME>172.217.10.82</OUTCOME>
	<OUTCOME>172.217.10.83</OUTCOME>
	<OUTCOME>172.217.10.97</OUTCOME>
	<OUTCOME>172.217.10.98</OUTCOME>
	<OUTCOME>172.217.10.99</OUTCOME>
	<OUTCOME>172.217.11.1</OUTCOME>
	<OUTCOME>172.217.11.10</OUTCOME>
	<OUTCOME>172.217.11.13</OUTCOME>
	<OUTCOME>172.217.11.14</OUTCOME>
	<OUTCOME>172.217.11.18</OUTCOME>
	<OUTCOME>172.217.11.19</OUTCOME>
	<OUTCOME>172.217.11.2</OUTCOME>
	<OUTCOME>172.217.11.3</OUTCOME>
	<OUTCOME>172.217.11.33</OUTCOME>
	<OUTCOME>172.217.11.34</OUTCOME>
	<OUTCOME>172.217.11.35</OUTCOME>
	<OUTCOME>172.217.11.36</OUTCOME>
	<OUTCOME>172.217.11.38</OUTCOME>
	<OUTCOME>172.217.11.4</OUTCOME>
	<OUTCOME>172.217.11.40</OUTCOME>
	<OUTCOME>172.217.11.42</OUTCOME>
	<OUTCOME>172.217.11.45</OUTCOME>
	<OUTCOME>172.217.11.46</OUTCOME>
	<OUTCOME>172.217.11.50</OUTCOME>
	<OUTCOME>172.217.11.51</OUTCOME>
	<OUTCOME>172.217.11.6</OUTCOME>
	<OUTCOME>172.217.11.8</OUTCOME>
	<OUTCOME>172.217.12.129</OUTCOME>
	<OUTCOME>172.217.12.130</OUTCOME>
	<OUTCOME>172.217.12.131</OUTCOME>
	<OUTCOME>172.217.12.132</OUTCOME>
	<OUTCOME>172.217.12.134</OUTCOME>
	<OUTCOME>172.217.12.136</OUTCOME>
	<OUTCOME>172.217.12.138</OUTCOME>
	<OUTCOME>172.217.12.141</OUTCOME>
	<OUTCOME>172.217.12.142</OUTCOME>
	<OUTCOME>172.217.12.146</OUTCOME>
	<OUTCOME>172.217.12.147</OUTCOME>
	<OUTCOME>172.217.12.161</OUTCOME>
	<OUTCOME>172.217.12.162</OUTCOME>
	<OUTCOME>172.217.12.163</OUTCOME>
	<OUTCOME>172.217.12.164</OUTCOME>
	<OUTCOME>172.217.12.166</OUTCOME>
	<OUTCOME>172.217.12.168</OUTCOME>
	<OUTCOME>172.217.12.170</OUTCOME>
	<OUTCOME>172.217.12.173</OUTCOME>
	<OUTCOME>172.217.12.174</OUTCOME>
	<OUTCOME>172.217.12.178</OUTCOME>
	<OUTCOME>172.217.12.179</OUTCOME>
	<OUTCOME>172.217.12.193</OUTCOME>
	<OUTCOME>172.217.12.194</OUTCOME>
	<OUTCOME>172.217.12.195</OUTCOME>
	<OUTCOME>172.217.12.198</OUTCOME>
	<OUTCOME>172.217.12.200</OUTCOME>
	<OUTCOME>172.217.12.201</OUTCOME>
	<OUTCOME>172.217.12.202</OUTCOME>
	<OUTCOME>172.217.12.205</OUTCOME>
	<OUTCOME>172.217.12.206</OUTCOME>
	<OUTCOME>172.217.12.210</OUTCOME>
	<OUTCOME>172.217.12.211</OUTCOME>
	<OUTCOME>172.217.12.99</OUTCOME>
	<OUTCOME>172.217.17.35</OUTCOME>
	<OUTCOME>172.217.17.99</OUTCOME>
	<OUTCOME>172.217.19.206</OUTCOME>
	<OUTCOME>172.217.2.102</OUTCOME>
	<OUTCOME>172.217.2.109</OUTCOME>
	<OUTCOME>172.217.2.110</OUTCOME>
	<OUTCOME>172.217.2.162</OUTCOME>
	<OUTCOME>172.217.2.164</OUTCOME>
	<OUTCOME>172.217.20.78</OUTCOME>
	<OUTCOME>172.217.29.195</OUTCOME>
	<OUTCOME>172.217.3.100</OUTCOME>
	<OUTCOME>172.217.3.102</OUTCOME>
	<OUTCOME>172.217.3.104</OUTCOME>
	<OUTCOME>172.217.3.106</OUTCOME>
	<OUTCOME>172.217.3.109</OUTCOME>
	<OUTCOME>172.217.3.110</OUTCOME>
	<OUTCOME>172.217.3.114</OUTCOME>
	<OUTCOME>172.217.3.115</OUTCOME>
	<OUTCOME>172.217.3.116</OUTCOME>
	<OUTCOME>172.217.3.34</OUTCOME>
	<OUTCOME>172.217.3.35</OUTCOME>
	<OUTCOME>172.217.3.36</OUTCOME>
	<OUTCOME>172.217.3.97</OUTCOME>
	<OUTCOME>172.217.3.98</OUTCOME>
	<OUTCOME>172.217.3.99</OUTCOME>
	<OUTCOME>172.217.5.227</OUTCOME>
	<OUTCOME>172.217.5.228</OUTCOME>
	<OUTCOME>172.217.5.238</OUTCOME>
	<OUTCOME>172.217.6.193</OUTCOME>
	<OUTCOME>172.217.6.194</OUTCOME>
	<OUTCOME>172.217.6.195</OUTCOME>
	<OUTCOME>172.217.6.196</OUTCOME>
	<OUTCOME>172.217.6.198</OUTCOME>
	<OUTCOME>172.217.6.200</OUTCOME>
	<OUTCOME>172.217.6.202</OUTCOME>
	<OUTCOME>172.217.6.206</OUTCOME>
	<OUTCOME>172.217.6.210</OUTCOME>
	<OUTCOME>172.217.6.211</OUTCOME>
	<OUTCOME>172.217.6.212</OUTCOME>
	<OUTCOME>172.217.6.225</OUTCOME>
	<OUTCOME>172.217.6.226</OUTCOME>
	<OUTCOME>172.217.6.227</OUTCOME>
	<OUTCOME>172.217.6.228</OUTCOME>
	<OUTCOME>172.217.6.230</OUTCOME>
	<OUTCOME>172.217.6.232</OUTCOME>
	<OUTCOME>172.217.6.234</OUTCOME>
	<OUTCOME>172.217.6.237</OUTCOME>
	<OUTCOME>172.217.6.238</OUTCOME>
	<OUTCOME>172.217.6.243</OUTCOME>
	<OUTCOME>172.217.7.1</OUTCOME>
	<OUTCOME>172.217.7.10</OUTCOME>
	<OUTCOME>172.217.7.13</OUTCOME>
	<OUTCOME>172.217.7.131</OUTCOME>
	<OUTCOME>172.217.7.132</OUTCOME>
	<OUTCOME>172.217.7.14</OUTCOME>
	<OUTCOME>172.217.7.162</OUTCOME>
	<OUTCOME>172.217.7.163</OUTCOME>
	<OUTCOME>172.217.7.164</OUTCOME>
	<OUTCOME>172.217.7.170</OUTCOME>
	<OUTCOME>172.217.7.174</OUTCOME>
	<OUTCOME>172.217.7.18</OUTCOME>
	<OUTCOME>172.217.7.19</OUTCOME>
	<OUTCOME>172.217.7.195</OUTCOME>
	<OUTCOME>172.217.7.196</OUTCOME>
	<OUTCOME>172.217.7.2</OUTCOME>
	<OUTCOME>172.217.7.202</OUTCOME>
	<OUTCOME>172.217.7.227</OUTCOME>
	<OUTCOME>172.217.7.228</OUTCOME>
	<OUTCOME>172.217.7.3</OUTCOME>
	<OUTCOME>172.217.7.4</OUTCOME>
	<OUTCOME>172.217.7.6</OUTCOME>
	<OUTCOME>172.217.7.8</OUTCOME>
	<OUTCOME>172.217.8.10</OUTCOME>
	<OUTCOME>172.217.8.3</OUTCOME>
	<OUTCOME>172.217.8.4</OUTCOME>
	<OUTCOME>172.217.8.6</OUTCOME>
	<OUTCOME>172.217.9.225</OUTCOME>
	<OUTCOME>172.217.9.226</OUTCOME>
	<OUTCOME>172.217.9.227</OUTCOME>
	<OUTCOME>172.217.9.228</OUTCOME>
	<OUTCOME>172.217.9.230</OUTCOME>
	<OUTCOME>172.217.9.232</OUTCOME>
	<OUTCOME>172.217.9.233</OUTCOME>
	<OUTCOME>172.217.9.234</OUTCOME>
	<OUTCOME>172.217.9.237</OUTCOME>
	<OUTCOME>172.217.9.238</OUTCOME>
	<OUTCOME>172.217.9.242</OUTCOME>
	<OUTCOME>172.217.9.243</OUTCOME>
	<OUTCOME>172.224.10.215</OUTCOME>
	<OUTCOME>172.224.108.63</OUTCOME>
	<OUTCOME>172.224.11.150</OUTCOME>
	<OUTCOME>172.224.12.18</OUTCOME>
	<OUTCOME>172.224.13.96</OUTCOME>
	<OUTCOME>172.224.5.142</OUTCOME>
	<OUTCOME>172.224.8.45</OUTCOME>
	<OUTCOME>172.82.204.149</OUTCOME>
	<OUTCOME>172.82.204.92</OUTCOME>
	<OUTCOME>172.82.206.1</OUTCOME>
	<OUTCOME>172.82.206.2</OUTCOME>
	<OUTCOME>172.98.66.52</OUTCOME>
	<OUTCOME>172.98.66.53</OUTCOME>
	<OUTCOME>172.98.66.58</OUTCOME>
	<OUTCOME>172.98.66.60</OUTCOME>
	<OUTCOME>192.168.10.1</OUTCOME>
	<OUTCOME>192.168.10.12</OUTCOME>
	<OUTCOME>192.168.10.16</OUTCOME>
	<OUTCOME>192.168.10.17</OUTCOME>
	<OUTCOME>192.168.10.19</OUTCOME>
	<OUTCOME>192.168.10.255</OUTCOME>
	<OUTCOME>192.168.10.3</OUTCOME>
	<OUTCOME>192.168.10.50</OUTCOME>
	<OUTCOME>192.168.10.51</OUTCOME>
	<OUTCOME>198.199.94.97</OUTCOME>
	<OUTCOME>Internet</OUTCOME>
</VARIABLE>

<VARIABLE TYPE="nature">
	<NAME>Dst Pt</NAME>
	<PROPERTY>description = Dst Pt</PROPERTY>
	<PROPERTY>fast = Dst Pt{port-123|port-137|port-18560|port-21|port-22|port-37633|port-389|port-443|port-465|port-53|port-5353|port-5355|port-55201|port-80|port-8080|port-8081|port-88|port-8817|unique}</PROPERTY>
<!--OUTCOME are not used in pyAgrum BIFXML (see fast property) but are kept for compatibility-->
	<OUTCOME>port-123</OUTCOME>
	<OUTCOME>port-137</OUTCOME>
	<OUTCOME>port-18560</OUTCOME>
	<OUTCOME>port-21</OUTCOME>
	<OUTCOME>port-22</OUTCOME>
	<OUTCOME>port-37633</OUTCOME>
	<OUTCOME>port-389</OUTCOME>
	<OUTCOME>port-443</OUTCOME>
	<OUTCOME>port-465</OUTCOME>
	<OUTCOME>port-53</OUTCOME>
	<OUTCOME>port-5353</OUTCOME>
	<OUTCOME>port-5355</OUTCOME>
	<OUTCOME>port-55201</OUTCOME>
	<OUTCOME>port-80</OUTCOME>
	<OUTCOME>port-8080</OUTCOME>
	<OUTCOME>port-8081</OUTCOME>
	<OUTCOME>port-88</OUTCOME>
	<OUTCOME>port-8817</OUTCOME>
	<OUTCOME>unique</OUTCOME>
</VARIABLE>

<!-- Probability distributions -->
<DEFINITION>
	<FOR>Cat Out Packet</FOR>
	<GIVEN>Cat In Packet</GIVEN>
	<TABLE>
		0.99992 0 0 8.04615e-05
		0 1 0 0
		0 0 1 0
		0.000834028 0 0 0.999166
		0.611633 0 0 0.388367
	</TABLE>
</DEFINITION>
<DEFINITION>
	<FOR>Cat In Packet</FOR>
	<GIVEN>Dst IP Role</GIVEN>
	<TABLE>
		0.917796 8.38132e-06 8.38132e-06 0.00822207 0.0739651
		0.832965 0 0 0.0141798 0.152855
		1 0 0 0 0
	</TABLE>
</DEFINITION>
<DEFINITION>
	<FOR>Connection State</FOR>
	<TABLE>
		0.886608 0.0560373 0.0404291 0.0100103 0.00691502
	</TABLE>
</DEFINITION>
<DEFINITION>
	<FOR>Time</FOR>
	<TABLE>
		0.0513248 0.0500443 0.0482808 0.0473441 0.0446806 0.0440439 0.0412706 0.0409999 0.0403559 0.03909 0.037707 0.0363752 0.0337629 0.0330677 0.0315749 0.03077 0.0293138 0.028304 0.0264234 0.0255161 0.0254575 0.024338 0.0242794 0.0224281 0.0205109 0.0200133 0.0198889 0.0193767 0.0191499 0.0172985 0.0142764 0.0108226 0.00165375 0.000256112
	</TABLE>
</DEFINITION>
<DEFINITION>
	<FOR>Src IP Role</FOR>
	<TABLE>
		0.999488 0.000512224 0
	</TABLE>
</DEFINITION>
<DEFINITION>
	<FOR>Dst IP Role</FOR>
	<TABLE>
		0.873071 0.112499 0.0144301
	</TABLE>
</DEFINITION>
<DEFINITION>
	<FOR>Applicative Proto</FOR>
	<TABLE>
		0.726172 0.255907 0.00772726 0.00348312 0.00335873 0.00334409 7.31748e-06 0 0
	</TABLE>
</DEFINITION>
<DEFINITION>
	<FOR>Proto</FOR>
	<TABLE>
		1 0
	</TABLE>
</DEFINITION>
<DEFINITION>
	<FOR>Src IP Addr</FOR>
	<TABLE>
		0.268837 0.150704 0.0818095 0.077258 0.072648 0.0705479 0.0646134 0.0638816 0.0562641 0.0505638 0.0414243 0.000936638 0.000512224 0
	</TABLE>
</DEFINITION>
<DEFINITION>
	<FOR>Dst IP Addr</FOR>
	<TABLE>
		0.873071 0.0144301 0.00493198 0.00362215 0.00349044 0.00315384 0.00303676 0.00281723 0.00259039 0.00237818 0.00237086 0.00228305 0.00218061 0.00212939 0.00204158 0.00194645 0.00182937 0.0018001 0.00173424 0.0016757 0.00153667 0.00153667 0.00152935 0.00139032 0.0013391 0.00131715 0.00125861 0.00115616 0.00113421 0.00108299 0.00106104 0.00102445 0.0010025 0.000922003 0.00090005 0.00090005 0.000885416 0.000819558 0.000804923 0.000782971 0.000761018 0.000753701 0.000746383 0.000746383 0.000724431 0.000702478 0.000695161 0.000665891 0.000665891 0.000658574 0.000658574 0.000651256 0.000643939 0.000629304 0.000607351 0.000600034 0.000592716 0.000585399 0.000585399 0.000578081 0.000578081 0.000570764 0.000563446 0.000548811 0.000548811 0.000541494 0.000534176 0.000526859 0.000504906 0.000490271 0.000482954 0.000475636 0.000461001 0.000446367 0.000446367 0.000439049 0.000439049 0.000431732 0.000431732 0.000431732 0.000417097 0.000417097 0.000417097 0.000417097 0.000417097 0.000409779 0.000409779 0.000395144 0.000380509 0.000365874 0.000365874 0.000336604 0.000329287 0.000329287 0.000329287 0.000321969 0.000321969 0.000314652 0.000307334 0.000307334 0.000300017 0.000300017 0.000300017 0.000300017 0.000292699 0.000292699 0.000285382 0.000278064 0.000278064 0.000263429 0.000256112 0.000256112 0.000248794 0.000248794 0.000241477 0.000226842 0.000226842 0.000226842 0.000219525 0.000212207 0.00020489 0.00020489 0.00020489 0.000197572 0.000190255 0.000190255 0.000182937 0.00017562 0.00017562 0.00017562 0.00017562 0.00017562 0.00017562 0.000168302 0.000160985 0.000160985 0.000153667 0.000153667 0.00014635 0.00014635 0.000139032 0.000139032 0.000139032 0.000139032 0.000131715 0.000131715 0.000131715 0.000131715 0.000131715 0.000124397 0.000124397 0.000124397 0.00011708 0.00011708 0.000102445 0.000102445 0.000102445 0.000102445 0.000102445 9.51273e-05 8.78098e-05 8.04923e-05 8.04923e-05 8.04923e-05 7.31748e-05 7.31748e-05 7.31748e-05 7.31748e-05 6.58574e-05 6.58574e-05 6.58574e-05 6.58574e-05 6.58574e-05 5.85399e-05 5.85399e-05 5.12224e-05 5.12224e-05 5.12224e-05 5.12224e-05 5.12224e-05 5.12224e-05 4.39049e-05 4.39049e-05 4.39049e-05 3.65874e-05 3.65874e-05 3.65874e-05 3.65874e-05 3.65874e-05 3.65874e-05 2.92699e-05 2.92699e-05 2.92699e-05 2.92699e-05 2.92699e-05 2.92699e-05 2.92699e-05 2.19525e-05 2.19525e-05 2.19525e-05 2.19525e-05 2.19525e-05 2.19525e-05 2.19525e-05 1.4635e-05 1.4635e-05 1.4635e-05 1.4635e-05 1.4635e-05 1.4635e-05 1.4635e-05 1.4635e-05 1.4635e-05 1.4635e-05 1.4635e-05 1.4635e-05 1.4635e-05 1.4635e-05 1.4635e-05 1.4635e-05 1.4635e-05 7.31748e-06 7.31748e-06 7.31748e-06 7.31748e-06 7.31748e-06 7.31748e-06 7.31748e-06 7.31748e-06 7.31748e-06 7.31748e-06 7.31748e-06 7.31748e-06 7.31748e-06 7.31748e-06 7.31748e-06 0 0 0 0 0 0 0
	</TABLE>
</DEFINITION>
<DEFINITION>
	<FOR>Dst Pt</FOR>
	<TABLE>
		0.723392 0.255424 0.00772726 0.00348312 0.00335873 0.00331482 0.00268552 0.000512224 2.92699e-05 2.19525e-05 1.4635e-05 1.4635e-05 1.4635e-05 7.31748e-06 0 0 0 0 0
	</TABLE>
</DEFINITION>

</NETWORK>
</BIF>
