<?xml version="1.0" ?>

<BIF VERSION="0.3">
<NETWORK>
<NAME>Common model</NAME>
<PROPERTY>software aGrUM</PROPERTY>

<!-- Variables -->
<VARIABLE TYPE="nature">
	<NAME>Time</NAME>
	<PROPERTY>description = Time</PROPERTY>
	<PROPERTY>fast = Time{bin-000|bin-001|bin-002|bin-003|bin-004|bin-005|bin-006|bin-007|bin-008|bin-009|bin-010|bin-011|bin-012|bin-013|bin-014|bin-015|bin-016|bin-017|bin-018|bin-019|bin-020|bin-021|bin-022|bin-023}</PROPERTY>
<!--OUTCOME are not used in pyAgrum BIFXML (see fast property) but are kept for compatibility-->
	<OUTCOME>bin-000</OUTCOME>
	<OUTCOME>bin-001</OUTCOME>
	<OUTCOME>bin-002</OUTCOME>
	<OUTCOME>bin-003</OUTCOME>
	<OUTCOME>bin-004</OUTCOME>
	<OUTCOME>bin-005</OUTCOME>
	<OUTCOME>bin-006</OUTCOME>
	<OUTCOME>bin-007</OUTCOME>
	<OUTCOME>bin-008</OUTCOME>
	<OUTCOME>bin-009</OUTCOME>
	<OUTCOME>bin-010</OUTCOME>
	<OUTCOME>bin-011</OUTCOME>
	<OUTCOME>bin-012</OUTCOME>
	<OUTCOME>bin-013</OUTCOME>
	<OUTCOME>bin-014</OUTCOME>
	<OUTCOME>bin-015</OUTCOME>
	<OUTCOME>bin-016</OUTCOME>
	<OUTCOME>bin-017</OUTCOME>
	<OUTCOME>bin-018</OUTCOME>
	<OUTCOME>bin-019</OUTCOME>
	<OUTCOME>bin-020</OUTCOME>
	<OUTCOME>bin-021</OUTCOME>
	<OUTCOME>bin-022</OUTCOME>
	<OUTCOME>bin-023</OUTCOME>
</VARIABLE>

<VARIABLE TYPE="nature">
	<NAME>Applicative Proto</NAME>
	<PROPERTY>description = Applicative Proto</PROPERTY>
	<PROPERTY>fast = Applicative Proto{dce_rpc|dhcp|dns|gssapi|http|krb|krb_tcp|ldap_tcp|ldap_udp|ntlm|ntp|smtp|ssl}</PROPERTY>
<!--OUTCOME are not used in pyAgrum BIFXML (see fast property) but are kept for compatibility-->
	<OUTCOME>dce_rpc</OUTCOME>
	<OUTCOME>dhcp</OUTCOME>
	<OUTCOME>dns</OUTCOME>
	<OUTCOME>gssapi</OUTCOME>
	<OUTCOME>http</OUTCOME>
	<OUTCOME>krb</OUTCOME>
	<OUTCOME>krb_tcp</OUTCOME>
	<OUTCOME>ldap_tcp</OUTCOME>
	<OUTCOME>ldap_udp</OUTCOME>
	<OUTCOME>ntlm</OUTCOME>
	<OUTCOME>ntp</OUTCOME>
	<OUTCOME>smtp</OUTCOME>
	<OUTCOME>ssl</OUTCOME>
</VARIABLE>

<VARIABLE TYPE="nature">
	<NAME>Proto</NAME>
	<PROPERTY>description = Proto</PROPERTY>
	<PROPERTY>fast = Proto{TCP|UDP}</PROPERTY>
<!--OUTCOME are not used in pyAgrum BIFXML (see fast property) but are kept for compatibility-->
	<OUTCOME>TCP</OUTCOME>
	<OUTCOME>UDP</OUTCOME>
</VARIABLE>

<VARIABLE TYPE="nature">
	<NAME>Src IP Addr</NAME>
	<PROPERTY>description = Src IP Addr</PROPERTY>
	<PROPERTY>fast = Src IP Addr{192.168.1.1|192.168.1.101|192.168.1.105|192.168.1.106|192.168.1.107|192.168.1.108|192.168.1.109|192.168.1.11|192.168.1.120|192.168.1.121|192.168.1.127|192.168.1.13|192.168.1.14|192.168.1.3|192.168.1.31|192.168.1.34|192.168.1.35|192.168.1.36|192.168.1.37|192.168.1.38|192.168.1.39|192.168.1.4|192.168.1.40|192.168.1.42|192.168.1.43|192.168.1.45|192.168.1.46|192.168.1.47|192.168.1.48|192.168.1.49|192.168.1.5|192.168.1.50|192.168.1.51|192.168.1.52|192.168.1.53|192.168.1.54|192.168.1.7|192.168.1.9|Internet}</PROPERTY>
<!--OUTCOME are not used in pyAgrum BIFXML (see fast property) but are kept for compatibility-->
	<OUTCOME>192.168.1.1</OUTCOME>
	<OUTCOME>192.168.1.101</OUTCOME>
	<OUTCOME>192.168.1.105</OUTCOME>
	<OUTCOME>192.168.1.106</OUTCOME>
	<OUTCOME>192.168.1.107</OUTCOME>
	<OUTCOME>192.168.1.108</OUTCOME>
	<OUTCOME>192.168.1.109</OUTCOME>
	<OUTCOME>192.168.1.11</OUTCOME>
	<OUTCOME>192.168.1.120</OUTCOME>
	<OUTCOME>192.168.1.121</OUTCOME>
	<OUTCOME>192.168.1.127</OUTCOME>
	<OUTCOME>192.168.1.13</OUTCOME>
	<OUTCOME>192.168.1.14</OUTCOME>
	<OUTCOME>192.168.1.3</OUTCOME>
	<OUTCOME>192.168.1.31</OUTCOME>
	<OUTCOME>192.168.1.34</OUTCOME>
	<OUTCOME>192.168.1.35</OUTCOME>
	<OUTCOME>192.168.1.36</OUTCOME>
	<OUTCOME>192.168.1.37</OUTCOME>
	<OUTCOME>192.168.1.38</OUTCOME>
	<OUTCOME>192.168.1.39</OUTCOME>
	<OUTCOME>192.168.1.4</OUTCOME>
	<OUTCOME>192.168.1.40</OUTCOME>
	<OUTCOME>192.168.1.42</OUTCOME>
	<OUTCOME>192.168.1.43</OUTCOME>
	<OUTCOME>192.168.1.45</OUTCOME>
	<OUTCOME>192.168.1.46</OUTCOME>
	<OUTCOME>192.168.1.47</OUTCOME>
	<OUTCOME>192.168.1.48</OUTCOME>
	<OUTCOME>192.168.1.49</OUTCOME>
	<OUTCOME>192.168.1.5</OUTCOME>
	<OUTCOME>192.168.1.50</OUTCOME>
	<OUTCOME>192.168.1.51</OUTCOME>
	<OUTCOME>192.168.1.52</OUTCOME>
	<OUTCOME>192.168.1.53</OUTCOME>
	<OUTCOME>192.168.1.54</OUTCOME>
	<OUTCOME>192.168.1.7</OUTCOME>
	<OUTCOME>192.168.1.9</OUTCOME>
	<OUTCOME>Internet</OUTCOME>
</VARIABLE>

<VARIABLE TYPE="nature">
	<NAME>Dst IP Addr</NAME>
	<PROPERTY>description = Dst IP Addr</PROPERTY>
	<PROPERTY>fast = Dst IP Addr{192.168.1.1|192.168.1.11|192.168.1.121|192.168.1.13|192.168.1.255|192.168.1.31|192.168.1.4|192.168.1.5|192.168.1.7|192.168.1.9|Internet}</PROPERTY>
<!--OUTCOME are not used in pyAgrum BIFXML (see fast property) but are kept for compatibility-->
	<OUTCOME>192.168.1.1</OUTCOME>
	<OUTCOME>192.168.1.11</OUTCOME>
	<OUTCOME>192.168.1.121</OUTCOME>
	<OUTCOME>192.168.1.13</OUTCOME>
	<OUTCOME>192.168.1.255</OUTCOME>
	<OUTCOME>192.168.1.31</OUTCOME>
	<OUTCOME>192.168.1.4</OUTCOME>
	<OUTCOME>192.168.1.5</OUTCOME>
	<OUTCOME>192.168.1.7</OUTCOME>
	<OUTCOME>192.168.1.9</OUTCOME>
	<OUTCOME>Internet</OUTCOME>
</VARIABLE>

<VARIABLE TYPE="nature">
	<NAME>Dst Pt</NAME>
	<PROPERTY>description = Dst Pt</PROPERTY>
	<PROPERTY>fast = Dst Pt{port-00025|port-00053|port-00067|port-00080|port-00088|port-00123|port-00135|port-00137|port-00139|port-00389|port-00443|port-00445|port-03268|port-05353|port-05355|port-05985|port-49666|port-49669|port-49675|port-49692|unique}</PROPERTY>
<!--OUTCOME are not used in pyAgrum BIFXML (see fast property) but are kept for compatibility-->
	<OUTCOME>port-00025</OUTCOME>
	<OUTCOME>port-00053</OUTCOME>
	<OUTCOME>port-00067</OUTCOME>
	<OUTCOME>port-00080</OUTCOME>
	<OUTCOME>port-00088</OUTCOME>
	<OUTCOME>port-00123</OUTCOME>
	<OUTCOME>port-00135</OUTCOME>
	<OUTCOME>port-00137</OUTCOME>
	<OUTCOME>port-00139</OUTCOME>
	<OUTCOME>port-00389</OUTCOME>
	<OUTCOME>port-00443</OUTCOME>
	<OUTCOME>port-00445</OUTCOME>
	<OUTCOME>port-03268</OUTCOME>
	<OUTCOME>port-05353</OUTCOME>
	<OUTCOME>port-05355</OUTCOME>
	<OUTCOME>port-05985</OUTCOME>
	<OUTCOME>port-49666</OUTCOME>
	<OUTCOME>port-49669</OUTCOME>
	<OUTCOME>port-49675</OUTCOME>
	<OUTCOME>port-49692</OUTCOME>
	<OUTCOME>unique</OUTCOME>
</VARIABLE>

<VARIABLE TYPE="nature">
	<NAME>Connection State</NAME>
	<PROPERTY>description = Connection State</PROPERTY>
	<PROPERTY>fast = Connection State{REJ|RST|S0|SF|SH|none}</PROPERTY>
<!--OUTCOME are not used in pyAgrum BIFXML (see fast property) but are kept for compatibility-->
	<OUTCOME>REJ</OUTCOME>
	<OUTCOME>RST</OUTCOME>
	<OUTCOME>S0</OUTCOME>
	<OUTCOME>SF</OUTCOME>
	<OUTCOME>SH</OUTCOME>
	<OUTCOME>none</OUTCOME>
</VARIABLE>

<!-- Probability distributions -->
<DEFINITION>
	<FOR>Time</FOR>
	<TABLE>
		0.0426712 0.0416897 0.042235 0.04049 0.0405409 0.041806 0.0411735 0.0425912 0.0433692 0.0430129 0.0408827 0.0406718 0.0399666 0.0413625 0.0419296 0.04073 0.0414279 0.0401847 0.0407372 0.0437327 0.040141 0.0426203 0.0430129 0.0430202
	</TABLE>
</DEFINITION>
<DEFINITION>
	<FOR>Applicative Proto</FOR>
	<GIVEN>Dst Pt</GIVEN>
	<TABLE>
		0 0 0 0 0 0 0 0 0 0 0 1 0
		0 0 1 0 0 0 0 0 0 0 0 0 0
		0 1 0 0 0 0 0 0 0 0 0 0 0
		0 0 0 0 1 0 0 0 0 0 0 0 0
		0 0 0 0 0 0.0107384 0.989262 0 0 0 0 0 0
		0 0 0 0 0 0 0 0 0 0 1 0 0
		0.815483 0 0 0 0 0.184517 0 0 0 0 0 0 0
		0 0 1 0 0 0 0 0 0 0 0 0 0
		0 0 0 1 0 0 0 0 0 0 0 0 0
		0 0 0 0 0 0 0 0.215484 0.784516 0 0 0 0
		0 0 0 0 0 0 0 0 0 0 0 0 1
		0 0 0 1 0 0 0 0 0 0 0 0 0
		0 0 0 0 0 0 0 1 0 0 0 0 0
		0 0 1 0 0 0 0 0 0 0 0 0 0
		0 0 1 0 0 0 0 0 0 0 0 0 0
		0 0 0 0 1 0 0 0 0 0 0 0 0
		0.768564 0 0 0 0 0.117726 0 0 0 0.11371 0 0 0
		0 0 0 0 0 1 0 0 0 0 0 0 0
		1 0 0 0 0 0 0 0 0 0 0 0 0
		0 0 0 0 0 0 0 0 0 1 0 0 0
		0 1 0 0 0 0 0 0 0 0 0 0 0
	</TABLE>
</DEFINITION>
<DEFINITION>
	<FOR>Proto</FOR>
	<GIVEN>Connection State</GIVEN>
	<TABLE>
		1 0
		1 0
		1 0
		1 0
		1 0
		0 1
	</TABLE>
</DEFINITION>
<DEFINITION>
	<FOR>Src IP Addr</FOR>
	<TABLE>
		7.27061e-06 0.00211575 0.0238767 0.00456594 0.0205031 0.0129562 0.0185401 0.0128908 0.0031918 0.0026465 0.125542 0.00378799 0.000865203 0.288432 0.0169623 0.0111749 0.0106878 0.0107969 0.0107823 0.0108696 0.011095 0.00562745 0.0115748 0.0108405 0.0110659 0.00464592 0.00942271 0.00939363 0.00937182 0.0105642 0.0133343 0.00937909 0.00911735 0.0101934 0.0090301 0.00993893 0.107511 0.145645 0.00105424
	</TABLE>
</DEFINITION>
<DEFINITION>
	<FOR>Dst IP Addr</FOR>
	<GIVEN>Dst Pt</GIVEN>
	<TABLE>
		0 0 0 0 0 0 0 0 0 1 0
		0 0 0 0 0 0 0 0 0.671657 0 0.328343
		0.612903 0 0 0 0 0 0 0 0 0 0.387097
		0 0 0 0.277405 0 0 0 0 0 0 0.722595
		0 0 0 0 0 0 0 0 1 0 0
		0 0 0 0 0 0 0 0 0.112034 0 0.887966
		0 0 0 0 0 0 0 0.252034 0.747966 0 0
		0 0 0 0 0.656762 0.122951 0 0 0.220287 0 0
		0 0 0 0 0 0.4 0 0 0.6 0 0
		0 0 0 0 0 0 0 0 1 0 0
		0 0 0 0 0 0 0 0 0 0 1
		0 0.0149254 0 0 0 0 0 0 0.985075 0 0
		0 0 0 0 0 0 0 0 1 0 0
		0 0 0 0 0 0 0 0 0 0 1
		0 0 0 0 0 0 0 0 0 0 1
		0 0 0.163883 0 0 0 0.163883 0.672234 0 0 0
		0 0 0 0 0 0 0 0 1 0 0
		0 0 0 0 0 0 0 1 0 0 0
		0 0 0 0 0 0 0 0 1 0 0
		0 0 0 0 0 0 0 0 1 0 0
		0 0 0 0 0 0 0 0 0 0 1
	</TABLE>
</DEFINITION>
<DEFINITION>
	<FOR>Dst Pt</FOR>
	<GIVEN>Src IP Addr</GIVEN>
	<TABLE>
		0 0 0 0 0 0 0 0 0 0 0 0 0 0 0 0 0 0 0 0 1
		0 0.264605 0.0103093 0.024055 0 0 0 0.0824742 0 0 0.536082 0 0 0 0.0824742 0 0 0 0 0 0
		0 0.281364 0.00091352 0.00182704 0.148904 0 0.00487211 0 0 0.399817 0.046285 0.0429354 0 0 0 0 0.0730816 0 0 0 0
		0 0.421975 0.00159236 0.461783 0 0.066879 0 0 0 0 0.00955414 0 0 0.0382166 0 0 0 0 0 0 0
		0 0.281206 0.0255319 0.00248227 0.137234 0 0.00496454 0.0677305 0 0.339007 0.014539 0.0510638 0 0 0.00035461 0 0.0758865 0 0 0 0
		0 0.248036 0.00785634 0.157127 0.0415264 0.0476992 0.0179574 0.135241 0.13468 0.121212 0.00392817 0.0617284 0 0 0.000561167 0 0.0151515 0 0.00729517 0 0
		0 0.496863 0.000392157 0.116863 0.119608 0.0164706 0 0 0 0.0760784 0.121569 0.0333333 0 0.0188235 0 0 0 0 0 0 0
		0 0.0981387 0.000564016 0.00564016 0.0203046 0.0473773 0.204738 0.0135364 0 0.485618 0.00620417 0.0496334 0.0135364 0 0.0135364 0 0.0411732 0 0 0 0
		0 0.166287 0.00455581 0.0159453 0 0 0 0.0546697 0 0 0.366743 0.33713 0 0 0.0546697 0 0 0 0 0 0
		0 0.211538 0.0247253 0.0192308 0 0 0 0.0659341 0 0 0.456044 0.153846 0 0 0.0686813 0 0 0 0 0 0
		0 0.000231656 0.00104245 0.000115828 0 0.998552 0 0 0 0 0 0 0 5.79139e-05 0 0 0 0 0 0 0
		0 0.190019 0 0.00383877 0.0633397 0.161228 0.049904 0.0460653 0 0.142035 0.0191939 0.228407 0 0 0.0460653 0 0.049904 0 0 0 0
		0 1 0 0 0 0 0 0 0 0 0 0 0 0 0 0 0 0 0 0 0
		0 0.0703789 0 0 0.213783 0 0.0170654 0.000604976 0 0.486501 0 0.00362986 0 0 0.000604976 0 0.207431 0 0 0 0
		0.00728676 0.216031 0 0.232319 0.0278611 0.0360051 0.0132876 0.1033 0.154308 0.141449 0.00342906 0.0471496 0 0 0.000428633 0 0.0115731 0 0.00557222 0 0
		0.0149642 0.27326 0 0.348731 0.0448926 0.0546519 0.0195185 0.000650618 0 0.137931 0.00585556 0.0722186 0 0 0.000650618 0 0.0175667 0 0.00910865 0 0
		0.014966 0.22585 0 0.357823 0.0489796 0.0571429 0.0251701 0.000680272 0 0.157143 0.00748299 0.0755102 0 0 0.000680272 0 0.0190476 0 0.00952381 0 0
		0 0.239731 0 0.36633 0.0498316 0.0565657 0.0228956 0.000673401 0 0.153535 0.00673401 0.0747475 0 0 0.000673401 0 0.0188552 0 0.00942761 0 0
		0.0202293 0.238031 0 0.356035 0.0492245 0.0566419 0.0242751 0.000674309 0 0.148348 0.00472016 0.074174 0 0 0.000674309 0 0.0182063 0 0.00876601 0 0
		0.019398 0.254181 0 0.351171 0.0448161 0.0561873 0.0227425 0.000668896 0 0.143813 0.00401338 0.0749164 0 0 0.000668896 0 0.0180602 0 0.00936455 0 0
		0.0163827 0.239843 0 0.363696 0.0471822 0.0550459 0.0229358 0.000655308 0 0.146789 0.00524246 0.0733945 0 0 0.000655308 0 0.0183486 0 0.00982962 0 0
		0 0.416021 0 0 0.0426357 0.108527 0.0374677 0.0310078 0 0.152455 0.00129199 0.140827 0 0 0.0322997 0 0.0361757 0 0 0.00129199 0
		0.0106784 0.274497 0 0.354899 0.0408291 0.0527638 0.0226131 0.000628141 0 0.139447 0.00690955 0.0703518 0 0 0.000628141 0 0.0169598 0 0.00879397 0 0
		0.0214621 0.234742 0 0.348759 0.0482897 0.056338 0.0274983 0.000670691 0 0.152247 0.00603622 0.0751174 0 0 0.000670691 0 0.0187793 0 0.00938967 0 0
		0.0170828 0.257556 0 0.350854 0.0459921 0.0558476 0.0243101 0.00065703 0 0.14389 0.00525624 0.0716163 0 0 0.00065703 0 0.0177398 0 0.00854139 0 0
		0 0.0876369 0 0.00782473 0.103286 0.131455 0.0610329 0.00156495 0 0.350548 0.0140845 0.175274 0 0 0.00156495 0 0.0438185 0 0.0219092 0 0
		0 0.310957 0 0.209105 0.0532407 0.0648148 0.0285494 0.000771605 0 0.18287 0.0285494 0.0864198 0 0 0.000771605 0 0.0223765 0 0.0115741 0 0
		0 0.328947 0 0.22291 0.0487616 0.0650155 0.0247678 0.000773994 0 0.162539 0.0294118 0.0859133 0 0 0.000773994 0 0.0201238 0 0.0100619 0 0
		0 0.335919 0 0.221102 0.0449961 0.0651668 0.0279286 0.000775795 0 0.159038 0.0279286 0.0861133 0 0 0.000775795 0 0.0201707 0 0.0100853 0 0
		0 0.39298 0 0.185822 0.0488644 0.0578114 0.026841 0.000688231 0 0.158293 0.0227116 0.0763937 0 0 0.000688231 0 0.0192705 0 0.00963524 0 0
		0 0.212105 0 0 0.0267176 0.0458015 0.165213 0.0130862 0 0.441112 0.00163577 0.0725191 0 0 0.0130862 0 0.00817884 0 0 0.000545256 0
		0 0.331008 0 0.215504 0.051938 0.0651163 0.027907 0.000775194 0 0.162016 0.0286822 0.0852713 0 0 0.000775194 0 0.020155 0 0.0108527 0 0
		0 0.34689 0 0.191388 0.0542265 0.0669856 0.0247209 0.000797448 0 0.162679 0.0326954 0.0877193 0 0 0.000797448 0 0.0207337 0 0.0103668 0 0
		0 0.328816 0 0.236091 0.0513552 0.0599144 0.0271041 0.000713267 0 0.164051 0.021398 0.0798859 0 0 0.000713267 0 0.0199715 0 0.00998573 0 0
		0 0.320451 0 0.194847 0.0539452 0.0676329 0.0289855 0.000805153 0 0.177134 0.0322061 0.0901771 0 0 0.000805153 0 0.0217391 0 0.0112721 0 0
		0 0.342356 0 0.208486 0.051207 0.0614484 0.026335 0.000731529 0 0.170446 0.0256035 0.0819312 0 0 0.000731529 0 0.0204828 0 0.0102414 0 0
		0 0.534456 0 0.000405762 0 0 0.0775005 0 0 0 0.0114966 0 0 0 0 0.344154 0 0.0319876 0 0 0
		0 0.0645467 0 0.0228634 0.339906 0.00419329 0.0614018 0.00459265 0 0.122204 0.00104832 0.109575 0.0221645 0 0.0091853 0 0.164786 0 0.0735323 0 0
		0 0 0 0 0 0 0 0 0 0 0 0 0 0.496552 0.503448 0 0 0 0 0 0
	</TABLE>
</DEFINITION>
<DEFINITION>
	<FOR>Connection State</FOR>
	<GIVEN>Applicative Proto</GIVEN>
	<TABLE>
		0 0 0 1 0 0
		0 0 0 0 0 1
		0 0 0 0 0 1
		0 0.904686 0 0.0953137 0 0
		0 0.0100425 0.00125532 0.988702 0 0
		0 0 0 0.935355 0 0.0646451
		0 0.999944 0 0 5.59534e-05 0
		0.006752 0.993248 0 0 0 0
		0 0 0 0 0 1
		0 0 0 1 0 0
		0 0 0 0 0 1
		0 0 0 1 0 0
		0 0.308913 0.004884 0.684982 0.001221 0
	</TABLE>
</DEFINITION>

</NETWORK>
</BIF>
